hsa-let-7a-5p,0.45678294,0.43260142,0.3974614,-0.27566454,-0.31020805,-0.20968819,-0.18131697,0.21816312,-0.35591066,-0.50513494,-0.3037383,0.4225862,-0.3097281,0.06640418,0.52770007,0.20011277,0.079377696,0.36615998,-0.25272945,0.24160686,0.18494637,-0.12689883,0.09845207,-0.3893345,0.0011662696,-0.13474794,0.5284887,-0.19522753,-0.21426475,0.037156977,-0.37579837,-0.26572978,-0.30947274,-0.31332314,-0.17638932,-0.014080714,-0.19260561,0.3301261,0.4029956,-0.28829736,-0.44134,0.15096962,-0.21755943,-0.009460746,0.41686085,0.23031169,-0.24323648,0.07000289,-0.106532484,-0.2743553,0.3826441,0.271456,-0.00509665,0.29705983,0.17760834,0.46137765,0.11686215,-0.41957632,-0.14815012,0.086398035,-0.06943649,0.21863432,0.14207596,0.3509139,0.24504656,0.24573107,-0.25328705,0.09382266,0.70222604,3.8213257e-05,-0.4782452,-0.5078322,0.16764688,0.25318748,-0.41669896,-0.083237015,-0.24765089,-0.3148933,-0.2297267,-0.22499213,-0.5025368,-0.20345496,-0.24990614,-0.24743156,-0.29614696,0.35384825,0.3100809,-0.36558467,0.026534453,-0.08356214,0.3151967,-0.1043431,0.09888485,0.34551814,0.012630301,0.5023832,-0.1081521,-0.051227506,-0.11182415,-0.31119677,-0.1324844,-0.41895127,0.20720316,0.3393644,0.25369862,0.306099,0.4811991,-0.41570595,-0.20343144,-0.3820239,-0.1239711,-0.29833794,-0.018554123,-0.21179575,0.329735,0.38417318,-0.18087193,0.27483115,0.25554255,-0.3326804,0.10650535,0.13916664,0.04354214,0.4548903,0.002012689,0.21978182,0.12910579,0.38601607,0.19228421,0.38433245,-0.091103174,-0.0069691935,0.08612975,-0.07078167,-0.01911653,-0.06313569,-0.5230216,0.17666751,0.13794635,0.074755475,-0.053315118,-0.4580984,0.0058611333,-0.15098076,-0.11487353,-0.0960984,0.0026656853,0.32429084,-0.45289654,0.083764225,0.23601738,-0.21559073,-0.38137192,-0.33862206,-0.45917016,-0.3488201,0.21261576,-0.2102338,0.09829054,-0.34446844,0.3290831,0.14585662,-0.0870882,-0.32748905,-0.16133422,0.108952254,0.55245084,0.24198061,-0.008318336,0.44814205,0.46917525,-0.23510972,0.36058164,0.3878416,-0.05774743,0.00440287,0.02708509,-0.30884278,0.004464918,-0.008466158,0.51527095,-0.18804093,0.6344611,-0.042808715,-0.2819344,-0.09989384,0.005466668,0.49506155,0.27040192,-0.061649334,0.21696946,-0.08009447,0.33099157,-0.10399802,-0.3074829,0.24763349,0.22109759,-0.42249292,-0.024262004,0.55786175,0.32933497,-0.21668874,0.26489362,-0.5433444,0.25881848,-0.25771117,-0.38555118,0.4088078,0.51533604,0.16298956,0.39998114,-0.13324441,-0.053615604,-0.26153135,0.22342801,-0.016773026,0.33413577,-0.31580907,-0.19343309,0.46461278,0.153171,-0.40729353,0.35085925,0.17969008,0.39698264,0.4054152,0.46951765,-0.41477728,0.39143592,0.012608702,-0.07878769,-0.5008003,0.45573464,-0.31673786,0.42672336,0.35154623,0.5109829,0.3487926,-0.178744,-0.23697545,0.11197298,-0.11280913,-0.27543864,-0.33663794,0.053514943,0.4611295,-0.18637192,0.22817546,0.085262775,0.46000722,-0.12855548,0.1490024,-0.26623106,-0.25577152,0.30353236,-0.019198507
hsa-let-7b-5p,0.6236118,0.60368025,0.4062675,-0.5842574,-0.29082668,0.04093793,-0.45742127,0.48450607,0.116284885,-0.06601645,-0.30154276,0.5821075,-0.36054918,-0.117231086,0.2124907,0.6033205,-0.1480187,0.30817103,-0.15583806,0.1779603,0.25858653,-0.060849667,-0.1969874,-0.019650966,-0.24878676,-0.014885349,-0.09267185,-0.17908461,-0.34089988,-0.26162544,-0.20179467,-0.044428747,0.37675375,0.2388362,0.06040154,-0.35913554,0.18390572,0.025423693,-0.20693772,0.48622313,0.47262266,0.26330912,0.025212837,-0.13508493,-0.5362746,0.06542304,-0.024727562,0.21166031,0.010345497,-0.12187116,0.18863459,0.26285222,0.0946638,0.19972976,0.20945327,-0.0010151835,-0.043179233,0.2174291,-0.038731787,-0.01139168,0.058207273,0.41889068,0.08716028,0.5105101,0.21118645,0.09469919,-0.0004690141,0.3613412,-0.13381097,0.21969418,-0.09935499,-0.12141888,0.5010015,-0.095795244,0.049139015,0.05300344,-0.25676692,-0.13095665,0.08757041,0.15761577,0.12673995,-0.35939658,0.61032164,-0.2718755,-0.60250777,0.109186605,0.042407922,0.08275305,0.104373775,-0.0927392,0.56133616,-0.069156334,-0.4710238,0.929243,0.45415467,0.39459416,-0.34876895,-0.20466301,-0.47731522,-0.18128815,-0.35268462,0.105696924,-0.06439118,0.59040153,0.5888425,0.35382912,0.44860303,-0.37907276,-0.19870141,0.023421485,-0.055336386,-0.1318164,-0.4086979,0.03757637,0.203267,0.3872969,-0.5489349,0.70184827,0.27161855,-0.540815,0.10597668,0.25461888,0.35542914,0.64569414,-0.25688097,0.3144627,0.14765087,0.6369643,-0.569851,-0.42208132,0.18417591,-0.37155628,0.02118088,-0.12176319,-0.023983015,0.104417615,-0.2426287,-0.12558092,0.02744938,-0.1553049,-0.13963115,-0.09883369,0.25729927,-0.029439226,0.2272223,-0.09271171,-0.038379986,-0.0381552,0.2860807,-0.051759418,0.10913645,-0.14757891,0.20374039,0.12850897,-0.29123744,0.061288625,0.35563156,-0.3146604,-0.104138374,0.20721684,0.5192004,0.09552543,-0.24827814,-0.40571132,-0.3770196,0.2795686,0.19089474,0.010166856,-0.5871561,0.25054464,0.59495425,-0.15466294,0.008744218,0.25210822,-0.28167555,-0.26315755,0.23968145,-0.4037667,0.014488397,-0.19173157,0.45407873,-0.20426045,0.12809673,-0.2954638,0.29181308,0.18623196,0.6119886,0.26809636,0.31324625,0.25537762,0.030078012,0.31358698,0.21895039,-0.17528796,-0.18348664,0.5897927,-0.08448879,-0.10168094,-0.1738536,0.013749418,0.6154261,0.17148423,0.22934884,-0.09869865,0.090874605,0.1175803,-0.4811035,0.25020245,0.11952404,-0.2470656,0.012639853,-0.32133508,-0.07396754,0.028627409,-0.35947117,0.021843567,-0.27158925,-0.17893484,-0.331411,-0.06291046,-0.08389599,-0.36008525,0.36042655,-0.14136,0.40499997,0.57646656,0.47154906,-0.4926072,0.3306409,0.11050622,0.12844387,-0.15306818,0.6482055,-0.2789802,0.40586162,0.18746437,0.6259357,0.3676777,-0.43468788,-0.30776513,-0.35070938,-0.4988305,-0.47826573,-0.31882548,0.47271034,0.37883183,0.28754574,-0.15882076,-0.017673742,0.75971454,-0.27876532,0.16905922,-0.48741117,-0.031328786,0.6302321,0.5090204
hsa-let-7c-5p,0.5096793,0.7227165,0.0030613262,-0.13387538,0.024948368,-0.029018242,-0.36605436,-0.098475814,-0.00296773,-0.17940725,-0.16596186,-0.013640475,-0.009603452,0.23290199,0.47147137,0.36937848,0.032111086,0.38624653,-0.5947528,-0.13059877,0.3660627,-0.40926856,-0.2732269,-0.62894535,0.30862466,-0.28428367,0.11288006,-0.19643156,-0.24611057,0.12444708,-0.0991275,-0.09378652,-0.18558936,-0.011786877,-0.2851942,-0.08695026,-0.0014079652,0.04904624,0.17907959,0.669518,0.16601321,0.07680072,-0.07879051,-0.054625917,-0.17686364,0.07877488,-0.3357271,-0.09722806,0.028964547,-0.5449034,0.23129322,0.24808438,0.23466174,0.42253572,0.35860428,0.61313283,0.15232868,-0.08933518,-0.11520838,0.102340154,-0.19314948,0.6286408,0.28410134,0.6432467,0.29226735,-0.2254392,-0.60612273,-0.027664507,0.07766836,0.1823793,-0.06020361,-0.06435916,0.3918208,-0.040739316,-0.07639111,-0.067289986,-0.019272879,-0.29478994,-0.3464786,-0.004606572,0.3731479,-0.16600204,0.20479593,-0.6234722,-0.32390556,-0.20856006,-0.15638305,0.40685895,0.12734364,-0.11751777,0.42400366,0.13421208,-0.20453742,0.32370156,0.36871314,-0.072921656,-0.12571122,-0.39042476,-0.009124052,-0.2292677,0.08276734,0.1233959,-0.010948757,0.296198,0.6773359,0.26999968,0.41570586,-0.6604875,-0.51400065,0.30498868,0.041653894,-0.30028462,0.13682412,-0.22023264,0.099439315,0.81720364,0.0843264,0.76391876,0.09089465,-0.9491195,-0.05923897,0.64806515,0.034227334,0.6266482,-0.09631719,0.30335617,0.18344413,0.16943885,0.038636226,-0.13138913,-0.07212207,-0.22475998,-0.14872779,-0.30877843,-0.0009154008,0.1065194,-0.35069075,-0.3292517,0.23951997,-0.0015733181,-0.005533474,-0.34055144,0.107345216,0.07141371,0.08256436,-0.1471586,-0.3267992,0.17994496,-0.14370377,0.15214628,0.18766202,-0.40646842,-0.41217104,-0.35091412,-0.7217943,-0.1446008,0.2390589,-0.11683393,-0.049220268,0.032068808,0.6248591,0.08502226,-0.4189163,-0.6498682,-0.25973734,0.5443958,0.2758392,0.26952153,-0.22566935,0.34346837,0.38839388,-0.070998676,-0.20234764,0.15708019,-0.020150645,0.29399425,0.056959957,-0.6660073,-0.04869827,0.083026364,0.5614523,-0.36500952,-7.943076e-06,-0.34290782,0.039066996,0.21805574,0.45281875,0.70817024,0.09065729,0.11052202,0.13902543,0.10214279,0.3452531,-0.21638481,-0.23189335,0.3155738,-0.25990936,-0.04868984,-0.23082872,0.20567901,0.33307955,0.23297362,0.3877384,0.48428306,0.033452064,0.06244746,-0.27731404,-0.20489642,0.051195886,0.19386113,0.0048201913,-0.45281962,-0.2994305,-0.2539143,0.055778347,0.01937893,-0.2356637,-0.36868623,-0.23848015,0.32494158,-0.35724574,-0.3309039,0.13609062,-0.002480274,0.17682277,-0.025198793,-0.061958626,0.060269307,0.2347009,0.2921162,0.3933403,0.017654637,0.60671914,-0.48477802,0.23035036,0.017968904,0.46443987,0.23840459,-0.10152697,0.30559814,0.16643059,0.16493006,-0.18542892,-0.04016583,0.21963051,-0.08984859,0.3730916,-0.11572956,0.2061495,0.07934119,-0.28201503,0.06222375,0.21922731,0.3041748,0.18865785,0.46130583
hsa-let-7d-5p,0.18644683,0.37930882,-0.0025687576,-0.20168822,-0.50494325,-0.01960492,0.10604367,0.23281494,0.18766466,-0.056853093,-0.07068014,0.43915638,-0.20495716,0.23671424,0.5845469,0.23145054,-0.19478181,0.18886785,-0.37721714,-0.20566732,0.40463194,-0.454523,-0.6255058,-0.3206669,0.30326277,-0.38924602,0.6443137,-0.5938823,-0.7092901,0.4097804,-0.43456534,-0.7409487,-0.08572246,0.21946217,-0.14142796,-0.6241417,0.12678276,-0.023775447,0.011788262,0.28016675,0.12546784,-0.18223593,0.09331746,-0.10562832,-0.06269652,0.021799885,-0.38248563,0.2662049,0.18979047,-0.7739102,0.37471628,0.63323796,-0.16229464,0.3811511,-0.11953883,-0.20358695,0.17904651,-0.34439397,-0.15074445,-0.0008739583,-0.29351908,0.18019435,0.105706885,0.2224682,0.009038354,0.10796003,-0.15219618,0.0347988,0.27546832,0.25456688,-0.05953366,-0.10213452,0.28979954,0.13862176,-0.3596686,0.27253065,0.012624409,-0.0060344036,-0.32022285,-0.20774136,-0.124485634,-0.45885825,0.08710221,-0.43255186,-0.58070314,0.12622036,0.35795286,-0.021345498,0.24688222,-0.07154385,0.6339948,-0.026947608,-0.17530574,0.43692383,-0.026636533,0.54087603,-0.5659045,0.060185395,0.011682343,-0.33099806,-0.027402174,-0.23199606,0.053712867,0.52617794,0.32293648,-0.14822173,0.18334478,0.046256103,-0.11945924,0.04709597,0.20426877,-0.32639202,-0.05065669,-0.09381117,0.01901342,0.23280507,0.4112731,0.37301606,-0.05293939,-0.27747378,0.13460822,0.43093956,0.080345176,0.5014884,0.098565765,-0.11260629,-0.06901012,-0.3394502,-0.32873356,-0.23022927,0.013097982,-0.1051729,-0.2436248,-0.08146679,-0.12204575,-0.16787347,-0.057471022,-0.023938596,-0.4915361,0.20797558,0.03955765,-0.19529265,-0.14957745,-0.1643586,0.40039608,-0.33995062,-0.06775477,-0.21143913,0.6478773,0.013457477,0.05420871,-0.19597325,0.0074040494,-0.017722253,-0.15633532,0.06135876,0.42181244,-0.405607,-0.66249305,0.01546252,0.5054874,0.36604384,-0.6368531,-0.28987217,-0.31795406,0.6266569,0.81002724,0.63589376,-0.54840654,0.4170438,0.22229917,-0.19906661,0.3130772,0.43280646,0.4751759,-0.12658003,0.21840122,0.100582905,0.173948,-0.021936681,0.05166219,-0.45799607,-0.09669319,-0.2482626,0.42945907,0.18217711,0.318766,-0.0028856813,-0.061232384,-0.051350385,0.43179435,-0.24174304,-0.2967697,-0.10301447,-0.23464842,0.24450405,-0.3357559,-0.08542938,-0.25368762,0.28389737,0.4357846,0.5440903,0.16201779,0.2455749,-0.023177508,0.05074528,-0.15645239,-0.050268684,0.9473874,-0.08649893,0.541628,-0.43194324,-0.24687967,-0.39453998,-0.0778117,-0.2893097,-0.16567379,-0.12704211,-0.38282737,0.4225042,0.04555145,-0.33383292,0.35587722,0.31607893,0.2078589,0.2915363,0.5697489,-0.32183152,0.1451714,-0.12840512,-0.0046138857,-0.24749778,0.92756057,-0.3557279,0.14180723,0.294174,0.9078819,0.3960228,-0.36921096,-0.25908694,-0.27032804,-0.020133786,-0.050223254,-0.26852527,-0.11972157,0.43127096,0.31862032,-0.31635046,-0.18682921,-0.06317954,0.29707634,0.10800813,-0.22854719,-0.06311731,-0.3972924,0.12972997
hsa-let-7e-5p,0.22681803,0.61807114,0.3323931,-0.40265635,-0.53357816,0.01460098,-0.63604856,0.23323843,-0.039404932,-0.41322944,-0.1814036,0.2839317,0.0076743234,-0.13437662,0.16023876,0.22779983,-0.122491315,0.6027619,-0.24629244,0.32490793,0.10885324,-0.20343722,-0.28704923,-0.4329503,0.09222588,0.16760293,0.054932535,-0.5867866,-0.63315743,0.0010563043,-0.41532835,-0.27862597,-0.19994158,-0.07286965,-0.036430202,-0.48074088,0.084441245,-0.088967845,-0.20254557,0.30542937,0.53624713,-0.17407814,0.15765768,-0.12240819,-0.16337025,0.23161097,-0.22491337,0.081318505,0.10496456,-0.4167453,0.33615214,0.22697099,-0.11461677,0.15860187,-0.51605356,0.3885347,0.06637588,0.1548773,-0.1887324,0.091669984,-0.32326958,0.5278438,0.31111977,0.31995475,-0.08502655,-0.08073544,-0.18345866,0.22067784,-0.3518285,-0.087445654,0.46497166,0.25878388,0.115630925,-0.1555035,-0.08599928,0.05406957,-0.10624336,-0.33253768,-0.18454233,-0.11990788,-0.27063245,0.094363704,0.3233083,-0.18218006,-0.14916438,-0.12901777,0.16077529,-0.030710336,0.40860996,0.074269965,0.101721555,-0.034791853,-0.30273873,0.070593216,0.10393922,0.34547666,-0.26225954,-0.22164111,-0.27260432,-0.14298752,-0.09922488,0.05103908,0.2981713,0.6047168,0.4521674,0.4344798,0.115921035,-0.26029375,-0.3789336,0.12100938,-0.16997388,-0.2190622,-0.04952304,-0.06098591,-0.078545526,0.29254848,0.021245757,0.17849767,0.01329115,-0.2693694,0.25410548,0.12409093,-0.02155591,0.06520963,-0.22242895,0.05923828,-0.050891418,0.20511012,-0.024199741,0.4203738,0.06499182,-0.24133085,0.11518899,-0.41029498,-0.01465794,0.25788996,-0.58882606,-0.3690258,0.34559718,-0.26471582,0.23551486,-0.16186991,0.10354442,0.1005404,-0.12256363,0.12635307,-0.08355749,-0.5611917,-0.019375354,0.08896114,0.20117408,-0.09835827,-0.1714427,-0.28485033,-0.34554258,-0.34599593,0.28351733,0.11355389,-0.15619522,-0.08080757,0.7942841,0.22280267,-0.7413459,-0.36972663,-0.26082298,0.43673256,0.39917725,0.29476595,-0.28895286,0.14145704,0.29905528,-0.05308965,-0.06386355,0.40261564,-0.034183998,0.04329816,0.09695208,-0.34689656,0.09863048,0.06397253,0.07568192,-0.25260037,-0.11808657,0.17969029,0.045029283,-0.025447024,0.53139615,0.31628984,0.1872048,0.5167547,-0.20147857,0.0003475581,0.0646632,-0.37250078,-0.5055821,0.19941273,-0.20287052,0.23848334,-0.4200594,0.13077089,0.6086076,-0.16478616,0.35415205,0.31282517,0.45328155,0.060286276,-0.40051264,0.14794186,0.5819506,0.38335395,0.39357495,-0.6819668,-0.023002515,-0.23887701,-0.062423013,-0.0015414709,-0.11693429,-0.36527014,-0.0799287,0.54099435,-0.19201353,-0.10508643,0.24086127,0.07444501,0.08515982,0.28422806,0.17749274,-0.010106972,0.64137757,0.19487734,0.1394697,-0.32531074,1.2042367,-0.5507989,0.49355838,0.20702386,0.97804064,0.77797896,-0.50632775,-0.06997107,-0.18172263,-0.1870292,-0.109455876,-0.009647406,0.37382117,0.14574014,-0.22160174,-0.12858836,0.09626778,0.6392305,-0.37873915,0.40718666,-0.14206652,0.14115997,-0.08207782,0.18537451
hsa-let-7f-5p,0.18909207,1.1034899,0.123397216,0.05007117,-0.5907635,-0.35008997,-0.8263167,-0.013734091,0.0032517852,-0.066551045,-0.26003847,0.3368529,0.21347837,0.01304935,0.26004544,0.54712516,0.022258906,0.39720172,-0.45376205,0.0251379,-0.11352296,-0.303013,-0.20439368,-0.56031376,0.6220519,-0.17215486,0.16998348,-0.31291988,-0.0005357673,0.102837585,-0.42220435,-0.31401658,0.17181289,0.0046754116,-0.44323993,-0.2753971,0.6173643,-0.43761167,0.088640235,0.101662986,0.11721768,-0.24537773,-0.28239533,-0.3135544,-0.5184186,0.23255901,-0.09703693,-0.3369393,0.14810845,-0.13591124,-0.04710031,0.08347727,0.08887454,0.5253411,-0.2109263,-0.045626298,-0.3423172,0.018322896,-0.81477076,0.0780124,-0.18770756,0.0738061,0.11016776,0.12929332,0.49083972,-0.123988114,-0.40587395,-0.06578152,0.3769771,0.012314077,-0.3127008,0.05077962,0.18577854,0.05094313,-0.20179151,-0.0132867275,-0.2259742,-0.1933049,-0.40651432,0.45087895,-0.71263206,-0.48269382,0.17884837,-0.46729502,-0.3455196,0.56740904,-0.17722145,0.25206217,0.06356065,-0.37311408,0.26441497,-0.29871202,-0.56838715,0.5219906,-0.11313469,0.47224426,-0.13312744,-0.10790484,0.2008764,-0.112472706,0.23925917,0.15179226,-0.08858659,0.24717346,0.31087288,0.24713266,0.23978001,-0.4902078,-0.43397528,0.06541549,0.036013756,-0.27854803,0.018986573,-0.32270357,0.11667039,0.5581405,-0.31940484,0.41727003,0.18604591,-0.35344926,-0.16367778,0.14093982,-0.21404412,0.4671229,0.12965007,0.111276716,-0.18852459,0.460581,0.24004692,0.1346352,0.040291484,-0.25933376,-0.10762461,-0.13425696,-0.18069091,0.2858616,-0.10525757,-0.23067178,-0.28579542,0.31097072,-0.08872483,0.14985955,-0.19802447,-0.10966892,-0.22874342,-0.17777288,0.18083058,-0.15554272,-0.21895215,0.18240522,0.0080063855,-0.23493515,-0.2508536,0.103393964,-0.19991785,-0.16699407,0.30772194,0.0019918035,-0.2931934,-0.012230968,0.39216506,0.27898496,-0.49804196,-0.22938493,-0.42163703,0.4913594,0.70228624,0.41552544,-0.30965346,0.0033651243,0.36363968,-0.5012493,0.18008858,0.29169604,-0.04720966,0.3059743,0.12733504,-0.74538875,0.06820884,0.100302346,0.84721535,-0.3874238,0.18469344,-0.15061067,-0.010298975,-0.11315237,0.27489755,0.5207956,0.28554067,0.25126895,0.020933019,-0.10643621,0.043922268,-0.39540753,-0.5923804,0.0793722,0.02720575,-0.24073437,-0.33244634,0.27230358,0.5075356,-0.1905242,0.27499136,-0.18686238,0.106380396,0.17776652,0.013921932,-0.12893309,0.8366073,0.027260115,0.40170145,-0.32601035,0.06113517,-0.20190954,-0.09134994,0.23010963,-0.08244007,-0.034806747,-0.28406334,0.13880324,-0.20467281,0.14069128,0.35123563,0.18966775,-0.039436087,0.17192069,0.31572634,0.26889095,-0.14711493,0.07476184,0.10547256,-0.0008064823,0.95609397,-0.47494674,0.23064753,0.35414407,1.0852875,0.36574793,-0.64529765,-0.4072429,0.20831068,0.046484254,-0.064215854,-0.056228388,0.40864903,0.31460804,-0.04490671,0.1371498,0.10420914,0.42652017,-0.41472498,-0.0335288,0.20343736,-0.15831856,0.055252418,-0.071667805
hsa-let-7g-5p,0.008084814,0.5508161,-0.07020229,-0.16698165,-0.36360708,0.012905273,-0.5764982,-0.10736382,0.08128932,-0.3338857,-0.40456662,0.08566883,0.17151323,-0.19481073,0.17567928,0.16707143,0.09593287,0.39937466,-0.14110172,-0.16690068,-0.11582307,-0.3006356,-0.32083347,-0.5421729,0.2663323,0.25477728,-0.05769878,-0.24720162,-0.20114395,0.2409533,-0.47558758,-0.18473664,0.35067937,0.021632435,-0.101259515,-0.38103113,0.28636217,-0.28601217,-0.2272999,0.24438553,0.08123045,-0.101768695,-0.09736678,-0.30037388,-0.18754311,0.015494012,-0.16072921,0.11611499,0.099622004,-0.2861792,0.032928575,0.15850987,-0.03157665,0.42594737,-0.7423434,0.05431578,-0.26228875,-0.107034296,-0.45354867,0.23612584,-0.2625036,0.20379788,0.15019883,0.5025611,-0.10510249,-0.37533703,-0.2140891,-0.1325989,0.002132284,-0.025461268,0.12220562,0.34617054,0.20919763,0.056211594,-0.08406426,-0.080585495,-0.1391828,-0.28230152,-0.123350225,-0.04401202,-0.39738527,-0.1946453,0.16628163,-0.32976002,-0.3401834,0.4345108,-0.1071669,0.11414327,0.23384167,-0.15869786,0.25981513,-0.16966972,-0.23554897,-0.120866515,-0.107511304,0.4514901,-0.047812443,-0.25753972,-0.06317836,-0.116520405,-0.19687128,-0.006717259,0.021955414,0.642631,0.29785162,0.20225139,0.45389643,-0.61078,-0.058637843,-0.16309251,-0.10467836,-0.21610413,0.23276083,-0.0003307381,0.39875776,0.47943434,-0.27622113,-0.052941,0.2977881,-0.2641713,-0.018344544,0.0036168445,-0.23689339,0.07393442,-0.011625112,-0.2774537,-0.27426988,0.71362025,0.27752525,0.17918618,-0.03525089,-0.048824016,-0.287589,-0.16695571,-0.11815928,0.24335396,-0.5469641,-0.09895493,0.12081261,0.025947511,0.005020803,0.0101811495,0.25266254,0.073940836,-0.14202398,0.09934244,0.1978241,-0.5941405,-0.2265754,0.1390583,0.05131453,-0.10152015,-0.61479145,-0.3076664,-0.19617186,-0.56101,0.23339103,-0.07335073,0.025170859,0.011914267,0.7675316,0.5756684,-0.32889515,-0.26375017,-0.13623112,0.34741282,0.7510801,0.11841604,-0.28507668,0.16749738,0.15938494,-0.14971557,0.2758944,0.41449362,0.087749854,0.07070709,-0.0764909,-0.65840685,0.038804416,0.12043425,0.11455597,-0.15753232,-0.023887372,0.06437156,-0.1927132,0.044353038,0.3649954,0.59015983,0.21451917,0.070900954,-0.03271662,-0.23861955,0.14038233,-0.20488153,-0.2848623,0.14953698,-0.083407596,-0.11928257,-0.49506932,0.24537773,0.6696022,-0.2792833,0.478862,-0.3009867,0.03357703,0.18291983,-0.18817635,-0.16503558,0.7945018,0.09978662,0.32438177,-0.12755795,-0.05486368,-0.115481496,0.20134822,0.03599184,-0.081465974,-0.24283125,-0.27825046,0.5102556,0.059907902,-0.1929813,0.45028347,0.409207,0.006147325,0.34316957,0.31216198,0.31110412,0.3264893,0.06629278,0.13164547,-0.15088159,0.84759885,-0.60685295,0.23199174,0.22532544,1.187871,0.36899403,-0.54575455,-0.36522081,-0.054078687,0.17199235,-0.24551389,0.07390762,0.22966635,0.1114077,-0.14378132,0.10343219,-0.060148176,0.33679906,-0.52994114,0.18668394,0.13074178,0.0032906462,-0.041526638,0.12730277
hsa-let-7i-5p,0.39029634,-0.016594624,0.19417158,-0.6080543,-0.25662988,0.41239217,-0.06667314,0.23490351,0.29389864,-0.27314255,-0.32718238,0.47051087,-0.38081965,-0.33530015,-0.088402845,-0.051292114,0.041974325,0.29831296,0.046441898,0.48326802,-0.25203013,-0.03531727,-0.27237737,-0.3395392,-0.4839617,0.3171468,0.17794773,-0.3066005,-0.63397276,-0.17967103,-0.2906495,-0.0038849856,-0.17437977,-0.38487273,0.32261723,-0.1236209,-0.21570179,0.18205835,0.30957368,0.02737796,-0.21986581,0.15316871,-0.28581858,0.3066426,0.13301097,0.14786147,-0.34618554,-0.06681419,-0.27931324,-0.4149666,0.20519912,0.41252467,-0.033662,0.23755151,-0.094502985,0.19020711,0.1339883,-0.57440996,-0.2529138,0.14150551,-0.042023186,0.3614323,0.3867186,0.66074383,0.049031463,-0.07229094,0.07479417,0.020914393,0.18941991,0.06556832,-0.15438436,0.028258612,0.6061863,-0.06852181,-0.44381323,-0.0012590367,-0.7219113,-0.315778,-0.17628711,-0.58528453,0.043845534,0.28064895,0.28843072,0.05765482,-0.061745644,-0.12666951,-0.28759143,-0.10010161,0.19957823,-0.16976403,0.17118356,0.14212066,0.050570212,0.28678557,0.2897042,0.40454775,-0.42370102,-0.10037797,-0.31991532,-0.30550233,-0.3012723,-0.00063671666,-0.3681936,0.7282767,0.6548918,0.3032781,0.49934128,-0.5316339,-0.15991934,-0.3450216,-0.29708257,0.04738102,0.26604733,0.47967827,0.08148348,0.1171829,-0.04297362,-0.07907176,0.4648769,-0.56345606,-0.07985756,-0.1771417,-0.33257568,0.17233959,0.052220926,-0.23328927,-0.25452456,0.04976212,-0.2832715,-0.010767225,-0.15685278,0.13787979,-0.057507087,0.08082761,0.14544654,-0.0912701,-0.34197587,0.037995134,0.7303997,-0.2646071,0.022257417,-0.36285007,0.3064837,0.46462777,0.05130096,0.040952068,-0.16528799,-0.034253396,0.071741946,-0.32168543,-0.27002698,-0.16764261,0.19105995,-0.2519132,-0.45232472,-0.37036902,0.40154907,-0.2765231,-0.1501944,0.10823491,0.28674787,0.054294933,-0.42064184,-0.64651734,-0.47379756,-0.047939144,0.66602325,0.31370598,-0.20442943,0.35061073,0.7514473,0.108209394,0.45162803,0.47624427,-0.031258572,-0.12076458,-0.24590199,-0.026857283,-0.40115264,0.35948223,-0.28987175,-0.014369565,-0.045656018,0.11539551,-0.059713982,-0.0118988175,0.28889415,0.8283886,-0.11865027,-0.07436288,0.061604004,0.054128088,0.85283905,-0.03731761,0.20716228,0.60353774,-0.020994117,-0.23767027,-0.06939089,0.34693202,0.36758536,0.1309741,0.40429085,-0.26227412,-0.16270995,0.17000647,-0.4513587,0.3520203,-0.19207738,-0.019242663,0.35459128,-0.07821608,-0.37919497,0.14348577,0.1064244,0.037921924,0.082177676,-0.3478415,0.23161164,0.020640552,0.18336497,-0.27521917,0.08766464,0.012420954,0.124983795,0.11868699,0.26454282,-0.51800114,0.38910285,0.11598624,-0.067829326,-0.18849942,0.13518552,-0.46366823,0.011041668,-0.009005614,-0.16004007,-0.34298876,0.5098392,-0.17287602,0.00020475972,-0.26503897,-0.26867983,-0.08849985,-0.30825064,0.12493595,0.4366814,-0.08775589,0.16162705,-0.2836976,-0.25417888,-0.2357246,-0.5035861,0.070757955,0.17368498,0.17320271
hsa-miR-100-5p,-0.06725627,-0.07302827,0.07982629,0.08160611,0.03896151,0.07365016,-0.12674184,-0.1418802,0.16329274,0.20521678,0.04049886,0.037710615,-0.093472764,0.050634287,-0.08360119,-0.0061443807,-0.20801868,0.3152006,0.004886112,0.29043165,0.021255773,-0.36026433,-0.061095763,-0.11080373,-0.2121279,-0.3971233,0.26540244,-0.4420792,-0.26163575,0.16333367,-0.08393904,-0.36332393,0.16365582,-0.44560197,-0.10120142,-0.12252589,0.1630895,0.37029615,0.1722912,-0.5597687,0.014010189,0.23261335,-0.27664366,-0.34574583,0.398801,0.41319978,-0.432826,-0.2100518,-0.0036369408,-0.23589504,0.52166355,0.46747473,0.4346189,0.37922156,-0.1135043,0.6454514,0.29048795,-0.23751399,-0.24871881,-0.021424433,0.04119824,0.24728899,-0.3047051,0.3150154,0.15026039,0.5351323,0.27286977,0.48495093,0.5748201,0.17606331,-0.5039799,-0.5767306,0.06682901,0.123776294,-0.31919762,-0.19336022,-0.47284144,-0.36144355,0.12545078,-0.15467197,-0.01699537,-0.1618527,0.26570743,-0.16808148,0.22122404,-0.15538177,-0.20523988,0.20234542,0.3296366,-0.2616419,0.04904928,0.076573834,0.29105848,0.051925026,-0.016573783,0.10537033,0.17446813,-0.08776448,-0.13387099,-0.0013966274,-0.13729008,-0.17025125,-0.22035496,0.055872038,0.025264945,0.024020221,0.39960566,-0.22645311,0.040669065,-0.050743096,0.2605183,0.002694261,-0.30409414,-0.5889325,0.1396812,0.06789005,-0.45235687,0.7114558,0.3291152,-0.043681454,0.087471455,0.08605979,0.35369894,0.31675178,-0.51384777,0.44249567,0.023940448,0.6370295,-0.2966592,0.15156235,-0.37526992,-0.24074325,0.27118945,-0.19027816,0.09898037,-0.18042523,-0.48499224,0.09061144,0.40170676,-0.32153577,0.18673496,-0.508961,0.06982375,-0.4561395,0.18001553,0.1569177,-0.07972528,0.0676038,0.12957688,0.038485005,0.11667336,-0.05958079,-0.4163217,-0.16918571,-0.30329472,0.35546622,0.20886183,0.10379213,0.17900376,-0.3740378,0.15939201,0.13690154,-0.22734374,-0.14071275,0.20753849,0.19331102,-0.16005522,-0.29104763,-0.41278687,-0.16034506,0.10654204,0.22117586,0.013906835,0.21619001,-0.58297175,-0.0060586315,-0.18885368,-0.18339795,0.20214382,-0.45251396,-0.009388475,-0.08506028,0.13798179,-0.12653804,0.030734636,-0.06423001,0.008457433,0.76789993,0.4779651,0.21772799,0.19228233,0.17427863,0.13857454,-0.3558749,-0.5310274,0.36066535,0.37343472,-0.47621173,0.117862746,0.7328254,0.88399214,-0.15130204,0.11644925,-0.42355296,0.13517034,-0.14910656,-0.6093624,0.2608319,0.17323425,0.017185746,0.16246289,-0.23041023,-0.31248823,-0.3181223,0.14743342,-0.25014162,0.046842374,-0.4475416,0.10404949,0.21734892,0.058304355,-0.38750324,0.03423128,-0.033694763,0.07033159,0.4398237,0.37247273,0.08408976,0.44288683,0.025032269,-0.12726796,-0.029711355,0.5413709,-0.39051682,0.13730349,0.07352744,0.7590135,0.37846977,-0.1655667,-0.2169184,0.21046212,0.3830723,0.5357049,0.22140113,0.11430091,0.09285606,0.09145856,0.16989802,0.007024705,-0.22319297,-0.09502834,0.0380784,0.18479615,-0.012176495,0.28848597,0.17490089
hsa-miR-101-3p,-0.09391408,0.29796934,0.17328873,-0.21085143,-0.081732854,-0.10084311,0.3598878,0.4349458,-0.12143872,0.005575159,-0.2019236,0.08177502,-0.13273089,-0.30908442,0.048536997,-0.106238686,0.07181526,0.48188537,-0.18715905,0.11741269,-0.051194232,-0.12054249,-0.02856102,0.12450853,0.067179665,0.006911772,-0.09132625,0.16915023,-0.054122392,0.053284563,-0.12763047,-0.10919721,-0.32383534,-0.011001803,-0.23499277,-0.08875583,0.026302919,0.2442014,0.29403523,-0.119081,0.21000561,0.17284489,-0.3629222,-0.15271951,-0.023014212,0.10964505,-0.34531307,0.18084158,-0.20453988,0.12523222,-0.06210331,0.016639508,0.61031544,0.0149707,-0.205914,-0.2677488,0.038259707,0.26039657,-0.26603732,-0.014472837,0.08256087,-0.10021072,-0.29952726,-0.020371182,0.15049475,0.048127826,-0.105918564,-0.28871593,0.50125027,-0.14426808,-0.12253513,-0.11791105,0.2748091,0.6283196,0.18267833,-0.22170797,0.23621432,-0.1895348,0.11062227,-0.099699244,0.083883554,-0.033817604,0.03082855,-0.30210516,0.10700688,0.43766445,-0.14238876,0.1619539,0.2470034,-0.07951114,0.40697405,0.09828837,-0.13277411,0.08065242,0.09859884,-0.19917047,-0.12828854,-0.053079445,0.009793868,-0.27162573,0.12337264,-0.13982119,-0.064382255,0.2813433,0.1651911,0.69989866,-0.18573032,-0.06617783,-0.28070334,-0.051128622,0.027034016,-0.10582179,-0.12361624,-0.14913718,0.024560085,-0.10756172,-0.19407535,0.037305743,0.059827548,-0.073065445,0.16115709,-0.12964825,0.13656491,-0.09325794,0.018826582,0.32735214,0.10979473,-0.426586,0.4415677,0.8496932,-0.49582428,-0.48289186,0.25264797,-0.18898256,0.55897737,-0.12309135,-0.9994499,-0.13331811,0.49442893,-0.21871717,0.16281652,-0.5625402,-0.10684793,-0.22528444,-0.4336079,-0.0867818,0.053955194,0.26806822,-0.5099948,-0.18981795,0.54185706,0.35752353,-0.96436465,0.09578166,-0.16171873,-0.41079834,0.23128104,-0.3237492,-0.19573371,-0.5097235,0.37335098,0.14170174,-0.121029355,-0.04899721,-0.21442878,0.055760246,1.0084918,0.34112042,-0.24380869,0.34269956,0.84708375,-0.017825408,0.6409431,0.5015294,-0.18578923,-0.12622581,0.48612306,-0.12958892,0.41599745,-0.40900627,0.7927953,-0.3748789,0.53425664,0.07513787,-0.18765384,-0.004405908,-0.30059996,0.5363546,0.005371807,0.17780302,0.2853928,-0.0587824,0.23153193,-0.2379317,-0.6350388,0.008176225,0.27847865,-0.49720705,0.7115259,0.5999454,-0.027508887,-0.3708673,-0.020486087,-0.5753048,0.25677073,-0.3237024,-0.58476406,0.2913704,0.5990674,0.11941574,0.6725548,-0.25608176,-0.08154975,-0.30130038,-0.10140851,-0.1080452,0.4297809,-0.49941802,-0.2110537,0.22456962,0.2929573,-0.19357233,0.58404255,0.13587879,0.56278694,0.43754718,0.3770284,-0.097127266,0.046785384,0.21121924,0.05462476,-0.20096773,0.12275565,-0.4475461,0.26732895,0.06848011,0.40353113,0.30561453,-0.17525366,-0.3203218,0.08533241,0.001197535,-0.12035031,0.095532045,0.106242076,-0.23375338,0.058739126,0.09398084,0.23789556,-0.13237783,-0.036717083,-0.05548176,0.04147847,-0.2542573,0.55785733,-0.03845137
hsa-miR-103a-3p,0.39192718,0.63182926,0.4763075,-0.45034558,-0.87221235,-0.1920509,0.13500994,0.51338565,-0.22818318,-0.49736986,0.25122222,0.33595726,-0.42071965,-0.06160727,0.5746187,0.14479148,-0.1123546,0.49080282,-0.27165115,0.79704887,0.37364984,0.27898204,0.63451755,0.063232824,0.01956928,-0.28621292,1.0421205,-0.5093197,-0.33650926,-0.5187082,-0.38066113,-0.28821522,-0.47281718,-0.38995844,-0.023721708,-0.37692615,-0.12826684,0.2538488,0.38406736,0.02343397,-0.1552473,0.15421234,-0.1531585,-0.24131104,0.42867193,0.41804707,-0.4773762,0.0070780804,0.13871521,-0.28253412,0.50733143,0.13686767,0.0013207134,0.24158263,0.33612987,0.4442887,0.109674186,-0.05012583,-0.014876214,-0.022864964,-0.13257818,0.07873984,0.34397596,-0.20388345,0.36456206,0.41641495,-0.14677389,-0.16181271,0.39415187,-0.036493465,-0.11701302,-0.22369035,0.29756021,0.20942003,-0.3529365,0.20063765,0.21654133,-0.13964175,0.07218663,-0.27688187,-0.4706615,-0.20847887,-0.17936692,0.041258182,-0.30394462,0.55904067,0.70682204,-0.4121841,0.2598029,0.21635404,0.41976124,-0.4092115,-0.38887885,0.26179087,-0.011960492,0.23079467,-0.05680497,-0.24814636,-0.38369915,-0.10384182,-0.30753404,-0.0009265832,0.23824969,0.20767087,0.07385123,0.45881456,0.0717439,-0.05473251,-0.22627519,0.08334701,-0.22151186,-0.03802914,-0.3691254,-0.3453698,-0.050183885,-0.26167715,-0.04670718,0.083212055,-0.1421043,-0.47468764,0.2674086,0.52384704,0.108979054,-0.3582769,-0.06633326,0.13725069,-0.09554825,-0.43921116,0.025891984,0.37876287,-0.013186646,-0.20185158,0.08750333,-0.17274556,-0.031470492,0.22001074,-0.40019774,-0.40097922,0.17304818,0.37131512,-0.039458062,-0.37448663,-0.06156277,0.046297625,-0.55439144,0.018256472,0.28001127,-0.17719221,-0.3296397,0.07964407,0.35655117,0.19487646,-0.17872623,0.1559998,-0.19465278,-0.4731773,0.099658765,0.4360552,-0.07480922,-0.2752579,0.26336697,-0.030209944,0.0022665176,-0.012525261,-0.14584197,-0.006373214,0.2316571,0.15840726,-0.2242456,0.17956305,0.39369616,-0.28522825,0.3222699,0.07307232,-0.18972562,-0.01962126,0.1310149,-0.21260147,0.5748338,-0.39204946,0.1514195,-0.35014388,0.14862172,0.05411035,0.075740725,-0.07813653,0.22871584,0.2550307,-0.19973025,0.0416956,0.15777695,-0.15592888,-0.38806653,0.42252982,-0.25646,-0.025909638,0.21620482,-0.27371153,0.21831313,0.48214093,0.11468371,-0.056532383,-0.32483658,-0.1556821,0.24921893,-0.15838888,0.29268318,0.25884125,0.026063904,-0.17713395,-0.0936957,0.02735858,-0.17267363,0.17748599,-0.24615718,0.4033506,0.109624386,0.21379533,-0.06274288,-0.3277408,-0.10412409,0.03475861,0.3160542,0.18963273,0.42893577,0.32606566,-0.11444406,-0.077686474,0.24764048,-0.0037713223,0.0527218,-0.03308549,-0.096702605,0.08562229,-0.046528187,-0.09841203,0.23578528,0.18278952,0.07160719,-0.1471458,0.0513828,-0.11745183,-0.9106841,-0.29122874,0.1963443,0.3761329,-0.10510173,-0.0813748,0.14084263,0.17299622,-0.5405874,0.1650983,-0.0034798295,-0.21844317,0.19382381,0.26437566
hsa-miR-106a-5p,0.30544746,0.29052815,0.66987795,-0.15916692,-0.32680002,-0.41365618,-0.33466095,0.110801116,-0.33642828,-0.52260184,0.13066645,0.24474491,-0.16958249,0.20608403,0.4129718,0.12200622,-0.36851496,0.53768635,-0.3756783,0.41631925,-0.033176765,-0.30310315,-0.2060764,-0.49231327,0.20998624,-0.23475264,0.5961689,0.21528393,-0.3716697,-0.025309876,-0.41933596,-0.61503214,-0.26411864,-0.16747698,-0.028881405,0.043481782,-0.11185278,0.37343645,0.11197318,-0.4541718,-0.4329895,0.07198388,-0.58270085,0.03306446,0.22298501,-0.11350147,0.09578399,-0.4290221,0.13471204,-0.099486224,-0.6348896,-0.036606845,0.40732768,0.12125651,0.11610865,-0.05278595,0.28054288,-0.4037065,-0.13860182,0.01743739,0.25911495,-0.15467809,0.17576377,-0.22849044,-0.33696672,0.077904195,0.3351115,0.006547891,0.067655176,0.22772771,-0.3095409,-0.22397606,0.08326362,-0.19019754,-0.0025534409,-0.15995243,0.070994504,-0.13329305,-0.4263765,0.110860065,-0.18718687,0.4791973,0.2529739,0.04112486,-0.042314544,-0.3920925,-0.3567808,-0.26293623,-0.35846713,0.14190775,0.09976359,0.08683928,-0.22405735,0.254644,0.48757762,-0.14130059,-0.06613535,0.41416728,0.2261927,0.21131554,-0.11690508,-0.07236584,0.084835745,-0.0869703,0.150206,0.05828774,0.07195034,0.0173736,0.2587124,0.10911122,-0.06330446,-0.15144768,0.02508495,-0.31342906,-0.01864741,0.15371114,-0.02963383,0.3805523,-0.11415229,-0.0040560314,-0.07781452,0.13260928,0.17867361,0.19173238,0.0075287116,0.51458544,0.2544905,0.285439,-0.07410045,0.3994158,-0.08802538,0.39396894,0.3226183,0.0021133693,-0.11212649,0.17835875,0.54388577,0.22736894,-0.17690575,0.07498485,-0.017323803,-0.35119095,-0.2760461,-0.15982883,0.12709998,-0.36079228,-0.04424987,0.2762593,0.5689099,0.03054985,-0.24875599,0.0015425609,0.0049735694,0.31635356,-0.1795159,0.31337392,-0.2060471,-0.074412145,-0.284553,0.0791897,-0.22649704,-0.09784497,0.12675072,0.14705765,-0.1315514,-0.08003342,0.13831452,-0.14932942,0.10492049,0.3469642,0.11739209,-0.30346543,-0.0145104425,0.3465064,-0.42579916,0.053969085,-0.10484059,-0.28540313,-0.1452295,0.032322075,0.50833106,-0.10909098,0.154651,-0.20396042,-0.12707017,0.022024963,-0.16246557,-0.0054216804,0.043593835,-0.4137275,0.01751224,-0.014954555,0.4930921,-0.20801234,-0.2709933,0.03415236,0.6536237,-0.61385894,-0.038903948,0.7644695,0.17789671,-0.31792957,0.17839774,-0.67204314,0.16969772,-0.37634414,0.003355235,0.44634315,-0.029196374,0.14029767,0.5502423,-0.07954325,0.17211618,0.0661522,0.24886902,0.057491496,0.08157098,-0.05159207,-0.13259803,-0.1958072,0.17560305,-0.13354264,0.04892406,-0.08226963,0.7073976,0.42779687,0.6786037,-0.59346485,0.5697856,0.028197888,-0.0022159754,-0.6932032,0.17607555,-0.5094725,0.7601145,0.6859716,0.4259694,0.2994095,-0.33283815,-0.32836938,0.07583449,0.114161365,-0.7324637,-0.3251013,0.42720306,0.68106836,-0.41554195,0.7614942,0.25736803,0.35978556,-0.31260684,0.33480206,-0.44121748,-0.42328897,0.5851329,-0.20620413
hsa-miR-106b-5p,0.4572381,0.3440647,0.068764456,0.031701535,-0.19517379,-0.34017438,0.1277169,-0.15410988,-0.27616325,-0.26191813,-0.31225812,-0.04283745,0.04484284,-0.22847192,0.3527281,-0.13806581,-0.04971662,0.6431007,-0.65450215,0.242561,0.1435579,-0.22689484,0.12468638,-0.51878226,0.12356457,-0.16146855,0.864508,-0.5047131,-0.61093116,0.040835124,-0.03775787,-0.6656922,-0.42678013,-0.6614636,0.039813343,-0.1748513,-0.10308055,0.49676925,0.28249466,-0.5700245,-0.49810988,0.010449743,-0.21259655,-0.1280612,0.18405285,0.22996475,-0.34913754,-0.37253675,-0.0003329223,-0.26744604,0.83353627,0.50300723,0.3251281,0.2507423,0.41100782,1.0045669,0.22046009,-0.10689455,-0.44555777,-0.0075396355,0.008793646,-0.032074705,0.3673917,0.124977656,0.17428432,0.3132227,-0.6020288,0.51442486,0.6444142,-0.075747676,-1.0345434,-0.252279,-0.19983989,0.26733005,-0.3158686,-0.36006436,-0.22776248,-0.10546593,-0.24650589,-0.36417472,-0.33299875,0.0056221653,-0.44769922,0.24580815,0.351267,0.008963498,-0.24197243,-0.21108471,-0.18959393,-0.2701104,-0.10941367,-0.058734946,0.14533117,0.05118124,-0.22397314,0.016550507,-0.1914267,0.06324731,0.341664,-0.20099083,0.10347038,-0.2714729,-0.32429942,0.2134881,0.27506474,0.2450898,0.43742242,-0.7651319,-0.14213422,-0.34219933,0.042994644,-0.23504765,-0.031217419,-0.10286744,0.26789153,-0.42683968,-0.057296608,0.27767345,0.23603599,-0.080483876,0.11170878,0.11918052,0.16040923,0.034145825,0.027749976,0.26258096,-0.16882555,-0.018757198,0.19258168,-0.14556307,-0.51267284,0.32848924,-0.041686743,-0.03026625,0.109926775,0.16432956,-0.07147515,0.07004224,0.18372588,0.15676637,-0.010030148,0.017977469,-0.03090803,0.28886983,-0.34803993,-0.47502777,0.074672826,0.35609552,-0.2508295,0.34852427,0.2758174,-0.279633,-0.4159634,-0.13451059,-0.23732905,-0.2088148,-0.27412134,-0.12862962,0.09493997,-0.49992105,-0.25696334,0.17374827,0.2316881,-0.35150844,-0.052114684,-0.16269253,0.4167444,-0.007726202,0.20142071,0.27545545,0.28092992,-0.03521909,-0.07128293,0.004893912,0.15013829,0.04486216,-0.08667022,-0.06775018,-0.3267882,0.41172367,0.33197486,-0.19896093,-0.2981171,-0.031349473,0.09092803,0.30046797,0.4330714,-0.05641054,-0.14529318,-0.24359804,-0.09834825,0.047704663,-0.06584564,0.5522822,0.18517958,-0.16878854,0.27567062,-0.31936064,-0.4105085,-0.02209303,-0.11286078,0.057904426,0.18316497,-0.030320445,-0.27419347,0.25741524,0.2813991,-0.29689553,0.03282234,-0.03276813,-0.07012197,0.30893397,-0.05279505,0.08659371,0.18135159,-0.23257636,0.09379183,-0.4991843,-0.29199225,0.50542283,0.18601431,-0.45530292,0.02400446,0.027096432,-0.34615728,-0.25077367,-0.030378694,0.3826062,-0.1079589,-0.005321206,0.4373039,-0.17614439,-0.038097993,-0.05502507,-0.04961292,-0.100328825,0.22866002,0.14789009,-0.2646225,0.039624672,-0.09249166,0.09611891,-0.1407726,0.080937825,0.018254755,0.31995878,-0.10712355,0.12619194,0.30900955,0.15887086,0.17576098,0.42437044,-0.23845246,-0.028763138,-0.0406053,-0.20470819
hsa-miR-107,0.52640605,0.5978199,0.4434025,-0.72444344,-1.2414337,-0.4286316,0.1799245,0.24598496,-0.20732132,-0.28144044,0.25979632,0.46454528,-0.14155775,0.29801777,0.66202265,0.35640806,-0.13112196,0.8538698,-0.62520725,0.45208204,0.29392838,-0.035741348,0.27644047,-0.29919058,0.31961706,-0.21812305,0.67202806,-0.23021711,-0.34826726,-0.37977934,-0.43472892,-0.34996167,-0.2929484,0.07916097,-0.15892898,-0.28159553,-0.25222185,-0.03936307,0.33335513,0.04108236,-0.14151888,0.15086325,-0.16157845,0.1994853,0.19384466,0.06473061,0.03944621,0.052943125,0.17487383,-0.2509563,0.38927934,0.1752224,0.103616536,0.18749732,0.18961857,0.05274529,0.34306294,-0.2977564,-0.19309255,0.15710576,0.08383724,0.014674024,0.3041951,-0.22350247,0.27355853,0.08527069,-0.31073046,-0.055073563,0.10466413,0.03155367,-0.2232121,0.17308772,0.29753003,0.2925273,-0.3091252,0.23959789,0.11733672,-0.15841535,0.07176264,0.114465125,-0.47313944,-0.36774582,-0.27782992,-0.016724577,-0.41395384,0.59590197,0.4952073,-0.4080438,0.19330963,0.14444964,0.41197404,-0.5818435,-0.55353934,0.5156202,0.012628828,0.3936174,-0.20108384,-0.036699824,-0.09042965,-0.002916067,-0.4362181,-0.20789793,0.29540065,0.49765286,0.43106398,0.641534,-0.012841419,-0.009990851,-0.40569758,-0.047801938,-0.17174074,-0.25303477,-0.094441466,0.04730679,-0.055599216,-0.09471188,0.31706655,-0.0133124925,-0.33022085,-0.023044681,0.2883795,0.141749,-0.17378587,-0.1647376,-0.09044113,-0.063373365,-0.08441112,-0.19929661,0.105536416,0.51036745,-0.20516667,-0.15865956,0.47443607,-0.29327428,-0.017258717,0.3894016,-0.2830459,-0.27809134,0.031649385,0.26557356,-0.03559962,0.041218426,0.22352938,0.39911076,-0.57541955,-0.3952831,0.541221,-0.21212469,-0.78085047,0.17929596,0.36379614,-0.15095222,-0.35314712,0.054139804,-0.21091576,-0.63832074,0.23191078,0.19425789,-0.15435521,-0.7811985,0.4224221,-0.37776187,0.039840456,-0.39719087,-0.093798436,-0.10910501,0.41645527,0.25227472,-0.09061408,0.13098477,0.37277934,-0.50228375,0.3498448,0.114100665,0.22312462,-0.10728694,0.07016933,-0.13806231,0.18588838,0.015190222,0.43134227,-0.52685386,-0.09440518,-0.054835394,-0.014084384,0.16218576,0.29259586,-0.03287396,-0.099342614,0.3464931,-0.022186955,-0.21008298,-0.25672218,0.33799496,-0.5001547,-0.1358503,0.20458873,-0.2869109,-0.052062754,0.016909923,0.078860715,0.050659776,-0.37297663,-0.095552996,0.2055196,-0.18199769,0.17136873,0.01570892,0.17879623,-0.5048082,-0.042298328,0.12592499,0.08820594,0.09915531,-0.168694,0.040979918,0.01670765,0.6481429,-0.027334716,-0.47068247,-0.101849295,0.19875689,0.17762668,0.07335506,0.6292277,0.26577482,0.19170585,-0.15461919,0.057059318,0.09388291,0.007950564,-0.2382388,0.20435703,0.13266857,-0.16404723,0.013039877,0.2597051,0.19854903,-0.26766226,-0.2803205,0.26884812,0.44071248,-0.4403828,0.055375595,0.30905727,0.13228078,-0.045586083,-0.30620146,-0.040496282,0.52496237,-0.39803672,0.55795926,-0.29000574,-0.17974882,0.56685835,0.062388342
hsa-miR-10a-5p,-0.009175279,0.3816493,0.15900338,-0.09087427,-0.107112624,-0.20873006,-0.4399352,0.18995261,0.055088975,-0.1236322,0.0020108765,-0.062424928,-0.06047953,-0.3868955,0.21111062,0.13513458,0.02137917,-0.011755717,-0.04734004,0.14655818,0.05122467,-0.12080509,-0.19992967,-0.23327342,-0.053859472,0.3036489,0.0510648,-0.40048778,0.28087565,0.37518778,0.020330552,0.055445008,0.10656488,-0.22504815,-0.16437432,0.050493915,0.3754324,0.2368559,0.35034537,-0.42147046,-0.004840703,0.10798609,-0.5027558,-0.17433175,0.15254167,0.4174445,-0.033959582,-0.07004175,0.081503004,-0.10219181,-0.045226898,0.19767289,0.07884045,0.17708845,0.21844172,0.027958285,-0.10850141,0.06763455,-0.18996653,0.071068175,0.09992908,-0.20822383,-0.026178753,-0.08168199,0.37247103,0.24120386,0.074960954,-0.08862184,0.5067004,0.052959163,-0.108856685,-0.3411013,0.22628854,0.35849184,-0.31296122,-0.28124407,-0.26225567,-0.15817933,-0.08823674,0.058901183,-0.8584387,-0.21943238,-0.25282902,-0.011765385,-0.16459417,0.58230644,0.12065077,-0.45033866,-0.40644524,-0.43998456,-0.094260536,-0.06548645,-0.017943967,0.29825798,-0.3507918,0.6815091,-0.078087546,0.11418073,-0.17921737,-0.25947317,-0.31794852,-0.17511682,-0.12304461,0.71584874,0.32352906,0.6022103,0.81428516,-0.9759919,-0.38943744,-0.63508356,-0.12492094,-0.20030819,-0.11430423,-0.361089,0.38332036,0.15835275,-0.13467333,-0.09296908,0.6399572,-0.0050839037,-0.21768107,-0.0026548337,0.08207718,0.2511404,-0.15261668,0.06054112,-0.45317802,0.112924166,-0.036941342,0.0443697,-0.28370905,-0.09714158,-0.046836335,0.10619932,0.1810409,-0.076000825,-0.27259883,-0.19202057,0.25200307,0.18393569,-0.27670637,-0.15640864,0.19591369,-0.083123654,-0.20455928,0.008776696,0.17622021,0.4361571,-0.13149911,-0.49160352,0.048547547,0.18602225,0.008930333,0.21103881,0.11393179,-0.31507292,0.23493789,-0.08046363,-0.030308085,0.14872412,0.6582035,0.24256285,-0.062253375,-0.37315333,-0.21303299,-0.034930144,0.663147,0.0004153946,-0.26276502,0.034102075,0.12702683,-0.029086564,0.5213834,0.071636006,-0.19080567,-0.33310947,0.047443498,-0.82312423,-0.3204561,0.05109879,-0.11391095,0.1986471,0.14876126,-0.05789924,-0.61298627,-0.40613326,0.012878178,0.31035706,-0.1276413,0.07128824,-0.25605452,0.31809327,0.2736229,-0.017195493,0.21411943,0.32114762,0.48911223,-0.43159527,0.5883046,-0.017583653,0.30800042,-0.06907253,0.22893502,-0.63321704,0.14775825,-0.31650138,-0.27512076,0.27518246,-0.51746494,-0.038469754,0.53729236,0.34390235,0.0027882769,0.1821065,0.24643908,0.13789494,0.26089272,-0.013958879,0.21294291,0.087667145,0.38043737,-0.095103994,0.1965234,0.116178386,0.12362779,0.43513227,0.1259248,-0.15851556,0.41504773,-0.29983118,-0.11708506,-0.36511096,-0.11451412,-0.19303459,0.09605607,0.10028739,0.10581231,-0.009379542,0.09770043,-0.5812048,0.205981,-0.4559491,-0.4297393,-0.22322054,0.24732718,0.7987425,-0.1655807,0.37954018,0.30938405,0.5577375,0.015309718,0.11561338,-0.712751,-0.35117888,0.44445187,-0.14114411
hsa-miR-10b-5p,0.7340124,0.3682858,0.2568823,-0.41347033,-0.015904939,-0.34051087,0.0032783847,0.21112512,-0.23842034,0.19380334,-0.17929786,0.36466354,-0.12228875,0.06878044,0.004935772,0.24502186,0.102782205,0.23584601,-0.05153374,0.3093989,0.10762125,-0.12138043,0.3294636,-0.24391882,-0.27526078,-0.2946431,0.1254244,-0.41091204,0.011704459,-0.3579666,0.08850582,0.21179083,-0.37530556,-0.25281197,-0.23710234,0.036909677,-0.20956409,0.07502807,0.59153044,-0.32796696,-0.21928704,0.16586795,-0.13816984,0.3212155,0.30198616,0.26185665,-0.038672224,-0.24044436,-0.21365432,0.021242104,0.2200185,-0.05223451,-0.36224714,-0.082824826,0.44498003,0.44584614,0.15568869,0.07770632,0.11484132,-0.19061092,-0.101477236,0.028032776,0.17525505,-0.14130978,0.41417462,0.12244214,-0.09754533,0.16897687,0.17275542,-0.06977699,-0.13502441,-0.3225868,0.15042672,-0.08789304,-0.12177473,-0.08268286,-0.26224637,-0.11352214,0.014681116,-0.16528197,-0.7182639,-0.12428168,0.029499903,0.1503951,-0.20716211,0.3203154,0.37259704,-0.71805394,-0.1559646,-0.018451633,0.04140555,-0.17527282,0.06175627,0.4431073,-0.13661791,0.32337165,-0.27967134,-0.118880026,-0.42138794,-0.18596324,-0.35284808,-0.21155779,0.11613871,0.36280492,0.061110996,0.32265368,0.46414134,-0.2545894,-0.38651446,-0.31341282,-0.18586992,0.18605769,-0.24134459,-0.11672412,0.26414108,0.33858892,-0.11502942,0.11096247,0.27049226,0.07186308,-0.02196579,0.08357544,0.0338576,0.25631076,-0.25675392,0.1928955,-0.13916023,0.36315298,-0.20347871,0.1247715,0.17541659,-0.4140121,0.7370049,-0.30103597,-0.15328872,-0.13255078,-0.29251057,0.07083595,0.24746838,-0.20638229,-0.08474282,0.16475336,0.020158887,-0.09491743,0.024374219,-0.089742005,-0.02278363,0.23015031,-0.4623337,-0.22490306,0.05965831,-0.2580119,0.15343706,-0.34311357,0.06811618,0.16270027,-0.1748997,-0.038366932,0.4273897,0.12530486,0.46915576,0.0053965123,-0.29011917,-1.0089468,-0.22078383,0.3880899,0.5187789,0.115607716,0.23748003,-0.058981437,0.08646443,0.058730636,0.20361513,-0.094523355,-0.40253952,0.0849877,-0.36714786,-0.4717581,-0.2602958,0.113495976,-0.12175135,0.03690324,0.13192059,0.29622915,-0.47380343,0.3514696,0.3531028,0.29958275,0.36718798,0.12163786,-0.4971553,0.29184076,0.24901834,-0.6325314,0.1516337,0.42194083,-0.16086274,0.266051,0.22736824,-0.122993454,0.2633956,0.010514121,0.100520596,-0.71217257,0.652603,-0.71922237,-0.64707667,0.6611889,-0.3562908,-0.12996183,-0.102952674,0.022563318,0.20036548,-0.10134528,0.051188286,-0.18375856,0.26434356,-0.10023072,0.13895574,0.5631395,0.39801615,0.01751596,0.08865373,0.18751352,0.10022886,0.29347605,0.26725057,-0.27935353,0.13090235,-0.12699716,-0.4961511,-0.2781852,0.32362136,-0.15357968,-0.14103724,-0.0932178,0.25835386,0.14757693,0.20222817,-0.06735043,-0.046827227,0.3377391,0.016666278,0.2346491,0.046435088,0.003671769,-0.26762074,0.23872502,-0.26127595,0.024321908,0.21051575,-0.038223248,-0.015489917,0.04907676,0.2582993,0.07424745
hsa-miR-122-5p,0.019454945,0.5131425,0.22374487,-0.06327688,-0.74579793,-0.16700275,-0.18203448,0.21838412,-0.30082142,-0.69324964,0.10577081,0.4150134,-0.3010547,0.34934723,0.42264482,0.30405074,0.12717436,0.21367778,-0.0941898,0.2154886,0.5351501,0.030170916,0.14288025,-0.20782061,-0.0036833924,-0.16212071,-0.24221443,-0.21794522,-0.1433629,0.039861348,-0.119049646,-0.3562655,-0.19338372,-0.14816351,-0.018560521,-0.13350046,-0.26272497,0.31255418,0.121825464,0.44330636,-0.18418092,-0.034763034,-0.10259856,-0.007951929,0.18798181,-0.002655648,0.12888321,-0.05928146,0.19662896,-0.30408606,0.39734715,0.55764157,0.23084937,0.1915775,0.11058241,-0.2673135,-0.13979167,-0.18970965,0.07577691,0.044518795,-0.04253021,-0.10044753,0.11203621,0.33228377,0.014963649,0.5007683,-0.13367896,-0.0052017174,0.3271836,0.19646834,-0.04837731,-0.3653034,-0.27957806,-0.16674791,-0.1628884,-0.1033445,-0.10526989,-0.21770506,-0.12490069,0.057477195,0.14536898,0.11456735,0.11002077,0.07993621,-0.004517026,-0.008412204,0.12679498,0.2775616,-0.22426437,-0.15508743,0.23033144,0.0617634,0.153346,-0.34799024,-0.19507095,-0.41515326,0.11463456,0.6859946,0.021586718,0.23679957,-0.04575426,0.25085035,0.039697833,0.061713185,0.023372035,0.3849334,0.30730975,-0.09453331,0.05015531,0.30747712,-0.10806199,0.00852936,-0.06815101,-0.21953225,0.44033197,0.107024714,0.25688192,0.08131256,0.30100906,-0.6721032,0.35625842,0.39629656,-0.06271681,0.3191635,-0.32230774,0.09528792,0.4204058,0.37816936,-0.22123745,0.20073824,-0.057405643,-0.0106887,0.30822787,-0.13127956,-0.18573,0.40765026,0.40732437,0.19910076,-0.21750441,0.2936428,-0.104012,-0.4010474,0.14043331,-0.20038687,-0.27919453,-0.08621494,0.25783375,0.028130155,0.120626286,0.3904522,0.10689057,0.30115962,0.15538931,-0.012732625,-0.20757191,-0.06761002,0.1730982,0.26369888,-0.051219992,-0.13791099,0.39975134,-0.027126268,0.26762995,-0.21272962,-0.2578822,-0.08523973,-0.3285883,-0.22456822,-0.0044075316,0.1315091,-0.15063182,-0.41083854,-0.017158877,-0.16751716,-0.16452065,0.2013503,0.09702493,-0.80004066,0.29652756,-0.16452974,0.36408842,-0.32732585,0.8149995,-0.3586345,-0.5717131,-0.0050041396,0.0072211237,0.6550501,0.5211249,0.14959726,-0.23926075,0.30683923,-0.19797404,-0.03703905,-0.44448784,0.10695269,0.6880096,-0.58067024,-0.019525938,0.53561825,0.32909992,0.10848851,0.6339207,-0.27227974,0.27530405,-0.34555,-0.324941,0.4955462,-0.3470055,-0.10905342,0.15564734,-0.37911507,-0.1920204,0.16138965,0.2452416,-0.39518723,-0.25418216,0.0728141,-0.14078684,0.1837882,0.6875064,-0.4307137,0.13685508,0.0020790356,0.73996925,0.6084267,0.38611975,-0.39407697,0.1404888,-0.096310794,-0.36164162,-0.023530586,0.24341181,0.032134857,0.39278173,0.36393622,0.22664262,0.13030717,-0.26559982,-0.23696283,-0.09458316,-0.19778708,-0.29552603,-0.36400655,0.6537798,1.232719,-0.599833,0.48685342,0.13599388,0.9636056,0.070488,0.67301345,-0.63732207,-0.42972797,0.3218099,-0.015775386
hsa-miR-124-3p,-0.113520905,0.5648002,0.25697482,0.17034909,0.022558779,-0.32585415,0.26712242,0.39512014,-0.0039791586,0.57278806,-0.4248505,0.19163099,-0.2164986,-0.06871615,-0.1565918,0.081360884,0.17076436,-0.062863395,0.021909673,-0.08080611,-0.2739473,-0.2907061,-0.023908587,0.12538347,0.19895616,-0.026532803,0.37482938,-0.24482974,-0.012161285,0.0005447893,0.18923552,-0.18571793,-0.1507295,-0.06439738,-0.07223618,0.09223766,-0.013358602,-0.12564395,0.26794744,-0.22104387,-0.15305884,-0.2076142,-0.097611226,-0.04277799,0.13814451,0.36245817,-0.52019,-0.056479767,-0.2161542,-0.014947814,0.51861215,0.028624788,-0.4640371,0.11908626,0.13675626,-0.039273687,0.21554619,-0.17229074,-0.02118953,0.04216701,-0.09090506,-0.27585253,0.06283471,-0.4124975,0.5179645,0.2657824,-0.38597134,0.1970242,0.29847097,-0.09145605,-0.25405666,-0.1258167,0.21698041,-0.17454925,-0.21217379,0.053910326,-0.19499044,-0.4383137,-0.48928243,-0.14864795,-0.75412774,-0.26142228,-0.3596596,-0.23911542,-0.29679263,0.4803117,0.6597287,-0.3819568,0.23431961,-0.11921928,0.4203459,-0.48460922,-0.24778643,0.56799513,-0.054955523,0.01723615,-0.35489088,-0.34260398,-0.24327537,-0.19964352,-0.05110877,-0.41016066,0.33570006,0.43265784,0.11948177,0.3159574,0.22347724,-0.10170156,-0.21887961,-0.07483212,-0.30753785,-0.32252407,-0.21295977,-0.38458407,0.09395878,-0.090496525,-0.17099683,-0.2145152,-0.29157645,0.05825737,0.023091346,-0.012658983,0.037192486,0.06132784,0.03563949,-0.10328322,0.14485279,-0.27567318,0.11721034,0.49137762,-0.20506735,-0.20705111,0.3676126,-0.20281915,-0.27070946,0.040361844,-0.5574489,-0.27788082,0.2215924,0.20211942,0.042762388,-0.20757431,0.09232245,0.26305664,-0.15955642,-0.17490754,0.18217209,-0.1625798,-0.051668216,0.200805,-0.06623201,0.11973864,-0.33845958,-0.035467595,-0.3535811,-0.32374945,0.35243806,-0.22420216,-0.5050808,-0.46772334,0.010041498,-0.08944812,-0.023396939,-0.5659007,-0.2826241,-0.11763875,0.08753549,0.39025638,0.09904713,0.15522377,1.0969049,-0.8271011,0.5852094,0.561333,0.20015334,0.14351809,0.111334644,0.017219707,0.09051706,0.1271707,0.36591,-0.5311878,0.4320344,-0.17216441,-0.22028476,0.032379307,0.28049928,-0.0024587794,0.43817067,0.33934212,0.15714353,-0.2814429,-0.40349925,0.37655514,-0.3322456,-0.07176266,-0.006373576,-0.13303456,0.498584,0.11390164,0.13186796,-0.28724816,-0.1575255,-0.0904568,0.42272297,-0.16435502,0.33219716,-0.10806657,0.22904614,-0.1133537,0.29456332,-0.061001584,-0.1396977,-0.035393145,-0.07053974,0.27511907,0.15482701,0.488826,-0.19619092,0.096530735,-0.049805693,-0.18717687,0.49981615,-0.0042952704,0.25867993,-0.016900333,0.29447937,-0.10991995,-0.3726841,-0.0709864,0.0042365175,-0.4083077,0.13692741,-0.08963225,-0.03257839,0.25926536,0.963671,0.19307457,-0.44012287,-0.14978729,-0.09420474,-0.22582272,-0.77870667,-0.18871611,0.04621587,0.21577817,-0.052052315,-0.15500793,-0.29298392,-0.117786415,-0.5416184,0.010573914,0.04464344,-0.5248086,0.2695527,0.06743144
hsa-miR-125a-3p,0.21427953,0.69507086,0.19288765,0.28851217,-0.24768849,-0.22424531,-0.3685901,0.003063129,-0.42404103,-0.16526543,-0.48781136,0.48069158,-0.40566087,-0.064199805,0.25751406,0.35465407,0.013582283,-0.45369107,0.16802365,-0.037141744,0.21555512,0.23097348,-0.21005844,0.16884923,-0.17166771,0.013861606,-0.13057725,-0.30768228,-0.3167289,0.060200114,-0.09212102,0.22959383,0.16418087,-0.26387307,-0.19961351,-0.24427764,-0.18481351,0.05385788,-0.07871305,-0.061686147,0.034091987,0.20606613,-0.034610316,0.096481994,0.27458033,0.3160305,-0.0712536,-0.22258326,0.06227744,0.044598024,0.80650824,0.514541,-0.3071445,0.19534393,0.08141002,0.46119672,0.13721523,0.07924344,-0.22066283,-0.1367672,-0.15328926,0.4587514,0.2751052,0.5377288,0.17439373,0.5242977,-0.4027864,0.6043516,0.32981113,0.28391957,-0.8240721,-0.5048373,-0.4394702,0.072370216,-0.20817707,-0.41987267,-0.22900866,0.04274147,0.19111292,0.28997156,-0.09015404,-0.15934803,0.013708685,0.10005262,-0.08335092,-0.23465069,0.050404444,-0.0010173703,0.023443714,-0.35523978,0.11587021,-0.114189744,0.092213444,0.20864314,0.02068883,0.50421965,-0.0063663144,0.03410052,-0.07997669,-0.045820646,0.033013187,-0.050715167,-0.07304244,0.14554077,0.2917222,0.03178012,0.323219,-0.14834763,-0.11665013,-0.16847385,-0.08211357,-0.098665945,-0.14032888,0.25514188,0.25341406,0.056636445,-0.3173013,0.4466771,0.50038695,-0.23708905,0.22086257,0.024184095,-0.07017631,0.6039733,-0.15936321,-0.007845672,-0.009991285,0.6205792,-0.29112095,-0.20665412,-0.47903925,0.20101167,-0.07568471,0.15106969,-0.03374594,-0.17766657,-0.20099589,0.046002273,0.119452335,0.3365289,-0.09082628,-0.2408929,0.095616534,-0.07369061,-0.28448147,-0.13099161,0.14251542,0.6128196,-0.5827804,0.12215648,0.36298245,-0.3254296,-0.1325568,-0.45876047,-0.8989992,-0.45323515,0.5953708,-0.20924187,-0.11139491,-0.5571309,-0.09824057,0.03798487,0.28695422,-0.2501818,-0.4161646,0.02615604,0.27726436,0.12299248,-0.41765362,0.39446133,0.25927642,0.200125,0.15066426,-0.1442612,0.20818989,0.0691124,0.16128632,-0.4811054,-0.19804923,0.06696083,0.5968223,-0.58019716,0.8231598,-0.116926976,0.031609252,-0.10793828,0.02484179,0.20062424,0.1629154,0.21056047,0.0028032714,0.067143016,-0.0015833701,0.44229716,-0.1899008,0.18665467,0.41470945,-0.22848886,0.020277444,-0.12308925,-0.01859568,0.05034401,0.15315259,0.083850965,-0.009080288,0.0068923254,-0.2782511,-0.2077483,-0.013962222,0.0445011,0.045120772,0.47079584,-0.08951736,-0.16281623,0.09446763,0.3081234,0.65844744,-0.24606258,0.1422231,0.111057036,-0.096661106,-0.17155415,0.100718565,-0.32100067,-0.21790387,0.0632916,0.28250822,0.031587835,0.32852027,-0.2930065,0.049936652,-0.2299206,0.12538008,0.0037940666,-0.27096486,-0.4949088,-0.044775926,0.5380205,-0.20666665,-0.29938322,0.47522876,-0.29844877,-0.32970533,-0.1664088,-0.5490386,0.31572378,0.055519156,0.23677474,0.08678795,0.4362347,-0.8600213,0.026102787,-0.5378365,-0.5034678,0.80807513,-0.08694779
hsa-miR-125a-5p,0.23893942,0.50437576,0.345518,0.24865244,-0.10036205,-0.067703046,-0.3538763,0.07059715,-0.19290577,-0.31958705,-0.30580494,0.27091208,-0.1504324,-0.27930567,-0.0780202,0.29228705,-0.031452335,-0.27046123,0.23218976,0.082724504,0.25713393,0.17593515,-0.051136862,-0.11858135,-0.25986528,-0.03290591,0.21247849,-0.3909453,-0.4345235,0.026270954,-0.2652214,0.0052265506,0.0496275,-0.3884756,-0.054015774,-0.20628893,-0.27640727,0.11863612,0.072535306,-0.07515674,-0.069929816,0.12606555,-0.13293387,0.17484361,0.31763214,0.31055498,-0.06853562,-0.3436179,0.096627004,-0.022932235,0.723105,0.5420798,-0.12901656,0.16457741,0.3011945,0.4535922,0.17951621,-0.1592945,-0.043024827,-0.055923045,-0.045441978,0.48678416,0.468844,0.25058287,0.14654216,0.48479882,-0.4071181,0.565426,0.09256517,0.1159459,-0.7594076,-0.6089683,-0.43107474,0.14156805,-0.12915483,-0.32116967,-0.31871045,0.14466983,0.20935716,0.38047162,-0.14873156,0.113539584,0.05329441,0.22026078,-0.1094146,-0.36770505,-0.021754062,-0.11781035,-0.15635833,-0.10022925,0.015174247,-0.011199718,0.14981934,0.42669362,0.22053255,0.52762496,-0.11591663,0.022120308,-0.09469578,0.14959542,0.13986593,-0.025073068,0.18602961,0.33896497,0.51393634,0.26129863,0.32424292,-0.5634617,-0.48156282,-0.22815728,-0.10547873,-0.32827702,-0.14941028,0.17644212,0.1605704,0.06643483,-0.06482219,0.43745735,0.5451754,-0.32182077,0.06881235,0.114068694,-0.020459825,0.82568395,-0.30601776,0.4100946,0.10980182,0.5344382,-0.39682412,-0.1243869,-0.04885963,0.3385917,0.13262385,0.27035582,-0.16088447,-0.26839632,0.105440415,-0.017789835,0.063955605,0.26956925,-0.17367157,-0.2020566,-0.15598777,-0.13213265,-0.31419998,-0.20555127,0.111334555,0.5019445,-0.6371764,0.1438213,0.336673,-0.55993235,0.0644453,-0.4505927,-0.9290158,-0.5381082,0.5193923,-0.006613024,0.002309347,-0.6136661,-0.17086749,-0.112602785,0.12194986,-0.11707186,-0.43102464,-0.21298404,0.16464116,0.050397176,-0.23331599,0.40067893,0.20943831,0.21888159,-0.17761979,-0.13079536,-0.1602722,-0.009076345,0.30444247,-0.44003633,-0.2977392,-0.020860238,0.74500364,-0.40549484,0.5198057,0.0024204794,0.081097275,-0.017325006,-0.021269828,0.024535539,0.29900533,0.14462833,-0.18772835,0.27525672,0.23161241,0.111742586,-0.2601672,0.1891841,0.49246278,-0.17613001,-0.09758419,-0.39232165,0.05383437,-0.079315834,0.053052954,0.098397195,0.17925452,-0.36454004,-0.19564514,0.094683416,-0.17428212,0.20012201,0.059521005,0.44573048,0.09019758,0.1678656,0.10050909,0.5098545,0.51156586,-0.2709461,0.18629715,-0.01057488,-0.21376494,-0.08857495,0.06630373,-0.41722524,-0.2045982,0.15009858,0.3189276,-0.0067271627,0.28992075,-0.18791786,0.1393329,-0.49471626,0.10656729,0.008290561,0.09835476,-0.297431,-0.11675854,0.6817508,-0.075696476,-0.022001592,0.29185337,-0.29147047,-0.10906089,0.13273416,-0.512074,-0.1533873,0.05862284,0.18058984,0.054862935,0.6260805,-1.0157038,0.008165589,-0.41805065,-0.42691618,1.0053577,-0.052726686
hsa-miR-125b-5p,-0.11078457,0.29319802,0.27309826,0.054079834,0.10746357,0.15743841,-0.11046281,-0.18386559,-0.037076008,-0.005854036,-0.2816387,0.01868521,-0.122994445,-0.111278154,-0.049570855,0.21516345,0.4216986,-0.3987895,0.3234705,-0.30846372,0.09244495,0.044106137,-0.021762682,-0.10001585,-0.51625603,-0.18329102,-0.1901085,-0.106850125,0.058966096,0.10080559,-0.033987384,-0.13124254,-0.14448778,-0.38728678,-0.07115415,-0.1039736,0.20874974,0.45763046,0.19825691,0.044164933,-0.42500526,-0.035857968,0.04530066,0.012056354,-0.01804254,0.3619652,-0.17877771,-0.61228335,-0.06862875,-0.123604305,0.27012858,0.79328203,-0.09370435,0.089197986,0.3449886,-0.31402048,0.09472644,-0.4793441,-0.030022142,0.2594047,-0.2080014,0.4620471,0.13778444,0.29496154,0.2358597,0.4367082,-0.41144943,0.48632511,0.4715223,0.11433874,-0.40139398,-0.56663316,-0.02961828,-0.136883,-0.28800327,-0.23997337,-0.18511882,0.14167133,-0.07212043,0.34194985,-0.32666713,0.044740684,0.105535984,-0.053545255,-0.1458985,0.23950092,0.26607078,0.09357299,-0.052054614,0.108575776,0.24686383,-0.39153236,0.27681854,0.29766658,0.20430735,0.46029195,-0.23442657,-0.0064305603,0.005693926,-0.10658402,-0.29074547,-0.4695698,0.19844493,0.81219286,0.58116406,0.5704105,0.62862784,-0.31925896,-0.3623383,-0.26239905,-0.31568795,-0.5075584,0.0959085,0.21451198,-0.056665953,-0.17379293,0.20135763,0.15745822,0.21822707,-0.58506423,0.29242712,0.29669958,0.30820176,0.44218016,-0.24421914,0.2024342,-0.044800837,-0.29260343,0.17067803,0.38377666,-0.35082552,-0.14379679,0.35754117,0.21967626,-0.2608176,-0.1213715,-0.09700934,-0.38713026,-0.114866436,0.17230067,-0.103237346,-0.49345812,0.092120685,-0.027535455,-0.4096106,0.03599919,0.10599712,0.28455737,-0.4454406,0.10273401,0.56637263,-0.40780511,0.013662692,-0.28662238,-0.3673715,-0.3433859,0.3661355,-0.15581949,-0.15640068,-0.47769144,-0.00081484794,0.07008344,0.06809394,-0.7792284,-0.6229766,-0.16110756,0.2055863,0.21142325,0.20767607,0.39121577,0.5978451,-0.1887714,0.08486644,-0.095092215,-0.1492642,0.49654472,0.031737015,-0.48115113,-0.005812324,0.021932159,0.44200212,-0.4614489,0.11374731,-0.14940798,0.20319164,-0.19749035,-0.2071585,-0.10603836,-0.14502905,-0.0438245,-0.053576004,0.3246179,0.24775897,0.5660538,-0.67543554,-0.080633044,0.8447167,-0.7287933,0.03618012,0.75620604,0.34377858,0.047797058,0.040630188,0.17979209,-0.18909846,-0.1260524,0.21345504,0.21676669,-0.17665857,0.18760075,0.022356087,-0.085584536,0.19758995,0.1154895,0.008632767,0.1541897,0.28611484,0.1956407,-0.031473268,0.08584282,-0.023122754,0.15620841,0.26331565,-0.038696196,-0.109074,-0.028275024,0.16250932,-0.24863364,-0.2920918,0.09568214,-0.27428988,-0.17183,0.4492659,-0.20315763,-0.18170752,0.31310603,0.30253306,0.30043447,-0.777009,-0.3400766,-0.1438013,-0.8543321,-0.7458753,-0.656406,0.4200266,-0.26745173,0.09580554,-0.54307544,-0.13637626,0.14563458,-0.3405534,-0.07093804,-0.109007575,-0.48191443,0.4199727,0.1622618
hsa-miR-126-3p,0.06713595,-0.10401338,0.47733456,-0.3353555,-0.46305105,-0.1471196,-0.31383395,-0.19349249,-0.34956202,-0.4804095,0.1256872,-0.02800305,0.04620074,0.78139687,0.3892736,0.22191384,0.09141584,0.4325714,-0.47584164,0.2542976,0.38192406,-0.20401593,-0.17560574,-0.35237077,0.11844049,0.000101702775,0.25196007,-0.20842755,-0.20633568,0.044549268,-0.20895419,-0.40188533,0.09534048,-0.15713489,-0.037964243,-0.15569116,0.045773152,0.5363868,-0.011357146,0.1504616,0.1043031,-0.13575321,0.25661218,-0.051616352,0.069123305,0.012567719,0.2487499,-0.29404774,0.46625376,-0.3564032,-0.116867654,0.28342265,0.15899521,-0.17058983,-0.31344318,-0.26425597,0.08848978,0.140437,0.14838934,0.00030378805,-0.12781274,0.04457872,-0.28113583,0.41465935,-0.14846884,0.006507503,0.0508977,0.113018155,-0.08449154,-0.042007547,0.39030662,-0.11771495,-0.046026375,-0.2769333,-0.13199721,0.074560724,-0.19069931,-0.066654965,0.0006370412,-0.16501878,-0.28300765,-0.11179382,-0.088565946,-0.25678983,-0.0042825444,-0.02658786,0.324771,-0.035145655,0.25840926,-0.19569375,0.35477033,0.05006509,0.04854773,0.06203939,-0.037870083,0.0013636311,-0.16242556,-0.019818967,-0.08249026,-0.07777358,-0.29863054,-0.6583516,0.59051913,0.47189406,0.5504889,0.692509,0.7519946,0.027039004,-0.01894958,-0.31179094,-0.3351493,-0.10607921,-0.020386545,-0.23331468,0.011189266,-0.04000276,-0.13401136,0.1570881,0.04104964,0.10183107,0.32397455,0.1866061,0.15051542,0.03701179,-0.16371118,0.13129574,0.21403824,0.33489633,0.08207697,0.552683,-0.36889693,-0.1315507,0.44063345,-0.14084545,-0.015488572,0.20299722,-0.3512934,-0.041785162,0.3181052,-0.117359914,0.026935373,-0.4569087,0.0072404556,-0.017641513,0.009116975,0.3200951,-0.19203919,0.063186176,-0.41001505,-0.07372024,0.4758093,-0.1665224,-0.42026037,-0.64181733,-0.46763843,-0.51165634,0.22229686,-0.14065248,0.11821113,-0.8114925,0.661389,-0.13256097,-0.29979682,-0.7849455,0.050947364,0.263559,0.036210738,0.17444295,0.42259598,0.5017792,0.35747793,-0.14938566,0.25674132,0.7762443,0.4131576,0.11057304,-0.31055346,-0.51013106,-0.030688697,-0.12972856,-0.11149111,0.07987029,0.3369261,0.02216556,-0.43676832,-0.3294363,0.054359052,0.8024558,-0.028648093,0.024004972,0.032927763,-0.09955847,0.22139177,-0.122467145,-0.05697948,0.13167262,0.49420393,-0.2304302,0.20132573,0.05469154,0.33675483,-0.034244712,-0.0476403,0.097957775,0.11043191,-0.36607194,0.24808508,-0.3427962,-0.3149829,0.22245964,0.5450846,0.097972415,0.07804217,0.033470545,0.3826214,-0.16442817,-0.049855035,0.06658479,0.43165094,-0.17423722,-0.006086296,-0.37945372,0.13535108,-0.13462168,0.0741317,-0.2615203,-0.14857438,-0.19079386,0.079610564,-0.16870014,-0.42404163,-0.08806926,0.44211215,-0.32406998,0.25403193,0.6619375,0.007567923,0.052009124,0.072401546,-0.3582564,0.44650015,-0.3216418,-0.38896132,-0.9039958,-0.048147175,1.2702651,-0.10917605,0.17586,0.22553459,0.59439254,0.2540391,-0.008377703,-0.92328924,-0.36707383,-0.029507225,-0.27213284
hsa-miR-127-3p,0.64820534,0.27504468,0.3203672,-0.30673012,0.50758016,-0.29892358,-0.22070733,0.0340756,-0.6500314,-0.49129105,-0.686595,-0.004959782,0.12542588,-0.27529433,0.49503785,-0.18947996,0.09378325,0.3327573,-0.21899654,-0.14600019,0.61581147,-0.11465488,0.018086659,-0.4646296,-0.25729978,0.4830917,0.42978823,-0.11898173,-0.2089765,0.37678328,-0.27738005,-0.33272576,0.27724415,-0.0354472,-0.047192678,0.22524574,-0.09434714,0.22944316,-0.22250885,-0.37256044,-0.22341318,0.0072934018,0.5307858,-0.16666706,0.16855648,-0.15570126,0.35297853,0.053749297,0.02665779,-0.14924774,0.4144428,0.57393503,-0.49865094,-0.14359127,-0.038142934,0.37835076,0.102879375,0.007298762,0.5068664,0.26770866,-0.20362793,-0.22408384,-0.15898304,0.32158884,0.08548314,0.14551109,-0.4487202,0.2789169,0.20905462,-0.0947866,-0.30585307,-0.67296606,-0.07102371,0.38537532,-0.054055545,-0.25082728,0.060586732,0.18756643,0.17756493,-0.031744488,-0.44205508,-0.043462005,-0.39764947,0.044726696,-0.22972137,0.5230516,0.31910625,-0.23949596,-0.30057633,-0.06655996,0.2807068,0.031012977,0.3076816,0.075423464,-0.2048349,0.40094876,0.03803961,-0.26384616,-0.11381961,-0.3680774,-0.37229872,-0.32292885,0.14077803,0.22776766,0.17541735,0.31073803,0.28316402,-0.255481,-0.059326626,-0.4838135,-0.21329913,0.04175163,0.26943955,0.34630552,0.5484404,0.07697467,-0.4056848,-0.16315833,0.43668753,0.06459828,-0.14586128,-0.29278022,0.30197597,0.015459516,0.16569227,0.14150035,0.25237718,0.47037035,0.09229626,-0.04924509,0.1526199,0.14396065,0.021765944,0.0023236054,0.1317226,-0.21114245,-0.6025469,-0.09561178,0.045972116,0.18916628,-0.11406634,-0.4375691,-0.2266652,-0.37719828,-0.19052257,0.221442,-0.4619801,0.691555,-0.62982506,-0.08248794,0.23944792,-0.4271779,-0.32499918,-0.6930425,-0.40127394,-0.5394178,-0.06855217,-0.4690952,0.31277135,-0.36332497,-0.0067060785,0.4864192,0.19572991,0.11564176,-0.2913811,-0.18106894,0.477046,0.17649072,0.12403962,0.6993712,0.12966473,0.1228818,-0.09335483,0.18082702,-0.23654333,-0.068939075,0.3575546,-0.06725437,-0.09380302,-0.09115281,0.22720066,0.22328047,0.18534341,0.19334906,0.30549327,-0.02595135,-0.25589952,-0.65541136,-0.18303421,-0.45289275,0.37131047,-0.044814765,0.3360855,0.39494935,-0.09186264,-0.19767404,0.51310915,-0.33621573,0.06263239,0.1856168,0.19716565,-0.30448687,-0.019480499,-0.37269568,-0.10835001,-0.42731518,0.06832693,-0.17246759,0.23932584,0.56680965,0.18291962,0.13091765,0.0054370263,-0.3366709,0.31635165,0.21335949,0.58980113,-0.4016898,0.066070594,0.3756949,-0.4714945,0.20077023,0.32436168,-0.057664625,-0.07675038,0.16928802,0.2815305,-0.31999978,0.2611617,0.031446714,0.2216172,-0.53071254,-0.16341451,0.027918583,0.28575402,0.00085953134,0.1878523,0.6258005,-0.5992047,-0.15230705,0.11448485,-0.5199084,-0.3713746,-0.30836582,-0.13246298,-0.21168534,-0.24116127,0.021489285,0.10526656,0.39972466,0.09401779,-0.14617375,-0.30087793,-0.44071847,0.1451791,-0.25620848
hsa-miR-1271-5p,-0.1137992,0.6671623,0.22153398,0.32772696,-0.19480589,-0.21249434,-0.4795814,0.26569355,-0.103465125,-0.24469148,-0.04913624,0.47181612,-0.39910576,-0.041115403,0.09813452,0.2067312,0.0061080935,-0.11895873,0.4822041,-0.033852756,-0.16612269,-0.24896304,-0.4177133,-0.1988036,-0.18199581,-0.34732646,0.25050926,-0.4694826,-0.53299403,0.14091164,-0.3205191,-0.091968924,0.019883877,-0.68932676,-0.19559458,-0.22580759,0.124449976,0.17278323,0.1871528,-0.23723385,0.12546405,-0.2991305,-0.1462103,-0.20895196,0.44561622,0.35062534,-0.5263556,-0.18892853,0.02693339,-0.12223018,0.7869486,0.68913656,-0.16244784,0.16119055,-0.13376968,0.38158795,0.10900235,-0.10941726,-0.23522927,0.12938502,-0.10536221,0.16395052,0.24729264,0.0829144,0.4857319,0.36767605,-0.22603938,0.40751883,0.42623472,0.5088852,-0.4726927,-0.435689,-0.38410977,0.04017368,-0.22867282,-0.14765564,-0.43341446,-0.16800176,-0.050306726,0.120760575,-0.5711832,-0.33381298,-0.10006968,-0.22929075,0.010552104,0.22902016,0.5115346,-0.33455583,0.11254513,-0.39239922,-0.10967449,-0.38576126,0.116343156,0.26050797,-0.27645168,0.44085222,-0.04986576,-0.05199496,-0.35491168,-0.10639408,0.12045709,-0.23891166,0.18776456,0.33222455,0.40370134,0.50607383,0.42776328,-0.38627294,-0.5286119,-0.1754819,0.05136719,-0.31682667,-0.30252135,-0.33559948,0.016396496,0.077351145,-0.2943552,0.761169,0.47579005,-0.5115281,-0.16010968,0.31519026,-0.05980342,0.75766027,-0.23150155,0.40652862,0.21275143,0.41662246,-0.22202097,0.5090132,-0.27349705,-0.1284875,0.4375347,-0.18025179,-0.040366523,-0.14789197,-0.042567812,-0.219011,0.21990785,0.21288727,0.053112745,-0.288808,0.09012183,-0.2500249,-0.06160017,-0.029021498,0.027660467,0.2558468,-0.14085694,-0.062477715,0.33556443,0.0064775813,0.071048155,-0.019924812,-0.31549236,-0.2859604,0.43097302,0.19320792,-0.2068678,-0.36040035,0.15860799,-0.17462279,-0.23692384,-0.5123758,-0.48607457,0.23776332,-0.106802836,0.12712894,-0.32243827,-0.16498752,0.45672444,-0.25352696,0.39284596,0.084376074,-0.09378807,0.122601986,0.1505651,-0.40716803,0.046632774,-0.14651786,0.2431746,-0.51318896,0.42589477,0.05840193,0.014254776,-0.13012624,-0.029427635,0.58589065,0.3454062,0.47554952,-0.0034275695,-0.05908893,-0.03656915,-0.21184823,-0.4933577,0.12666349,0.59177077,-0.25240436,0.34736714,0.27309412,0.34465763,0.023485724,0.1075746,0.08234057,0.19586357,-0.09977928,-0.12616499,0.25539246,-0.19656412,-0.10264894,0.024587315,-0.16389363,-0.24333304,-0.018405152,0.037269916,0.09906014,0.11390165,0.23497385,0.21214066,-0.33956623,-0.074833855,0.35290217,0.048834532,-0.32353216,0.00632802,-0.26483127,-0.12355542,0.15377645,-0.36622846,-0.22537653,-0.2264689,0.4570987,0.00857679,0.028952783,-0.06849828,0.34230006,-0.0076054535,0.017029762,0.38636702,-0.004152409,0.051072057,-0.351024,-0.09730878,0.109096386,0.3031052,-0.17806354,0.124187775,-0.0780043,-0.06337817,0.06808595,-0.42317066,-0.10847459,-0.060729932,-0.103440806,0.22598302,0.10826382
hsa-miR-128-3p,0.46107927,0.4018638,0.22646302,-0.550355,-0.40286326,0.08890157,0.2089663,0.8885013,-0.28219697,-0.79768074,-0.13504118,0.78103864,-0.12761746,0.0022607732,0.40478635,0.02979091,-0.15543433,0.2141082,-0.17766714,0.15542512,0.21760012,-0.0040979614,0.03695593,0.012793846,0.034533754,-0.04489178,0.2001473,0.20945439,-0.24239013,-0.06504928,-0.2511838,-0.24629089,-0.32287025,-0.39261705,0.14896251,0.14098,-0.56561834,0.059434924,0.097868524,0.22897083,-0.22978838,-0.16216606,-0.07703106,0.105223015,0.14412156,-0.046138734,-0.16992569,0.09970858,-0.13211423,-0.18870507,0.23440647,0.35964683,0.32787123,0.37609744,0.22626531,0.31631225,0.29334003,-0.072500594,-0.0032466121,0.3682756,0.105240546,0.3554915,0.2858474,0.28556803,0.2475959,0.11116962,0.089449726,0.58698434,-0.1863149,0.05864424,-0.16280824,-0.45220485,0.30572084,0.27764365,-0.3313941,0.05537102,-0.38611633,-0.4148389,-0.32129097,-0.1726843,0.1277257,-0.094626285,-0.054210626,-0.144314,-0.034065302,-0.08102115,0.07169523,0.11914377,-0.096309476,-0.19715898,0.36370462,0.19466251,-0.10550559,0.46653092,0.16625959,0.1866782,-0.049930148,0.3208684,0.0027842238,0.2882889,0.077382535,0.13164738,0.17373392,0.25965902,0.39324796,0.4821602,0.14643508,-0.4634996,-0.78189254,-0.29187408,0.18322788,-0.25218838,-0.11804737,-0.105497524,0.1921128,0.5020632,0.10490106,0.55830026,0.36020932,-0.3956163,-0.14413488,0.007262731,0.26950288,0.72619426,-0.016960239,0.42395085,0.34030026,0.32990685,0.11666277,0.29640064,0.17036766,0.1524667,0.21614672,-0.16023763,0.02196235,-0.2506481,0.1830888,0.39192283,-0.10389994,-0.10670003,-0.2217947,-0.19295363,-0.22188894,-0.2014259,0.27696443,-0.56976146,-0.16176444,0.18504846,-0.099274,0.3741611,-0.094025575,0.05078845,-0.20152119,0.040966686,-0.5492595,-0.3069039,0.4359906,-0.43895784,-0.055835266,-0.2545605,-0.09763701,-0.064519584,-0.11329194,0.55873924,-0.057067532,0.1326603,0.23364952,0.04819652,-0.2150334,0.1752651,0.26433524,0.062314194,-0.642113,-0.24140437,-0.12926121,-0.35623652,0.4495457,0.06656892,-0.37245125,-0.048874386,0.6741279,0.06203863,0.33313742,-0.24305396,0.17166606,0.0981265,-0.31863913,0.04611391,0.09919688,0.082402274,0.14861421,0.25488496,0.5746312,-0.42302307,-0.25872603,0.13700317,0.12687741,-0.45237637,-0.12086435,-0.08515001,0.21834864,0.07295932,0.32363233,-0.17293483,-0.0106208995,-0.100145265,-0.38537008,0.34197295,-0.31721914,0.06665075,0.1641826,0.048954867,-0.08983458,0.15736409,0.33775434,0.08822608,-0.21423228,-0.60515827,-0.14809465,-0.21742302,0.01966913,-0.28070876,-0.16279034,-0.36249247,0.5979387,0.06712813,0.21089906,-0.4704594,0.16422184,0.14152333,-0.13772392,0.3375073,-0.37624413,0.12853397,0.9608412,0.3720798,-0.3319141,-0.056113724,0.38003746,0.02965104,-0.2930796,-0.36883804,-0.007483215,-0.029351551,0.057089295,-0.0143123055,0.2608176,0.056730665,0.19051202,0.09300388,0.44973305,0.18769649,-0.52573484,-0.17812133,0.45864847,-0.05096128
hsa-miR-129-5p,0.17869551,0.8130842,0.14498287,0.19259869,-0.4668589,-0.024909772,-0.45944688,0.018829644,-0.4254129,-0.4665477,-0.20308691,0.43968424,-0.27346984,0.11769478,0.45153823,0.14286068,-0.1371702,0.6161166,-0.052372538,0.17914991,0.27220702,0.07327025,0.13593818,-0.22172174,0.04574384,0.09580101,0.20403847,-0.56814003,-0.057688314,0.081598565,0.03711692,-0.39865497,-0.17519319,-0.4468014,-0.10688724,0.14162144,-0.1016695,0.30580768,0.16135778,0.039596852,-0.4098143,-0.3810684,-0.047939863,-0.11574302,0.36446497,0.15139347,-0.32956672,-0.48457837,0.24395265,0.07010294,0.4408169,0.29495615,-0.086400434,0.28134802,-0.18113856,0.1677616,-0.3300245,-0.27702558,-0.52443206,0.39091384,-0.11312929,-0.04139752,0.29365212,0.17973314,0.32887965,0.22846742,-0.36795205,0.4592691,-0.090728685,0.0052815457,-0.07412651,0.007000709,-0.1498884,-0.11333112,-0.14261304,0.1041565,-0.038956635,-0.26622236,-0.16804177,-0.45110482,-0.08955386,0.014638625,-0.18670411,-0.17777713,0.50501484,-0.053950977,0.16612564,0.11187272,-0.044688452,-0.296414,0.14900416,0.10746956,0.32795694,-0.34268185,-0.27647498,0.10771752,0.13161868,0.045528606,0.36927631,0.05990989,0.27558318,-0.25855154,0.08590671,-0.040471092,0.34658673,0.33642766,0.58333397,-0.5006812,-0.43843365,-0.33000085,-0.016338533,-0.51657075,0.05179826,0.0009807049,0.44189578,0.087749,-0.41164583,0.16877796,0.4351602,-0.4006071,-0.03850078,0.083745465,-0.13701329,0.37486303,0.07597674,0.055929933,-0.12259591,0.4176297,0.40227705,-0.06923519,-0.06776426,0.042024374,0.05985262,-0.049351726,-0.22949378,0.09408732,0.027788593,-0.106663406,0.11848534,0.03458312,-0.15704948,0.279809,0.06629354,0.2109236,-0.25966874,0.3580654,0.43512928,0.008348639,-0.4971078,0.16405275,0.0035290848,-0.31787553,0.31892228,0.071619354,-0.10443875,-0.36813822,0.43580517,0.124305315,-0.013982902,-0.7611654,0.67752534,0.056309868,-0.2566622,-0.6012575,0.07370122,0.07068205,-0.03782697,-0.022151547,0.4314031,-0.25072676,0.058813863,-0.51414275,0.30588147,0.19353886,-0.10163862,0.18947385,-0.15121001,-0.51661223,-0.2690524,0.3929852,-0.060763653,0.111530796,0.06960806,0.047805708,-0.5548325,-0.37372828,-0.045729715,0.4135744,-0.057791572,0.43758735,-0.36565933,0.17822208,0.39507568,0.40710402,0.17237586,0.14766118,0.26670042,-0.22259958,-0.035127964,-0.27235276,-0.09701238,0.19131131,0.5601709,-0.15484305,0.10909666,-0.006521053,-0.30837432,0.106200844,-0.24481386,0.07217531,0.3021529,0.042628206,0.024914948,0.1860605,-0.028059104,0.14658639,0.41204664,0.22523016,0.23326884,0.12276376,0.8028087,-0.06765712,0.19520716,0.29597428,-0.0084293,0.11109599,0.4230558,-0.188091,0.5379842,-0.46228167,-0.5630808,-0.33341694,0.4440735,-0.12983935,-0.090788044,0.114269495,0.72141343,0.0012268239,-0.3261956,-0.53061247,0.17213279,-0.6518117,-0.92191714,-0.95777106,0.42212233,0.9822365,-0.46943295,-0.07131283,0.19108024,0.38852948,0.053858344,0.32178113,-0.52450275,-0.30441612,-0.018567165,-0.24792057
hsa-miR-1297,0.73337495,0.61155087,0.5507095,-0.34391665,0.08748668,-0.20967591,-0.5661617,-0.04779205,-0.5128655,-0.36367673,-0.5070906,0.4473462,-0.3022709,0.2371874,0.31609097,0.58175045,-0.037485674,-0.2524995,0.07232818,-0.13610692,-0.070879504,-0.20716712,0.032043986,-0.06413837,-0.055331256,-0.3657289,-0.15407407,-0.091892436,0.24388674,0.2018228,0.379863,-0.09753466,-0.46446216,0.030370116,-0.16830191,0.3753862,0.25697228,0.101334415,0.20786399,-0.29523724,-0.40973005,-0.27614105,-0.23348945,-0.011838928,0.17214505,0.157563,-0.19864586,0.04861197,-0.05811547,0.045624964,-0.69707716,-0.54015344,0.27704304,-0.1741312,0.19642718,0.0577215,0.14086916,0.25010142,0.33894292,-0.20498428,0.06310225,-0.09375073,-0.1775242,-0.3406979,0.15923014,0.05112644,-0.065351404,0.21298237,0.14414789,-0.054434936,0.04631598,-0.24428388,0.29843825,0.08731762,-0.028692633,0.13767417,-0.11134014,-0.43350384,-0.20005956,-0.12836024,-0.66463417,-0.216711,-0.2558806,-0.013362285,-0.3213315,0.41122678,0.26078948,-0.84161174,-0.22942391,-0.25065327,-0.25939113,-0.4560133,-0.15880217,0.55828106,-0.0895795,0.33573493,0.03629128,-0.37956977,-0.087779924,-0.31204823,-0.42188242,-0.41235265,0.16515775,0.54520744,0.34109807,0.46718755,0.694332,-0.62023777,-0.5978371,-0.58750856,-0.03903521,-0.56053567,-0.24172883,-0.7306966,0.3630092,0.55816174,-0.33639383,0.065146364,0.4746568,0.044007722,-0.35827002,-0.07168355,-0.10111625,0.3501062,-0.20508288,0.10623649,-0.22329935,0.8667328,0.5224886,0.59047335,-0.6376874,-0.23970075,0.6588441,-0.079419546,-0.010822958,0.0038666804,-0.6031281,-0.32793677,0.46787214,0.023225121,-0.2281582,-0.1685572,-0.29563877,0.13003275,0.3041647,-0.06204026,-0.032383367,0.035694145,-0.06307419,0.008769016,0.2873075,-0.016580489,-0.7178751,-0.18842925,-0.4769878,-0.13449842,-0.028420104,-0.42591542,0.13123558,-0.32843682,0.23732105,0.027454864,-0.28008357,-0.27251622,0.016674196,0.22144152,0.5918271,-0.090691656,0.17885973,-0.11901474,-0.04484983,-0.03623297,0.098327145,0.034164548,-0.17757191,-0.024064893,-0.3059228,-0.5897241,-0.090021655,0.012789068,0.103266925,-0.034598347,0.16447185,0.31454092,-0.74060315,-0.026532501,0.48915544,0.32753536,0.38772917,-0.024414407,-0.16109437,-0.09945587,0.12916197,0.12947428,-0.03353156,-0.08013933,0.34195128,-0.15698114,0.08394327,0.025239525,0.20370871,-0.07531186,-0.2583084,-0.03899592,-0.08865093,-0.20534042,0.19884613,-0.23673464,0.29386428,0.1724465,0.3531105,0.015629193,0.16310592,-0.1778244,0.38842633,-0.19024993,0.1720444,-0.35577884,-0.20699579,0.53539777,0.48856512,-0.3643897,0.20261292,0.1948619,-0.040765528,-0.2162208,0.30874422,0.24104446,-0.093739904,0.013315717,-0.045179367,-0.42022032,0.62094414,-0.48252153,-0.09238175,-0.24377374,0.85718495,-0.020304732,-0.27797887,-0.26350626,-0.09449655,0.43842205,-0.28094932,-0.028098231,0.23312391,0.19103256,-0.005868137,0.2216368,-0.015330845,-0.13984877,0.20687634,0.13890934,0.04609169,-0.27128452,0.027859436,0.089958586
hsa-miR-130a-3p,0.16195904,-0.07158489,-0.009551454,-0.2595323,0.21580268,0.00023599385,0.4237,0.40437144,0.062937126,0.35926935,0.042338233,0.19526425,-0.10263864,-0.49306086,0.031871073,-0.38858578,-0.25955635,0.38978872,-0.14594291,0.29394338,0.051136985,0.008865919,0.22246836,0.09445629,-0.18493025,-0.09056273,0.43330404,-0.10484062,-0.04014824,-0.020025663,-0.627112,-0.06284607,0.07247,-0.097360305,-0.17646664,-0.18887164,-0.120601825,-0.18826331,0.24914643,-0.14253765,-0.20145063,0.08516555,-0.15967022,-0.33209017,0.31394103,0.14735219,-0.63696843,0.02767916,0.16601893,-0.047726937,-0.5581161,-0.22642921,0.40949357,0.3900074,0.1977056,0.12101942,-0.13903113,-0.27385116,-0.12126042,0.22471176,0.17031102,0.42517602,0.010903181,-0.26025963,0.046249382,0.07655401,0.025926417,0.15809377,-0.39931446,-0.11573719,0.34244317,0.06819824,0.20417525,0.30854136,-0.007886187,0.14271128,0.32350057,0.02957849,-0.25820535,-0.19244538,0.15146454,0.0021559652,0.18136118,0.043447014,0.1704922,0.54588604,-0.09928196,0.040734474,0.11486942,0.1870802,0.2584622,-0.2774581,-0.17462277,0.23258713,-0.09982968,-0.18764941,0.06849273,-0.6721005,-0.077571616,0.020800108,-0.032561865,-0.16734056,0.1471295,0.45264548,0.017013967,0.4317673,-0.20558777,-0.046419136,-0.15786813,-0.08629392,0.16260602,-0.19531143,-0.13575585,-0.23658192,0.10412184,0.16376995,-0.14920446,0.6663525,0.08480703,-0.21039733,-0.13059624,0.3136823,0.1677786,0.43401116,-0.35459065,0.27183518,-0.15592302,0.06380246,0.48644954,0.8627696,-0.6491489,-0.13925333,0.6765789,0.19260736,0.11306034,-0.19881843,-1.0781065,-0.17814626,0.6142061,-0.25277734,-0.013185332,-0.9069277,-0.2653277,-0.082367785,-0.15382281,0.21734697,0.20297742,0.15848413,-0.34842268,-0.071523726,0.11356012,-0.15848598,-0.70210165,-0.03426601,-0.47345486,-0.21424465,0.15490714,-0.021347687,0.20909889,-0.60552305,0.39758798,0.33716378,-0.27226198,-0.2779536,-0.194856,0.0038404549,0.77336234,0.08818388,-0.36724982,0.5342503,0.73465544,-0.07552529,0.41125315,0.3955323,-0.365512,-0.34108388,-0.07906227,0.31071338,0.008046759,0.11007101,0.438571,-0.18412635,0.020722685,0.16925362,0.092423916,-0.073043555,-0.14171372,0.15323356,-0.059238203,0.020847203,-0.103174314,0.33852613,0.6624512,-0.4670577,-0.51213044,0.100344494,0.61636585,-0.4662435,0.3699465,0.764331,0.20656647,-0.17778064,-0.02180008,-0.42679286,0.19329304,0.03789125,-0.70347583,0.77355367,0.017545054,0.05903012,-0.054756496,0.3277607,0.005615741,-0.10152168,0.06758411,0.180894,0.5272273,-0.5819182,-0.07154166,0.2773246,0.16322568,0.003172688,0.06276789,-0.025606276,0.27481228,0.15547605,0.43047953,-0.26889881,0.5496048,0.14634998,-0.4580276,-0.06830725,0.0036646107,-0.408108,0.1101488,-0.20999368,0.8048107,0.3456525,0.20399976,-0.200776,-0.010658646,0.014623601,-0.401012,-0.20035204,-0.16698293,0.05887567,-0.068917885,0.2004946,0.45184734,0.03157567,0.13654931,0.085648656,-0.40826362,-0.2453331,0.04349477,-0.09789494
hsa-miR-130b-3p,-0.11770884,-0.25616282,-0.033010554,0.40920088,0.32388297,0.2079631,0.29904306,-0.5446988,0.29959863,0.37903115,0.3094664,-0.15099674,-0.10887137,-0.19851826,0.08432089,-0.3345878,0.20569308,0.067700304,0.11404969,0.04663104,-0.024363447,0.5244806,0.5785488,0.42369825,0.11215975,-0.1410858,0.53192663,-0.24211904,0.028644398,-0.28959155,0.1334546,0.23339699,0.23956528,0.07732466,-0.1429611,-0.029688297,0.04300116,-0.26780456,0.259784,0.14856182,-0.19352917,0.33270454,-0.061346985,-0.08568136,0.10964156,0.025115252,-0.24884063,-0.5746675,0.04042141,0.4117713,-0.20715332,-0.42516208,0.045704387,0.20409572,-0.06406722,0.06044545,0.034672484,0.043719605,-0.14186677,-0.022474011,-0.17235477,0.24528202,0.121450685,-0.28458792,0.04785381,0.4786277,-0.39010683,0.3784002,0.13221356,0.28336528,-0.35091484,-0.46704677,0.3263482,0.026652321,-0.38641608,-0.11251948,0.043144338,-0.3119589,-0.059200477,0.054306682,-0.16792484,-0.10786027,0.12727955,-0.12010382,-0.36166325,0.1958206,0.47715563,-0.22442831,0.10855547,0.016968904,0.49496648,-0.40412158,0.015605648,0.25180623,0.44537944,0.20593883,0.16851981,-0.2922517,-0.23718666,0.04177208,-0.2412271,-0.09664607,0.27486664,0.6883705,0.22713369,0.28215972,0.2679628,-0.09164042,-0.53121585,-0.009093228,-0.36616936,-0.39049405,-0.0900522,-0.32334155,-0.027791783,-0.1499574,0.04127698,0.17887644,0.1564011,-0.30777204,0.027126234,0.16679794,-0.085411206,0.1971455,-0.15287179,-0.02281542,-0.1711547,-0.012059781,-0.11530155,0.4678789,-0.679588,-0.061370842,0.1688902,-0.03718867,0.07760344,0.07592809,-0.5752157,-0.20884158,0.4686826,0.1597744,0.014957847,-0.7708408,0.073733464,0.18964516,-0.13701391,-0.16497126,0.31203902,0.09587908,-0.17479552,0.17669022,0.27836874,-0.04443144,-0.38233685,-0.21346335,-0.60760766,-0.2284057,0.32956335,-0.09467686,-0.119769044,-0.19528858,0.09235963,-0.0054626195,0.12972821,-0.27398384,-0.3440299,-0.39883646,0.18320751,-0.0576333,-0.18794814,0.40649363,0.578628,-0.12302338,0.23142488,0.09215883,-0.3315964,0.0039922823,-0.2675566,-0.71912616,0.030089755,0.05138558,0.3870013,-0.6727621,0.5228268,-0.25016895,-0.0165699,0.21192238,0.3685607,0.31609812,0.26612258,-0.03718096,0.02426596,0.09530884,0.08448205,0.19692795,-0.39276406,0.36143672,0.4280573,-0.5321674,0.29102227,0.5739331,0.23753408,-0.22774392,-0.09572245,-0.1755243,-0.08277109,0.1501605,-0.1501383,0.14422847,0.6117344,-0.008396094,0.30677104,-0.037130024,-0.20583913,-0.38433233,0.08344001,-0.24808718,0.16584949,-0.41333535,-0.07140377,0.12322188,-0.04772379,-0.30704004,0.384844,-0.15765473,0.22008446,0.22291704,0.51048464,-0.10576598,0.086671636,-0.016267238,-0.29078686,-0.05106226,0.5415756,-0.3899839,0.3464185,0.5421255,0.68099797,0.33326158,-0.20221879,-0.3949508,0.16317454,0.0006507451,-0.4236168,-0.22523241,0.11830583,0.05670383,-0.049642336,0.007749745,-0.0075147,0.48410517,-0.08008811,0.20306885,-0.34912917,0.038488567,0.42457464,0.21687758
hsa-miR-132-3p,0.28644556,-0.055809863,0.14316128,-0.14035808,-0.7702978,0.011973626,0.07513085,-0.20282638,0.20575155,-0.263162,0.14609735,-0.080280416,-0.23764291,0.60702485,0.25792396,0.17549819,0.2550088,-0.031594824,-0.18207225,0.535031,0.08915398,0.09557911,-0.039553437,0.05150715,-0.03692071,-0.36144418,0.30654562,-0.38280565,-0.5036739,-0.24477415,-0.2114983,0.123195805,-0.15010723,-0.20213927,-0.10818566,-0.35897067,-0.2709682,0.03132732,-0.08832128,0.34099185,0.17553979,0.25002316,-0.19115241,0.10668598,0.100970775,0.22682352,-0.25385818,0.36098823,-0.007191889,-0.4168107,0.33111158,-0.07505641,0.07423401,-0.08219446,0.035251305,0.22381438,0.37694088,0.21019827,0.19881418,-0.3342314,0.14610575,0.4309335,-0.22178313,0.4679968,-0.19114327,0.1131615,-0.059757728,0.13051555,0.3417479,-0.11942768,-0.15905896,-0.066354506,-0.1384443,-0.09263303,-0.20253104,-0.16193493,-0.33848074,-0.15502541,0.09615998,-0.017964836,-0.46890923,-0.19460845,-0.052021768,0.2848727,-0.3597101,0.23650956,0.36071122,-0.26154023,0.3777422,0.07356906,0.3373306,-0.3084196,-0.23608771,0.352936,0.086303614,0.41867137,-0.29211217,-0.17097692,-0.52662355,-0.222699,-0.5071834,-0.3516338,0.32394817,0.7307353,0.43181196,0.36638367,0.6117651,-0.36502418,0.07641038,-0.23764277,-0.56858236,-0.13053194,-0.24703556,-0.19131863,-0.2238817,-0.07764088,-0.074112155,0.297438,0.04752897,-0.102900706,0.6705389,0.18517281,0.17592543,0.019459799,-0.28468868,0.080523655,0.19275087,0.294016,0.10873536,0.5098126,-0.4233348,0.12501936,0.3075307,-0.30042988,-0.06198786,0.4082237,-0.63901055,0.024130756,0.6415125,-0.07165672,0.03760736,-0.47829205,0.49428102,0.35750023,-0.16992114,0.17569721,0.06741715,0.07227981,-0.8139291,0.43789884,0.47232264,-0.15665829,-0.5145892,-0.8471168,-0.9619101,-0.35765764,0.12496948,-0.09740209,0.4042971,-0.36975875,0.2710855,-0.056268167,0.057133988,-0.7086774,-0.051706478,0.057770625,-0.07529901,0.08794269,0.083766155,0.46802416,0.3395549,-0.14059469,-0.20815662,0.12837307,0.48856246,0.025404893,-0.2936331,-0.27633116,0.011072226,0.22830385,0.18544535,-0.12014316,0.91314214,-0.15067485,-0.5230821,-0.0019429064,0.25696966,0.5645117,0.12671773,-0.07159617,0.17044248,-0.08768344,-0.10425029,0.09918178,-0.0664978,0.1579547,0.11738814,0.1057481,-0.16764921,0.3930004,-0.050760742,-0.14957146,0.045407668,-0.115041025,0.12919648,0.049792614,0.2100618,-0.30336857,0.1646389,0.100229084,-0.17155388,-0.04835563,0.17212716,-0.16820017,0.18822373,-0.03313598,0.20301352,-0.077855006,-0.24718289,0.27052775,-0.034196656,-0.4429336,-0.026639631,-0.10722486,0.10465377,-0.07379633,-0.009166628,-0.13169537,0.015227469,0.0007749754,0.28737858,-0.46602562,0.47272724,-0.27691245,0.24360843,0.058386397,-0.105611205,0.18661584,0.02021058,0.01634604,0.20934914,0.37106934,0.43483505,-0.03498913,-0.26164252,0.59004617,-0.04594027,0.14218159,-0.2601808,0.5979547,-0.38448656,0.117601395,-0.22321095,0.32236928,-0.14195278,0.17156382
hsa-miR-133a-3p,0.2697509,0.18070067,0.33828282,-0.38164803,0.18120858,-0.13526186,-0.1069262,0.03247182,-0.471913,-0.4489187,0.15317991,0.51178426,0.1337994,0.104601055,0.3361264,0.031506147,0.00044400123,0.497642,-0.76303726,0.08372994,0.3749585,-0.13650054,0.25653714,-0.58815104,0.329412,-0.22373989,0.67142576,-0.4620931,0.06507624,0.37268984,-0.37543544,-0.21242455,-0.54160285,0.03157644,-0.14601995,0.0036501829,0.15051906,0.19491908,0.5103894,-0.20376095,-0.105010435,-0.0130117,-0.0938302,0.17414685,0.11132861,-0.1943735,0.2001473,-0.13631666,0.0061240415,-0.21475041,0.681926,0.0044994503,0.27528015,0.31492832,0.5265814,0.58576375,0.0261829,0.033055533,-0.16707246,0.03547445,0.2324055,0.49908802,0.06905781,0.09670884,0.112228565,0.4109256,-0.45343807,-0.14070898,0.61734104,-0.2343927,-0.52128214,-0.5300948,-0.14112784,0.731911,-0.8375123,0.30746233,0.08699647,-0.1379292,-0.13134532,-0.071961395,-0.28674263,-0.17765872,-0.22768039,-0.02905651,0.10063388,0.065135874,0.15959561,-0.091846004,-0.17445429,-0.04751017,-0.0523618,0.5198187,0.44480053,0.25768813,-0.1504986,0.5899875,-0.07519839,-0.19415139,0.56564647,-0.27136266,0.17397961,-0.52864605,0.4942129,-0.022488177,0.27649227,0.3490108,0.21404564,-0.21358699,-0.40403447,-0.25641674,-0.073757015,-0.39211,-0.055253,-0.13741301,0.4864622,0.66922784,0.08698144,0.313189,-0.004896245,-0.112092786,-0.051654518,0.16898958,-0.14723407,0.48432478,0.19337349,0.18928128,0.03629136,0.20214693,-0.09356478,-0.06689489,0.12564579,-0.29210374,-0.007207752,0.20399016,-0.28992632,0.22584954,-0.33275688,0.30544686,-0.053684894,0.12141225,-0.1054804,-0.63012576,-0.3144164,-0.36279678,0.14935802,-0.55567384,-0.0661785,0.14357267,-0.16059214,0.21911865,0.39127803,0.037436437,-0.442874,-0.34787768,-0.19513626,0.017514123,-0.10386229,-0.12979776,0.17905699,0.112907976,-0.0014812053,0.6008694,-0.29487902,-0.12435325,0.024303978,0.050361194,0.4038061,0.59487444,-0.32131305,0.3015208,-0.10421734,0.05326608,0.09497344,0.38928238,-0.14831954,0.22671176,0.510327,0.04667117,0.27266842,0.027471274,0.31453115,-0.13393968,0.014906129,-0.026564779,0.23134694,0.027826115,0.22586684,0.05345559,0.5903846,-0.067548856,-0.2802743,5.9783975e-05,0.05194827,0.07796999,-0.054601803,-0.023147065,-0.020115027,0.23176926,-0.37096578,-0.17542006,-0.2503757,-0.24911536,0.19814463,-0.1622434,0.38955918,-0.25387546,-0.27389678,-0.0050756587,0.5085457,0.35724482,0.30553558,-0.34094664,0.08502221,-0.8079553,0.10118767,-0.19662423,0.45010382,-0.79612803,-0.039762408,1.103985,-0.20209081,-0.6799085,-0.03985039,0.24124071,-0.3887107,0.2172711,0.20030601,-0.017642044,0.38663843,-0.019483158,0.40566772,-0.18053184,0.1421906,0.37505502,-0.13840248,-0.47022134,-0.10532317,0.3138559,-0.079483315,0.068420924,0.1710523,0.1896089,0.71390265,0.12851904,-0.31520396,-0.031707738,-0.2462841,0.16202131,0.24735038,0.003925798,-0.01569037,-0.2011259,0.20737885,-0.085797034,0.20474018,-0.19194487
hsa-miR-133b,0.45596236,0.6512449,-0.06947472,-0.13868336,-0.31157628,-0.45585462,-0.33795372,0.31775048,-0.56043535,0.17715827,-0.2873575,0.14582519,-0.03490574,-0.45455024,0.37544653,0.22877404,-0.20651165,0.098036416,-0.048444428,-0.15098672,0.013706908,-0.05867701,0.035725776,-0.06763631,-0.059067268,-0.30310354,0.20299247,0.013763848,-0.077758916,-0.054557685,-0.34684822,0.20957297,-0.20719728,-0.5615916,0.13876332,-0.051345795,-0.10695785,0.20416099,-0.11073494,-0.060140476,-0.06982132,0.06302183,0.27226555,-0.031790018,0.14302412,0.1359282,0.18786669,-0.2632233,0.014966056,0.18333939,0.06766095,-0.03781325,0.23457265,0.19820552,0.44158086,0.680942,-0.04830561,0.07820057,-0.39681685,0.043226298,0.26610878,0.38239565,0.50956553,0.14618522,0.13261247,-0.025357943,-0.1377689,0.5060149,0.12628853,0.21179576,-0.8679789,-0.04227659,-0.4318467,0.407991,-0.32653803,-0.2609357,0.18750428,0.012059793,-0.25236145,-0.14274564,0.18716937,-0.57035226,0.052196622,-0.20240411,0.20150366,-0.25069946,-0.0750473,-0.061593052,0.11424417,-0.25948086,-0.17678697,-0.099184625,0.020191219,0.070814006,-0.40894026,0.41532132,-0.0072227316,-0.6275052,-0.23044349,-0.34935704,0.05655049,-0.087365,0.2353844,-0.19649582,-0.0003577695,0.10356415,0.2147952,-0.40660694,-0.09467034,-0.38850012,0.13507348,-0.30286554,-0.14782913,0.04027975,-0.042586416,0.050651107,-0.2640769,1.005064,0.25641212,0.16474326,-0.022260303,0.22721668,0.11084555,0.8501346,-0.062474925,0.076342635,-0.24294516,0.60332364,0.42215887,0.3988815,-0.22700047,0.24706173,0.5685645,-0.015728557,-0.25028157,0.0048500127,-0.32434103,-0.022911025,0.07071307,0.1141016,0.007845191,-0.10620503,0.07561477,-0.22259873,0.12190956,-0.3413612,0.115715615,-0.031556416,-0.10187109,0.15679477,0.033406083,-0.17835413,-0.38821056,-0.16792557,-0.43120113,0.46860188,-0.113990314,0.3167535,0.055375136,-0.051170975,0.06453109,0.03940655,-0.007927444,-0.14914216,-0.007562397,0.32623705,0.17484911,-0.29937953,-0.30245784,0.27790505,0.47087824,-0.42464367,0.33769107,0.43548355,-0.3159563,-0.14032117,0.049526177,0.5153884,-0.18059506,0.1966256,0.5890968,-0.44343498,-0.23070714,0.26001006,0.30403453,0.29757604,0.23376676,-0.52219987,0.28869522,0.12284567,-0.26442266,-0.1780541,0.08843365,-0.16340932,-0.30644685,-0.08372523,0.24240507,-0.2418294,-0.64581805,0.2928633,0.3771434,-0.2019893,-0.0008606906,0.07952212,-0.06492973,0.2934251,-0.27186257,0.04693563,0.8601883,0.051663008,0.3494766,0.21575,0.10675073,-0.44066823,0.30893677,-0.32712275,0.15489589,-0.68761665,-0.27623436,0.5024955,0.35188907,-0.11481328,0.2524101,-0.20666589,-0.14060906,-0.11722772,0.059037823,0.40101573,0.5256171,0.26646638,0.4922538,0.052903842,0.3042428,-0.19835332,0.08306302,-0.3209868,0.13836966,0.589679,-0.019727439,0.46398333,0.12365774,0.029578077,-0.32252356,-0.10988639,0.014695977,0.5231383,-0.43635058,0.28719294,0.123975635,0.635824,-0.22491683,0.47471553,-0.4780663,-0.26797783,0.30333525,-0.3522415
hsa-miR-134-5p,-0.032837383,0.3375652,0.33295146,-0.13909827,-0.13049163,0.11972389,-0.6954747,0.019482132,-0.025930015,-0.45105484,-0.20824964,0.54181385,-0.32508165,0.2487604,0.35007703,0.42876935,-0.27743566,0.051378578,0.4330047,0.012029877,0.345044,0.2712956,-0.13298097,0.37090427,-0.112227276,0.10447868,-0.34201124,0.04599289,-0.25185642,-0.2406609,-0.23004998,-0.12190073,0.18106584,-0.065244354,-0.11013144,0.045897886,0.014079133,0.23161381,0.17019208,0.283511,-0.115751736,-0.27200407,0.00991372,-0.004060099,-0.041768875,0.048972894,0.14741684,-0.35875872,0.40157065,-0.36677828,-0.32847458,0.28268096,-0.13932288,-0.19245073,-0.3816449,-0.16350508,-0.007015429,-0.04972449,0.31447896,0.37160653,-0.12580974,0.25724757,0.2880009,0.52300525,0.21187021,0.040902585,0.10648782,0.25258324,-0.078015335,0.4139469,0.29949203,-0.29087597,0.3483655,-0.38646084,0.10087775,-0.07234472,-0.3829632,-0.32975313,-0.19314942,-0.39925295,-0.14888948,-0.011857976,0.18255195,-0.6006128,-0.32985407,-0.38638213,-0.0072108675,-0.004145833,0.08315694,-0.23588401,0.7247371,0.2719535,-0.001961284,0.049505636,0.11460298,-0.17408203,-0.20282927,0.017202463,-0.25883403,0.0765072,0.06811533,-0.14302991,0.47883835,0.27002993,0.39690036,0.4575169,0.48377222,-0.20065962,-0.4525941,-0.14647709,-0.022275725,0.038492706,-0.10041765,-0.022280991,0.24354945,0.45453188,-0.30255422,0.42654786,0.06920074,-0.49307057,0.26226184,0.038317744,0.22088961,0.4144309,0.041442424,0.14494823,0.5247989,0.2473299,-0.023386087,0.24211355,0.10828984,0.26998815,0.17515433,-0.12194723,-0.23241158,-0.10292708,0.030655509,0.065952666,-0.10751626,-0.13464957,-0.067631386,-0.37459153,-0.019471472,-0.12957552,0.013614764,-0.3675626,0.08986211,-0.27828157,0.23531057,0.05158084,-0.09183047,-0.26383412,-0.05376201,-0.32499167,-0.45284867,-0.3464083,0.50549513,-0.23678055,-0.23616531,-0.44300133,0.87432,0.08218762,-0.50921714,-0.12352126,-0.49727607,0.47216442,0.53952974,0.1288944,-0.030341076,0.37470928,0.626256,-0.59598505,0.7133364,1.0085089,-0.009650338,-0.019436095,-0.07798053,-0.40986836,0.1772809,-0.0064649717,0.15326719,-0.4155858,0.21092689,-0.2663278,-0.12220549,-0.12618603,0.10140529,0.7680096,0.044389013,0.2604137,0.05020744,0.21036354,0.4456263,-0.33792022,0.15156062,0.4339039,-0.134354,-0.2557463,-0.15235952,0.22776367,0.31042072,0.29813108,0.53299034,-0.068756364,-0.22860144,0.21096908,-0.6674714,0.310813,0.11311105,0.1736004,0.72496647,-0.18112889,-0.19467576,-0.11355307,0.058666177,-0.015152728,0.15623613,-0.45744148,0.17601405,0.31921154,0.6971044,-0.1711111,0.54663384,0.25913462,0.23255293,0.3760038,0.26639017,-0.53973013,0.7226533,-0.13944896,-0.38501468,0.2050394,0.49170193,-0.10153029,0.46046072,0.42318487,0.39485642,0.23307483,-0.03559322,0.15196098,-0.12498228,-0.42638448,-0.8481695,-0.34428182,0.091678716,0.5612456,-0.52381057,0.49484563,0.071205735,0.120989785,0.2147797,0.1898172,-0.118825056,0.019958487,0.11852385,-0.0634382
