hsa-let-7a-5p,0.0007896216,0.00031941757,0.00044081104,0.0011753321,0.001486223,6.0001854e-05,0.0018799903,0.0005268443,-0.0018466907,0.0005088679,-0.00045505608,0.0018693381,-0.00039323908,0.0006726186,-0.0007170561,0.0006533328,0.0006368705,-0.00097276364,0.00058362866,-0.0005350022,0.0005038176,0.0010254146,0.0007590824,-0.0018000425,0.0013435022,0.0018370631,-0.001510934,0.00073910295,-0.00016613118,0.0003261359,0.00012304285,-0.00043864537,-0.000407191,0.0011539501,0.000170863,-0.0010186947,-0.00042026304,-5.2283518e-05,0.00028247945,-0.0012557486,0.0011234374,0.0004662457,0.0010266849,0.0010888018,0.0014534595,-0.00045512035,0.001209476,-0.0012411035,0.0006674791,0.0015648648,0.0006805882,0.0016693708,-0.0011369851,-0.0014330598,0.00033566565,0.0019034815,-0.0007901761,0.0012410742,0.0011675952,0.00036372268,-0.001068098,-0.0010869086,0.0015081658,0.0008375393,0.0014877564,-0.0017949581,0.0008877397,0.0010267273,0.0019044955,-0.001195389,0.0016412225,-0.0011629293,0.0012794281,-0.00021714566,0.0011207836,-0.0014698142,0.00159598,-0.000730096,-0.0010849019,0.0016606296,-0.0015046472,-0.00011167163,-0.00077999977,0.001538615,-0.0012976645,0.0005317549,-5.345221e-05,-0.001566743,-0.0010735579,0.0013031294,0.0007973998,0.0009186994,0.001690252,0.00084205554,-0.0005707372,-0.001441616,-0.0009855186,0.0018687511,0.001917185,-0.000900588,-0.0007902187,0.000957489,0.001400722,-0.0015391783,0.0011696762,0.0004554391,0.0002499246,-0.0005644935,0.00022584759,0.0014741386,-0.0017623189,0.0014624598,0.0005188156,-0.00046090072,-2.4664914e-06,-0.0011141924,-0.0013488655,-5.1899464e-05,-0.0017582367,-0.0011629397,0.0010722745,-0.0014682141,-0.0014621469,0.0011532141,0.0006508159,0.0013119963,7.855613e-05,-0.00012144935,3.169221e-05,-0.001086529,0.0009690379,0.00089200586,0.0010083998,-0.0016272271,-0.001343936,-0.0015720302,0.0008050669,-0.00013176748,-0.0008502287,-2.339948e-06,0.00024772692,-0.0008576418,0.0010491125,-0.0011009302,0.0018333951,-0.0011379442,0.00074710837,0.0010729614,0.0015601981,0.0009765658,-0.0015147298,0.0015532281,-0.00048671558,0.0010467416,0.0012220766,0.00087183365,-0.00013055897,-0.0011844814,-0.001822447,0.0009778799,-0.000976235,-0.0016180453,-0.0012959949,-0.0005953254,0.00038569048,0.00045731082,-0.0008601168,-0.0012942551,0.0010140759,0.0013990502,0.00051146024,-0.0006537272,-0.00081063213,0.00010800734,0.0014481174,-0.0015761333,-0.00018146064,-0.0010533887,0.0018039425,0.00068719126,0.0013100074,0.0017502715,0.0014856835,0.001152497,0.00020445627,0.00054207677,-0.0014621611,0.0006266243,0.0010525882,0.0018720145,0.0009258806,0.00048721326,-0.0006275113,0.00057890057,-0.00017026055,0.0012198845,-0.00065419066,-0.0007899393,0.00062433863,-0.0015191946,0.0008744246,0.00038641784,7.0628244e-05,0.0018045818,0.00028297934,0.0010371553,0.0014344396,0.0015114283,-0.0007719081,-0.00039649708,0.0017351997,-0.0013653473,0.001227757,-0.0008920287,5.0385483e-05,0.0013410938,-0.0007062913,-0.0014900803,-0.00016118691,-0.0005949646,0.0012176931,-0.0005382326,0.000113546615,0.00065410417,0.00018190593,0.001267565,0.001610833,-0.000113386195,-0.0018910307,-0.0005054078,-0.0019377391,-0.000113250804,-0.0012975107,0.00011101947,0.0011690997,-0.00094719545,-0.00063750544,-0.0009568342,-0.0011984748,0.0017863831,0.0002559591,-0.00025996333,0.0011963523,-0.001871981,-0.0018524409,0.00036045117,0.0013479064,0.0018383265,-0.0004858527,0.0018537857,0.00053049065,-0.00097245094,0.0018586554,0.00010643294,-0.0015798341,-0.0008296742
hsa-let-7b-5p,-0.0014288349,-0.00018917886,-0.0007511171,-0.0018256516,0.00024799397,-0.0007836743,0.0019203136,0.0016089191,-0.0005376665,-0.00065416354,-0.0015786657,-0.0019157426,0.0002703271,0.0016955498,-0.0006717788,0.0010793831,0.00030409312,0.0016400618,0.0018600484,-0.001751707,-0.0006567403,0.0009568406,-0.0007253046,0.0016765259,-0.0013469334,-0.0003065999,-0.00036713935,0.0018465836,-0.0017050193,0.0009544946,-1.048157e-05,0.0011870465,-0.0013217616,-0.0011812847,0.00084264553,0.00018639979,-0.000717152,0.0011535517,-0.0011487228,0.0009890099,-0.0017110916,-0.0011157183,3.6311103e-05,0.0014723365,-0.0010661888,9.0985326e-05,-0.0016367127,-0.000384097,0.0011281974,-0.00058696547,0.0007177782,0.00066166674,-0.00015064923,-0.0017170152,-0.0019014636,-0.00020841917,-0.0014071018,0.0019214943,-0.00062059984,-0.0016009944,-0.0015965742,-0.0016692696,0.00054633734,-0.0011187578,0.0014502443,-0.0015154372,-0.00014391774,0.0017275356,0.00084979134,-0.0016151052,0.0010866297,0.0008716809,0.001831135,0.0014089819,0.0016644537,0.0014550393,0.0007517857,-0.0015173329,0.00093383435,0.0017877896,0.0018651669,0.0004495778,-0.0017435065,-0.0006203792,-0.0010927597,-0.0018592178,0.00059109624,-0.0002985585,0.00091539696,0.0012174493,-0.0011311271,0.00015550992,0.0014875715,-0.0015124544,0.00053793704,0.00014037942,0.001781804,0.0009801819,-0.00070214027,-0.0012095748,0.0002522855,0.00041350606,0.0014220751,0.001563637,0.0003159591,-0.0011561264,-0.001651058,-0.0019154459,-0.0015348688,0.00084961136,0.0004819685,-0.0013777167,-0.0003090424,0.0010371977,-0.00018174003,0.00080695655,0.0012728169,0.0016513849,6.822613e-05,-0.001236896,-0.0004307034,0.000577142,-0.00034311856,-0.0009156248,0.00019016047,0.00054797274,-0.00026822707,0.0009708237,0.0007882889,5.547749e-05,0.000116438605,-7.154199e-05,0.0010829307,-0.0005399203,0.0005895414,-0.0008081506,0.0005856161,0.00091282907,-0.00088302034,0.0002617212,0.00037869485,0.00079130754,-0.0011053329,-0.0003629165,0.0007157598,-0.00022216293,0.0018918056,-0.0011836475,0.0005115755,-0.0008011587,-0.0018859234,0.0017795642,-0.0015048999,-0.00023431808,-0.0009563959,0.0014075986,-0.00089423836,0.0009991773,0.0014120599,0.0018210073,-0.0010102737,-0.00015373633,0.0011625006,-0.001514551,-0.0013809367,0.0018537282,0.0019372662,5.3710304e-05,-0.0018039349,-0.00034870743,0.0013759823,-0.00020298595,-0.0019375432,6.637559e-05,0.0007032475,0.0016648734,0.0009035715,-0.00092977495,-0.00021014723,-0.0011253916,0.0006010984,-0.0006251895,0.0009362509,-0.00017580297,-0.0011793247,-3.5698642e-05,0.0014890735,-0.0012320526,-0.0018150533,0.0005440733,0.0004030906,0.0015145531,0.00046204054,0.00010185409,-0.0013844797,-0.0017405478,-0.000861655,0.0011921439,-0.00029941113,-0.000876275,0.0018132073,0.0006085832,-0.0006319338,-0.0019230419,0.001117751,4.0933723e-05,-0.0010561681,-6.241549e-05,-0.0003486547,0.0012361542,-9.22418e-05,0.0016436554,0.0018292714,0.0016610371,0.00032441085,-0.001546246,0.0016685077,-0.00067166355,-0.0013433562,0.0012427177,-0.0015375024,0.00058971345,-0.0018905262,-0.0012151254,-0.000874783,-0.0017457651,-5.5011362e-05,-0.0015673958,-0.0007135272,-0.0017839484,0.0015596431,0.00013141613,0.0012839446,-0.0018096678,0.00044081756,-0.0009451024,-0.001276084,0.0007866984,-0.0012792369,0.0019166644,-0.0003657539,-0.000928127,0.0010718203,0.00025214022,-4.4381944e-05,0.001938737,-0.00094436505,0.00055479654,0.0009587123,-0.0017628287,-0.0006259384,0.0010615112,-0.0007212239,0.00041932566,-7.896742e-05,-0.0010642179
hsa-let-7c-5p,-0.0007886196,-0.0009580039,-0.00065303664,0.0014223976,0.0011522064,-0.0010103185,0.0019180679,-0.0008980188,0.001298625,-0.0015323048,-0.00091702316,0.0003721062,0.00088751805,-0.00067882345,0.00027186214,0.0018569145,-0.00011898903,0.00037919777,0.0019408059,-0.0019063257,0.0012951528,-4.9691298e-05,0.00023509748,0.0009861975,-0.00057869335,-0.0011119712,-0.0012062548,0.0008584622,0.0013817372,0.0012990099,-0.001396385,-0.0018921163,-0.0013040627,0.00040722522,-0.00039381848,-0.0018505543,-5.739194e-05,0.00046558375,-0.0010567431,-0.000695228,-0.0006676116,-0.0006666911,-0.00082876254,-0.00073214923,0.001474598,-0.001948214,0.00025169528,0.0010780483,-0.0019010791,-0.0017042058,-0.0007305362,0.00068637985,-6.437977e-05,0.001790103,-0.0014777996,-7.80056e-05,-0.00040858984,0.00088743586,-0.001176064,7.0101116e-05,0.00014834851,-0.00016163336,0.0013243041,0.0015545287,-0.00069993443,-0.0003719863,-0.00068523164,0.0018635944,0.0010358342,0.0007963227,-0.0019382301,-0.0005018215,0.0015086164,0.0015099368,0.0013718731,-0.0015689277,-0.0014265368,-0.0013235462,-0.0008590912,0.0012932913,-0.00085571874,-0.00037072494,0.0015454537,0.00054089446,-0.0005062452,0.0011516858,8.452311e-05,-0.001624235,-0.0011562236,0.001658154,-0.00060134963,0.00044371653,0.0012050506,-0.0010076514,0.0016964388,-0.00044391863,-0.0011370387,-0.0008574836,7.1029644e-05,0.0014863296,-0.0016422961,0.0010542185,-0.0018673919,-0.0013683497,-0.0009288342,0.0015841227,-0.0008119986,-0.0010209633,0.0009285719,0.0012790009,0.00061911414,-0.00042151182,-0.00053297356,-0.0006115583,-0.0018097466,0.00042465935,-0.00063432346,0.0013817113,0.0018164956,-0.00043027522,0.0010483696,-0.0012005548,-0.0014762577,0.0016775317,-0.00013991527,-0.0013031042,0.001579602,-0.00096345437,-0.0013941681,0.0018654407,-0.0007581081,-0.0011683793,0.0001859751,-0.0010159757,-0.0007286931,-0.0001852056,-0.00062831026,-0.0013180723,-0.0018518561,-0.001404342,0.0018162027,9.117415e-06,0.0010682391,-0.00055757875,-0.0008876036,-0.000107129454,-0.0016862405,-0.000733419,0.0001751075,-0.0013025228,-0.0019386492,0.00014150748,0.0010045317,0.00012992346,-0.0018347278,0.0008192111,-0.00043987425,0.0011319832,0.0014664656,0.00024710363,0.0008275886,-0.0016198461,0.00066289306,-0.0014692438,0.0009759043,0.0003723316,-0.0008056953,0.00033543468,0.0018906777,-0.0007287434,-0.0016307847,0.0009870171,0.0012673503,-0.0002968599,0.001862431,0.0014052009,0.0015670853,-0.001724612,-0.001685913,-0.00021848525,-6.610574e-05,-0.00039830955,-0.00045807648,-0.0011931816,0.00014528306,-0.00065587193,0.000263531,0.00010623457,-0.0015345422,-0.0012633473,-0.001308799,0.0013081415,-0.00024139904,0.00074903993,-0.0014176331,-0.0015883001,-0.0006604068,-0.00031509926,0.0010335802,-0.00029803743,0.001173513,0.0010219503,-0.00036029506,-0.001627156,0.00096649816,-0.0007902023,0.0011855019,-0.00051003636,-1.3800338e-05,0.0015906212,0.001153945,0.00016523735,-0.00026481645,0.00088026887,0.00022711488,0.001440268,-0.0011207601,0.0004368755,-0.0012514193,0.0014359441,5.993899e-05,0.00069647655,-0.00058671297,-0.0018199794,-0.0011960412,-0.0015038868,0.0017427311,-0.0008845285,-0.0008524279,0.0007585685,-0.0008633905,-0.0011862259,0.0013848627,0.00082155666,0.0011521752,0.0014461719,0.0016051526,-0.00018625287,0.0017047576,-4.9671857e-05,0.00090457755,-0.001055802,0.00095818494,-0.0014256057,0.001107879,-0.0010454617,-0.00075320015,-0.00026502262,0.001514022,0.0012574103,-0.0017724372,0.0014266958,9.88415e-05,-0.0018660778,0.00086268224,-0.0011953849
hsa-let-7d-5p,-0.0015931099,0.00026136357,0.0015546291,0.0017727411,0.00043741963,0.00051861024,-0.0016085871,-0.00071432756,0.0016182642,0.0006785642,-0.000626139,0.0016645789,0.00056561665,8.403324e-06,-0.00072823174,-0.0018669523,0.0017593489,-0.0018998143,-0.0018549858,0.000261968,0.0011076627,-0.0010515202,-0.0019253731,-0.0009680042,0.0017337587,-0.0008724984,-0.0012584281,-0.00013266515,0.0011824789,0.0005228133,-0.0005246921,0.0015106571,-0.0017173747,-6.872171e-05,-0.0015568403,-0.0018405624,0.0003005215,0.00027630734,0.00044325436,0.00027657533,0.0014797265,0.0015460923,-0.0017779317,-0.00012637558,-0.00046387163,0.00031180447,0.0018204341,-0.00059694133,-0.00094716996,0.0017091986,0.0010216956,-0.0016385571,-0.0018281707,-0.0016282533,0.0017322479,0.0009675063,0.0018046636,0.00043163286,0.00085561234,0.0006745425,-0.0011374198,-0.00049971987,-0.0006890198,-0.0016804794,-0.00061749574,-0.0016102863,-0.0007322846,-0.0003575763,0.00079825637,-7.014698e-05,-0.0010717176,-0.0014184641,0.0014241214,-0.0012395646,-0.0004354223,-0.0015643602,-0.00031138642,0.00049399096,-0.001413666,0.0010826902,8.9051435e-05,0.0012584261,0.00014670752,0.0009049275,3.270642e-05,0.00042384816,0.0001476102,-4.8765098e-05,-0.0004916871,-0.00055560796,0.001414377,0.0011437382,0.0017977629,-0.0010598877,-0.0013397577,-0.0009793313,-1.5520724e-05,0.0014583729,-0.0017640701,0.0008093496,-0.0004858469,-0.0017049459,-0.0018186227,-0.0011866479,0.0004606773,0.0003089311,0.0009003007,-0.00073582085,0.0012698446,0.00094829104,0.0013784585,0.000283316,-0.0015707815,0.0007466215,0.001730982,-0.0015676336,-0.001746188,0.001444459,-0.00033765344,-0.00038383505,0.0016787937,0.0019496819,-0.0017995832,-0.0002910368,0.001745881,0.00020991988,-0.0016793966,-0.0015621881,-0.0014390595,-0.0011488672,-0.00084038416,-0.00024355098,0.001205279,-0.00034059095,2.1109125e-05,-0.0009585826,-0.0004973735,-0.00048396434,-0.0017565927,0.0010838837,-0.0015083961,-0.0002566193,-0.0003717672,0.0008963451,0.0011140876,0.0007451759,-0.0008111199,0.0018243517,-0.00021749036,-0.0013397487,0.0004880079,0.0017781314,0.0019074595,0.00035203295,-0.0018049054,0.00029278453,-0.0007383522,0.0012915498,0.0007479263,0.0016719224,0.00026171235,-0.0014072538,0.00044823298,0.0018239117,-0.001191718,-0.00031367806,-0.001952213,-0.00084266986,-0.00027089822,-0.000791752,-0.0008714509,0.0012967733,-0.00011761126,-0.0012869928,-0.0019478515,-0.0014317113,0.001776343,0.0010980966,-0.0019196309,0.0005902776,0.0009713352,0.000304003,0.0013187877,-0.0016833802,0.00073674996,0.0012879448,0.0006830564,0.0011580554,-0.00065046607,0.00019951141,-0.0018403479,0.00023261528,0.0003849771,0.0011136604,-8.725328e-06,-0.0008333045,0.0011424089,0.0013623552,0.001895617,-0.0013420397,0.00044397544,-0.0009880362,-0.001254003,0.00039201044,-0.0016444006,-0.0002548712,0.0012185641,0.0011149468,-0.0010108604,0.00077205035,0.0006630891,0.0010680112,-0.0003019838,-5.7058525e-05,0.00087810634,0.0009911531,6.0256803e-05,-0.0011116054,-0.00012135261,0.00048607378,0.0012096269,0.0007579855,0.0004560037,-0.0009787153,0.00055535533,-0.0011292107,-0.00036559778,0.0015575581,0.0010696352,-0.0012397426,0.0008737894,0.00031461962,0.00027386518,-0.0016556119,0.0019322129,-0.0015216456,-0.0009308234,3.6310405e-05,-2.1650805e-05,0.0007631313,0.0001419147,0.0010261068,0.0011982424,0.001705447,-8.038373e-05,0.00044815196,0.0012279453,-0.00057691,0.00012367126,0.0008732581,0.0013534026,-0.0007031213,-0.000876775,0.0014376871,-0.0007930222,0.00011565909
hsa-let-7e-5p,-0.0009397073,-0.0019377093,0.00095976214,-0.00020873593,-0.0006095113,0.00071106455,0.00054806867,-0.001415092,-0.0011777917,0.0013343315,0.0009839395,-0.0018444312,0.00067144656,0.0018133316,-0.0016551641,-0.00073766755,0.0019305625,-0.00065463583,-0.0006081234,-0.0011153801,-0.0012029114,-0.0016896382,-0.00028339133,-0.00089817354,-0.0018472292,0.0016255723,-0.001744411,0.0008483927,0.0012168288,0.000609369,-0.0007068189,-0.0007410414,0.0010624037,-0.00088564923,0.0013278918,0.0014470618,-0.0014859341,0.0012355782,6.7125075e-07,-0.001253115,0.0012384462,-0.00058125064,0.00020653149,-0.0007223716,-6.876793e-05,-0.0018041023,-0.00084619084,-0.0013471503,0.0008910338,-0.00036474527,-0.0012994099,-0.0007412743,0.00020360318,0.00083020516,0.00019436213,0.0009973254,0.0016864457,0.0009257607,0.00024588592,0.0012639267,-0.00024335308,0.0010841871,-0.0004224953,0.00055506383,-0.0014543382,-0.00011974003,0.0010248285,-0.0014843256,-0.00011994247,4.0635e-05,-0.00028137432,-0.0010962614,0.0015259609,-0.0013099071,0.00080089946,0.001605168,-2.6674243e-05,-0.0016236086,0.0013189223,0.001081004,-0.0007815388,-0.0006921006,-8.007535e-05,-0.0006231364,0.00042192638,0.0013688437,0.0016926383,0.0012129978,-0.00023015577,-0.00024801283,0.0007840721,-0.0018758905,-0.000372477,-0.000132357,0.001604513,0.0005454032,0.0018198132,0.00040005287,-0.0012924278,-0.001597741,-0.00012192305,0.0004978429,0.0018806267,-0.0016956601,-0.0016503371,-0.00027128623,-2.4610898e-05,-0.00031376875,0.00029851426,0.00091710547,0.0005562168,0.00041700178,0.0011963861,0.0015521175,6.0904305e-05,-0.00011346268,0.0018565936,0.0006281638,-0.00087942136,-0.001021789,-0.0015158465,-0.0014322627,0.0016217236,-0.0018015555,0.0016535108,1.4375895e-05,-0.0010473916,0.00024352851,-0.0016485768,5.9623737e-05,-0.0011249816,0.0019180316,-0.001396955,0.0011148853,0.0012070588,-0.0012278343,0.001608863,0.0009886369,-0.00074299425,0.0006062554,0.00040386477,0.0017817018,-0.0011774922,0.0007042887,-0.00014641439,-0.0012757287,0.00040576002,0.0008779012,0.00031943223,-0.0012106068,0.0012748332,-0.0014170461,-0.000643846,-0.0013697883,-0.0016285564,-0.0013872855,-0.001131257,0.0019276021,0.0012392441,-0.0002362734,-0.0005809495,0.00039079366,-0.00017510843,0.0018091006,-0.0003746699,0.0011440536,0.00059397356,0.0016040823,-0.0008355031,-0.00081130525,-3.631087e-05,-0.0011406457,-0.0015426399,0.0005577414,0.0011561261,-0.0011560316,-5.4955017e-05,-0.00037198607,2.5526155e-05,0.001174002,0.00034965784,8.796877e-05,-0.0005771258,-0.00075741764,0.00040543615,0.0011335125,0.0018450418,-0.0016688993,-0.0013186587,0.0015799787,0.0006143183,0.0011652876,0.0015106078,0.0019232736,0.00014900905,-0.0017664069,-0.00065860385,0.0011040564,-0.00069757144,-0.0007513241,-0.0014662547,0.0002829535,0.00016219937,-0.00075972243,-0.0018359475,0.00011709449,-0.00066632254,-0.0007028987,0.00031392067,0.0012537597,-0.0009844071,-0.0016859912,0.0010955846,-0.0018573364,-0.000547296,0.00078939507,-0.0009776871,0.0018845475,-0.0012035163,0.0019147794,0.0018314912,0.0011003541,0.0016824736,0.0007599157,-0.000848514,0.00043475442,-7.49944e-05,-0.00013440475,0.0014375418,-0.0012573644,-0.00095138163,-0.001110418,-0.0011085083,0.0005713578,0.0014570453,0.00076476694,-0.0016633717,0.0011042622,0.00046794396,0.0005829681,-0.0009502348,-0.00081982,-0.0004339168,-0.0018505156,0.0004286063,0.0006712368,-0.0015463592,-0.00086515327,-0.00079383736,0.00041133026,-0.000101096346,-0.0014349843,0.0018685809,0.001408285,-0.00058986514,0.0018421067
hsa-let-7f-5p,0.0011020282,-0.00032407325,3.0049821e-05,-0.00012973486,0.0018868134,0.0016445883,-0.0019210912,0.001641846,0.0007344517,-0.00091498916,-0.0012087598,-0.00015089719,0.00028730533,0.00037147524,0.00050900574,0.0019253099,8.848007e-05,0.0010778108,-0.0017134526,-0.0017040533,-0.0013804627,-0.0010690961,-0.0017316481,0.0008579511,-0.0009293335,-0.001340963,-0.0015517998,-0.0008542191,0.0014700729,0.0010140147,0.0010887417,0.001196953,0.0010974566,-0.0013878124,-0.0014332165,-0.000999225,-0.0018036187,0.00084419874,-0.0019123616,-0.0009894348,-7.5635384e-05,0.0006351627,0.0009061729,0.0014799503,-0.00029469142,0.0018368717,-0.00042012788,-0.0011236337,-0.0007491489,-0.0005706552,0.0010650158,0.0006835717,0.0015304273,-0.00025237608,-0.0016903724,0.00092069036,0.0010498136,-0.00068452605,0.00045596855,6.1649596e-05,-2.6384136e-05,-7.3910924e-06,-0.0012295824,0.00059945206,-0.0013742018,0.0015254572,0.00014397339,-0.001355039,-0.0006320834,-0.00041730923,0.0010179661,0.00016224897,-3.8850936e-05,-0.0007663182,-0.0015559564,-0.00023609621,-0.0019288092,-0.0012375615,0.00025698193,0.00042246003,0.0016121254,-0.0012287446,0.0012147892,0.0016544417,0.0008384995,-0.00087876094,-0.0019165183,-0.0015408408,0.0017223689,-0.00040775444,0.0018201484,0.0014184113,0.0012491667,0.0017607235,0.0015520374,0.00039682048,-0.0003015016,-0.0010356553,0.0013277505,0.00028008036,0.0005151818,0.0012152831,0.0005667503,0.0014095802,0.00027295947,-0.0010031121,-0.00036027562,0.00052115344,-0.0014020542,0.0009838999,-0.0008658748,-0.0010110801,0.0010521114,0.0008433007,-0.0013474601,-0.0016635591,0.0015186311,-0.0018349547,-0.00037015486,0.000990653,0.0011225871,0.00010071788,0.000731088,-0.00024275132,0.0005220333,-0.00094107667,-0.0010751948,0.0019045786,-0.00019047793,0.00068016,0.0017090805,-0.0007401963,-0.0015008465,-0.001085557,0.0002814657,0.0006273489,-0.0015691846,-0.0013406742,0.0011400823,0.001460731,-0.0001821646,-0.0002273873,6.41644e-05,0.00042854017,-0.00028773886,0.0010171272,-0.0008017253,-0.000735312,-0.00047062826,0.0018709945,-0.00038356194,0.0019286606,-0.0013318255,0.00057020294,-0.0015551622,0.001931478,-0.0008461849,-0.0015437283,-0.0014447443,-0.0015241497,0.0005108202,0.000453464,0.0011136818,-0.0015995011,-0.0013723659,-0.000692772,6.629736e-05,-7.861527e-06,0.00015204703,0.0009453094,-0.00045050366,-6.4163e-05,0.0012527832,-0.001640352,-0.0014444329,-0.0017415538,0.00091378484,-0.00027505367,-0.0014587978,0.0012172041,0.0009801653,1.711864e-05,0.0006104612,0.0010558243,0.00096266717,0.00024473388,-0.000262512,0.00063173356,0.0008255164,0.00062379986,-0.0015737207,-0.00046598702,-5.10019e-05,-0.0017888382,0.001788825,-0.0004880398,-0.0008699517,0.0005878657,0.0006707227,0.0014314675,-0.0010469946,0.00020608585,-0.0005724492,0.001567516,-0.00042589055,-0.0018220756,0.00090652355,-0.00028136163,0.0011081621,0.0015445875,0.00023809564,-0.0019143524,0.00091205793,0.0011145796,0.0009424784,-0.0011826714,-0.0015615181,-0.0009446447,-0.0010286602,-0.0008029152,-0.0018464758,0.0011897655,-0.00092338293,-0.0013036402,0.0009121988,-0.0019398717,0.00017750124,0.001119131,-0.00018015504,0.00067068706,-7.628696e-05,0.0019006513,-4.1049556e-05,-0.0009295825,-0.0007268444,0.0008071554,-0.0002972131,0.001941113,0.00018249685,0.0017362612,-0.0010471824,-1.6029575e-05,0.00015039672,0.00073067937,-0.0007926939,-0.0012426188,-0.0017262314,0.001047604,-0.0011617959,-0.00043180527,0.00085485564,-0.00041800458,0.0007621278,0.0009163127,-0.001114505,0.00078298943
hsa-let-7g-5p,7.2216615e-05,-0.0012261054,0.0010848234,0.0015267772,0.0011687963,0.0010891424,-0.00064056506,-0.0005085317,-0.0004869597,-0.00045385212,-0.00091391895,-0.0016394944,-0.0005643326,-0.0015337424,0.0011598363,-0.0017685291,-0.0003878316,-0.0008581133,0.0012036711,-0.0013588661,-0.0009237698,-0.0016872771,-0.0013290246,0.000705488,0.00066165463,0.00074732886,-0.0008634388,-0.0006189371,0.0016928203,-0.0001681411,-0.0013601794,0.0014611257,0.0018760364,-0.0011128602,-0.0011494261,1.4414778e-05,-3.413856e-05,-0.0013259216,0.0010956004,0.00080439565,-0.00051470916,0.001368209,0.0011231236,-0.00010123919,-0.0013927817,-0.00048678566,-1.6080216e-05,-0.00071146665,0.0010476101,-3.454578e-05,-0.000117772375,0.0004281879,0.0014534334,-0.00051421963,-0.0009563456,0.0017560525,0.0006225647,-0.00020504277,-0.0012169686,0.0010993958,-0.0017567968,0.00080839917,-0.0017218336,0.0016627957,0.0012186167,0.0012009339,0.0013161034,-0.0005728161,-0.0007556889,-0.0015836593,0.0014566358,0.00046059862,0.00017447746,0.00022167363,0.001431979,0.0019258908,-0.0009343476,0.00020190328,0.0014140191,-0.00087043527,0.0012793494,-0.0017828346,-0.00039790792,0.0015608561,-0.0014735127,0.0015479045,-0.0008094029,-0.0017904594,0.00023702625,0.000103769824,-0.00013742258,0.001293207,0.0010052021,-0.0014562195,0.00023994409,0.0013636053,-0.0010192023,0.00036388054,0.0007121952,0.0015069244,-0.0015947123,-0.0014335122,-0.000768178,0.0005597442,0.0004163985,1.2362143e-05,0.0014756531,-0.0011976793,0.000540979,-0.0016223297,-0.0003190094,-0.0009916751,0.00014624372,0.0018694997,0.0009021587,-0.0019217861,-0.0009593591,0.00096171885,0.00055600447,0.0018106317,-0.0010539403,-0.00033217669,0.0006694936,0.0017744333,-0.001507874,0.0011908018,6.9167e-06,0.00017091958,-0.0011607918,0.0009956409,-0.0015246995,0.00026492565,0.00034691812,-0.0011414778,0.0014108396,0.00026314682,-0.00076217495,-9.000348e-05,0.0015720744,0.0010771363,-0.0016787603,0.0008397589,-0.0014959445,0.0007661765,-0.0013514073,0.0016871244,-0.00039341988,0.0011987574,0.00045638718,-1.3667857e-05,-0.0008532455,0.0010571498,-0.0005832593,-0.0006598993,0.0004553597,0.00084141106,0.0011906542,0.00077936915,0.0009548408,0.0005718153,0.0011664722,0.00062578474,0.0006377788,-0.0015323375,0.00027775066,-0.0005722827,0.0010327871,0.0015012072,0.0015560212,-0.0016142633,0.0007196076,-0.0018692715,0.0011202362,0.00054750685,-0.0015771491,0.0004694017,-5.645654e-05,-0.001578182,0.0009195367,-0.0014311343,-0.00097144826,0.0008505003,-0.00019702443,0.0018426473,-0.00012712681,0.00016986695,-0.0015595062,-0.0004532464,-0.00010090927,-0.0014502811,-0.0005407622,-0.0016421766,0.0008079596,-0.0012329941,9.531388e-06,0.0010105174,-0.0014070591,0.00095723034,-0.00070033607,0.0018253096,0.0007786348,0.001128925,-0.00024445273,0.00056687277,-0.0014884515,-0.000941886,0.0014098531,-0.00036696123,0.0019315358,-0.0010327038,0.0001613195,-8.341041e-06,0.00061503984,0.0008756046,-0.0012067521,0.0011229941,0.0013359068,0.0012276089,-0.0018585162,0.00054672896,0.0010204825,-0.0007621588,-0.00055331993,0.001781974,0.001651512,0.0005791944,-0.000868964,-0.0013280892,0.00026059034,0.00010652444,-0.00030061475,0.00014807726,0.0001760968,0.00069368933,0.001209849,0.00023240736,-0.0009063077,-0.001521538,-0.0017491493,-0.00027219474,-0.00026018464,-0.00092683535,-0.0013048097,-0.00029508572,-0.0011145985,0.00062573096,0.00023022154,-0.000503195,-0.0019440376,0.0003832411,-0.00023492717,-0.00018209859,0.00088700536,-0.00065148715,-0.0012642634,-0.0004813905
hsa-let-7i-5p,0.0016072111,-0.0007870137,-0.0019323538,-0.0016362411,0.0013007382,-0.0006072989,-0.000274678,0.0017686605,0.001916185,-8.8003115e-05,0.0013827987,0.00034669228,0.0017925852,-0.0018341386,-0.00021317729,0.0014227836,0.0010780855,-0.00095816795,2.0686304e-05,-0.0016842101,0.0004482302,-0.0011478754,0.0016424519,0.00042923726,-0.0007406728,-0.0014658389,0.0015864784,0.001286369,-0.0005251267,0.0010639941,0.001639504,0.00086847576,-0.00010562921,7.372396e-05,0.0007688531,-0.001391585,0.0005397503,0.00064652483,0.0012394332,0.0014598451,0.000942711,-0.001113709,-0.00094528066,0.0004189054,-0.0010479207,0.00022632093,-0.00084636454,-0.0004420298,0.0006869084,0.0013484261,0.0003774967,0.0018312293,0.0003071588,-0.0004011189,0.0012905148,-0.00015659956,0.00016623968,-0.0018791868,-0.00037245802,-0.0003057078,-0.00011820346,0.00032805162,-0.0003435146,-0.0008468336,0.00096126506,-0.0010635806,3.03681e-06,-0.00092320226,6.759842e-05,-0.0015139336,9.443704e-05,-0.0013665685,-0.0012795683,-0.00082599535,-0.0008632268,0.00022292603,-0.0004053336,-0.00047043618,6.615068e-05,-0.00095472205,-0.0017782375,-0.0010593019,-3.403658e-05,-0.00057335524,-5.1521114e-05,-0.00087294856,0.0014149339,0.0008078208,-0.00033167948,-4.6885572e-05,-0.0012146092,0.0016080132,-0.0006765743,-0.001412045,-0.0015661696,0.0017602581,0.0011224176,1.2774253e-05,0.00076847896,-0.0013769327,-0.00021128973,-0.0012511068,-0.0006893235,9.395229e-05,-0.0011237712,0.0012331929,0.001876957,0.0008413007,0.0017894092,0.0013476857,0.0008898373,-0.0019208569,-0.00024363806,-0.0016680433,0.0010944696,-0.001263952,-0.0003312655,0.0005089324,5.6414166e-05,0.0017132543,0.0018211168,0.0013057212,-0.00080802036,0.0004294503,-0.000744077,0.0015414916,-0.0009773737,-0.0010370163,0.0010430648,0.0011961672,-0.0014587473,-0.0018591651,-0.0011014775,0.0018746799,-0.0006211987,0.0015785994,0.0006478857,-0.0014815943,-0.0018455647,0.0011433808,0.0011739787,0.00031522824,0.0007887471,0.00086128525,-0.00038378045,-0.00122937,0.00049851276,-0.00072936073,0.0016200533,0.0010543417,-0.0005861543,-0.0011459177,-0.0011366825,-0.00013360986,0.00028840662,0.001118734,0.00113019,0.0016711019,7.869303e-05,-0.0001002223,-0.00068177877,0.00075803814,-0.0016152197,-0.0015151352,-0.0018262669,-0.0013896448,0.0004814833,0.0005071808,-0.00096384727,0.0018117258,0.0002253945,0.0014474625,-0.00029288384,-5.9725484e-05,-0.0015447096,8.685049e-06,-0.0014147991,-0.0016483008,0.0004923502,0.0007326496,0.0016911244,-0.00022193778,0.0012248661,0.0011466504,-0.0016865097,0.00062056724,0.0019509015,-0.0010765572,0.00032235193,-0.00061193004,-0.00054806634,0.0009871582,-0.0016990334,-0.0009282592,-0.0004986385,-0.0016256945,0.0008551567,0.00026880926,-0.0015526016,-0.0016777581,0.00081797014,0.00017554662,-0.00096303644,-0.0014785765,6.525917e-05,-0.0016433075,0.00046438258,-5.4210657e-05,0.0015492844,0.0006784671,0.0018312624,0.001556135,-0.0014240693,-0.00039849395,-0.00017941836,0.0016162668,-0.0017125491,-0.0009311045,-0.0014166841,0.00020590262,-0.0009958831,-0.0018973094,-6.335997e-05,-0.0014725438,0.001569361,-0.0006925032,-0.0009974595,-0.0017139368,-0.00037187885,0.0017218853,0.0017669939,0.00012690062,0.0018583769,-0.00086275314,-0.0012967343,-0.00043836527,-0.0012672578,-0.0015849707,0.001735874,0.0018877406,-0.0011097579,0.0015317863,0.00059188274,0.00024644868,-0.0018370822,-0.0018979755,-0.0015331315,-0.0013235662,0.0014936496,0.00019102101,0.0013181777,0.00038268114,2.3975503e-05,-0.0012260972,0.001512178,0.00052955374
hsa-miR-100-5p,0.00044796523,-0.00025129563,0.00053413515,0.00038461643,-0.001862618,-0.0007604603,-0.0006301756,0.0015433934,0.0017816611,0.00020405138,0.0016506859,0.0007264379,-0.0017418317,-0.0008163953,0.0010797197,0.0014425032,0.0009952139,-0.00019100308,-0.0005732039,0.00015214062,-0.00026704906,8.672732e-05,0.001370724,-0.00025248283,0.00088948454,0.0012446435,0.0016683612,0.000737231,0.0017195593,0.0013073594,-0.0014812095,0.00019090576,-0.0005875442,-0.0008401306,-0.0006523584,0.00029909238,-0.001360225,0.00014601112,-0.0011161958,-0.00092260004,0.0008464679,-0.00014017499,-0.0012731699,0.00017348398,0.001578334,-7.978722e-05,-0.001581989,0.0012745766,-0.0016484677,-0.0017418202,-0.0013684691,0.0018566267,-0.0018734421,0.00100521,0.0017698526,-0.00051378773,0.0006017876,-0.0017405585,0.0009606045,-0.0007805944,-0.00054140866,-0.00089489494,-0.0013830609,-0.00028279307,0.0005136484,-0.0006853024,-0.0014569014,0.0016696802,-0.0014782711,-0.00036899524,-0.0015626947,0.00053339126,1.6978476e-05,-0.0014623096,4.582666e-05,-0.001818223,0.0010461304,-0.0015075608,-0.0016278552,-0.00011204684,-0.0009123016,0.0016047223,-8.776283e-05,0.0003251403,-0.0013553239,-0.00013116037,0.0005029498,-0.0010820273,-0.0018192561,0.0002672379,0.0010813146,0.0006167181,-0.0011520577,0.0015240824,-0.00025638624,-0.0009318079,-0.001420843,0.0012545211,0.00038446556,-0.0019022516,-0.0016712492,-2.5008922e-05,-0.00026567094,-0.0006640571,0.0015772919,0.0007753144,0.0013136412,0.0011091386,-0.0013424974,-0.0013573436,-0.0010598982,-0.0012134522,-0.001795746,0.0019321032,0.0012156127,0.001270894,0.0016581267,-0.0007063303,0.0010596619,-0.00017373415,-0.0016273677,-0.00094206934,0.00048485957,0.0018618095,0.00018849573,0.0018555878,-0.0015910898,0.001147757,8.678227e-05,0.00067503075,0.00017068442,0.00019194488,0.0018898577,-0.001744978,0.00097298133,0.0019162083,0.00088571245,-0.001781136,-0.0016601533,-0.00024762924,0.0018001783,-0.00015583541,0.0015004703,-0.0012027551,0.0011098615,0.00017114356,0.00024404167,-0.0017782063,0.0016867043,0.00082825613,-0.0018286689,0.0015832328,-0.00166526,-0.0017651136,0.0015083323,0.00020534778,3.57416e-05,4.1465508e-05,9.282143e-05,-0.00017303939,-0.0013218082,-0.00073414703,0.00052628596,-0.0016662935,0.0011546458,-0.0005335094,-0.0009307987,-0.001284865,-0.0017507467,0.00077270134,-0.0017737066,0.0007685679,6.322749e-06,0.0009944886,0.0006094058,-0.0016425708,-0.0011119572,-0.0016251273,0.0009170908,-0.001566064,-0.00032894034,0.00058825966,-0.00077850814,-0.000830353,-0.00020211283,0.0011682124,0.00093484484,0.001682716,0.00010392838,0.000953024,0.0014566553,-0.0008699179,-0.00015902519,-0.00022394664,-0.0015765345,-0.0007925397,-0.0011951567,-0.00054600404,0.0009167262,0.0012812219,0.0006505449,-0.0011243268,-0.0010656677,-0.0013007079,-0.0011466264,-0.0017873464,-5.1179784e-05,-0.00028434617,-0.0009919849,0.0014349944,-0.0015568781,0.0012540487,-0.0011515969,-0.0003998588,0.0006612644,-0.0013071429,-0.0012436444,-6.566546e-05,0.0002089832,-0.0003008407,2.3871893e-05,-0.00019341346,-0.0008079625,-0.00073312584,-0.00011701975,-0.0011298021,-0.0014372543,-0.0018208941,0.0013039471,-0.0014298423,0.0014048854,-0.0009626467,-0.0011494583,-0.0007803793,0.0015834398,0.00051731686,-0.0014362419,-1.0199146e-05,0.00090256636,-3.600889e-05,0.0017427674,0.00091545284,-0.0018067595,0.0010678549,-0.0017316288,0.00026510097,0.0005058411,-0.0016691973,0.0015046201,0.0005530766,-0.00040419248,0.0009567875,-0.0015058545,0.0011745081,-0.0018466606,-0.0010290844
hsa-miR-101-3p,0.0017557421,-6.2505715e-06,0.0010133393,-0.0011859951,-0.001670416,0.0016985256,0.0011340766,-0.0019127441,-0.0012215576,0.0010680463,-8.525641e-05,-0.00030386297,-0.0013174687,-0.00019901549,-0.00038181595,0.0013029496,0.00034925737,-0.0008725637,0.0014162345,0.0012606769,0.00043426966,0.0010512045,0.0014478213,-0.0018986153,0.00013380381,0.0010922987,0.00067913136,0.00057620555,-0.0005110216,-0.0013702544,0.00033075246,-0.001711949,0.0013836559,-0.000615804,0.0010133274,0.00067089265,0.0019528798,0.00016625621,-0.0019232517,0.00086331926,-0.0010511708,0.001170414,0.00042531663,-0.00010287273,-0.00081512483,0.0013723562,0.0014479826,-0.00017090468,-0.00162811,0.0012500938,0.00071003265,-0.0012500123,-0.0018710995,7.721083e-05,-0.0005046651,-0.0011372613,0.0019181138,-0.0015072417,-0.00031652173,0.0016268536,-0.00035815302,2.9744115e-05,0.0014767465,-0.00053919444,0.0011718341,0.00087544206,0.0005517104,7.44001e-05,0.0014009492,-0.00192066,-0.0005886925,0.0013281354,-0.00013095373,-0.00027111254,0.0002132,-0.0010222166,0.0017943305,0.00032481714,0.00053055235,0.0010848648,0.00016486854,-0.0015809468,-0.001553299,-0.0017248458,0.0010347019,-0.0019438149,-0.00086992024,-0.0015019419,-0.00030651514,-0.0014331158,-0.0015494699,0.00055268337,-0.00023249956,0.0014043739,0.00086970534,-0.00017725746,-0.00063402974,-0.0004970813,0.0017637678,0.0010177626,0.0019527955,-0.0008880141,0.0006273822,0.0010159009,3.0013965e-05,-0.0006638359,-0.0008592651,-0.0019130873,-0.0019094527,0.0006588353,-0.0011727737,-0.00078047113,-0.0017980706,0.0019422881,-0.0016129494,-0.001578171,0.0010769065,8.782162e-05,8.255569e-05,-0.0018297301,-0.0004573993,5.0096307e-05,-0.0013071173,-0.0016834431,0.0002819535,0.00080688763,-0.0007403258,0.00010309182,0.00038811192,-0.00045837008,0.00018200884,0.0016998374,-0.0009775467,-0.0019082383,-0.0003048568,-0.00036830537,0.0015260954,-0.0019116332,-0.000311892,0.0018343816,7.660757e-05,-0.0016808254,0.0007389337,0.001379417,0.0008694711,-0.000899435,0.0015902927,-0.0010406629,4.2199856e-05,-0.0016433517,-0.00079073047,0.0013811213,0.0014566288,-0.0013397818,-0.00026463834,-0.0005268124,0.0007569955,-0.00095962035,-0.0010333264,-0.0005307674,-0.00022080343,-0.0013993508,0.001131586,-0.0015852083,-0.000725713,8.158316e-05,-0.0007319327,-0.0013515488,-0.0004226456,-0.0018685757,0.0011479766,0.00066917296,0.0018097784,0.00043677422,0.000795495,0.00067041186,0.00181274,0.0010488257,-0.0017433398,0.00010881736,-0.0015831124,6.274483e-05,-0.0016047979,0.0018311329,3.8609374e-05,-0.0017254953,0.000328572,0.0011317444,0.0009021205,-0.00025563315,-0.000119617325,-0.0018891272,0.0014832835,0.0009981736,8.596177e-05,0.0013070423,-0.00015080965,-0.0016810953,0.00078579737,0.00015312294,-0.00086917717,-0.0014616183,0.0018383618,0.0016356742,0.0015326969,0.0006320621,0.00021762773,-0.0012674546,-0.001641327,0.00034003682,0.0015509021,0.00029540248,-0.0013822839,-8.5538486e-05,-0.00030550302,0.00032512075,0.001307935,0.0012298573,0.0013442647,0.0010339867,-0.0007537736,-0.00067645137,0.00054139993,0.0011493694,-7.957744e-05,0.0004824407,0.00042233733,-0.00057007617,-0.0005006532,-0.0001029456,-0.00087702065,-0.0006522337,-0.0017695534,0.001767304,-0.0016628669,-0.0013947634,-1.3692537e-05,0.0012571455,0.0013118363,0.0008748092,-0.0013734533,-0.0015108319,-0.00095590076,0.00015233993,-0.0014034334,-0.0016436548,0.0013361243,-0.0009106983,-0.0014326226,0.001789449,-0.0003090984,0.0011135915,-0.00013812818,-0.0008543518,0.000791606,0.0014027548
hsa-miR-103a-3p,-0.0016735747,-0.00019177853,0.00028460892,0.00096858223,-0.0011646261,-0.001566635,-0.0010520283,-0.00089988124,-0.001396874,0.0014843515,0.0010138303,-0.00028514618,0.00173085,-0.00022942398,0.00019545713,6.9406815e-06,-0.0017030449,0.0016176924,-0.00081335765,-0.00014158979,0.001787818,0.0011824877,-0.0008061987,0.0010453847,0.0002969755,0.0019365975,0.00084865233,0.0010503731,0.00050863065,0.00063801464,0.0013531642,-0.0004715519,-0.0009316392,-0.0017347779,-0.00013048737,0.0014578642,-8.393265e-05,0.0016443054,0.0011856079,-0.0010094749,0.0010628812,0.0004803515,-0.00010716682,0.00019058655,0.0019322617,0.00011453428,0.0013586758,-0.0019451556,-0.00013310183,-0.0010935735,0.0016663175,-0.00088059145,-0.000337156,0.0011012242,0.0018565559,-0.001213581,-0.0017573741,0.0015551082,-0.0012487003,-0.0015094827,-0.00024053012,0.000393596,-0.0013783424,0.000690731,0.00014478876,0.00067158067,0.00040912465,0.0018800355,-0.0010908258,-0.0010394056,-0.00050524215,-0.00068392535,0.0014180769,-0.0012756892,-0.0008659727,-0.00053319056,-0.0010873952,0.0015653237,0.0005641193,0.00013318844,0.00010605669,0.0012302308,-0.0017947775,-9.468943e-05,0.00080484967,-0.0007249493,-0.0013549814,0.0014176073,-0.0014688172,-3.096857e-05,0.0013004118,0.0013234501,-0.0005557606,-0.0015924362,-0.00029046333,0.0011502744,0.00061358395,0.001832505,-0.0014256574,0.0004289404,-0.0017395854,0.0004377237,1.0909513e-05,0.0004946359,0.00053628883,-0.000982313,-0.0019400156,-0.00045923132,8.0437865e-05,0.0009090926,0.0014441772,0.0010885322,0.0011895415,-3.0120718e-05,-0.00015352585,-0.0012352243,-0.0016732193,-0.00010182604,-0.0002296723,-0.0015365294,-0.0009989394,0.0009067012,-0.0003308371,0.0018238397,-0.00086754153,-0.00078000594,0.0006630779,0.00063485815,0.0013276851,-0.0015045716,-5.6612538e-05,-0.0015574612,0.0018904614,0.0013343995,-0.0016679775,0.0005563458,0.0006327927,0.000990029,0.0017437548,0.0007092061,-0.0009618043,0.00036105094,0.0017653918,-0.001141748,-0.00129534,0.00079027354,0.00084137195,-0.00011989998,-0.0019112781,0.0009875239,0.0014216669,0.0009846485,-0.00057545037,-0.0019523515,0.0003278253,0.0011009809,-0.00023403752,0.0011981332,0.00016959454,0.001039176,0.0010600698,-9.173702e-05,-0.00056986045,-0.0017261482,-0.0018743869,0.0014297406,-0.0019346211,0.001737942,0.0016277966,-0.00027796207,-0.0008203138,0.0007225203,0.0006548392,0.0011138879,-0.0014167113,-0.00028199086,0.0012743224,0.0013263007,0.00021612225,0.0016267404,-0.0018415251,0.0008782442,-0.00017620227,-0.0014511425,-0.0019408213,0.0014258451,-0.00027378788,-0.00016940432,-0.0011093549,-0.000488886,0.0015339195,-0.0008693879,-0.0009549913,0.0008842773,-0.0011508267,0.0005612513,-0.001341918,0.0007979041,0.000119672855,0.00010593678,-0.001025042,0.001837411,-0.00045820815,-0.00047129474,-0.00016686274,0.0011667435,-0.0016184845,-0.0014681444,-3.1359144e-05,0.00043386943,0.0017253123,-0.00047935685,0.0014468993,-0.00025042298,-0.0008043606,0.0017783025,-0.0003801121,0.0019504521,0.0014441558,0.0014998664,-0.0009810113,0.000530849,0.001588343,-0.000285001,0.00025268807,-0.00027965626,0.00060393685,-0.0007132186,0.001640436,0.0015967134,0.0011072098,0.0019406711,-0.0001310556,-0.0010315579,-0.00018534123,0.0008662138,0.0014778515,-0.0019516739,0.0015413526,-0.00044534833,-0.0001048859,-0.00056611316,0.00043855282,0.0018400543,-0.0011367616,-7.968908e-05,0.0005074758,0.0008447536,-0.0011025597,0.0005484505,0.00018422748,0.00083783036,-0.0014630908,0.0019351908,0.0009483115,0.0006205526
hsa-miR-106a-5p,-0.0016314981,0.00095909555,0.0007930172,0.00055504753,-0.0011964224,-0.00096367544,0.00045584096,0.00074404967,0.00035718828,0.0018387954,-0.00060739124,0.0011514644,0.0011401698,0.0012921242,-5.854061e-05,0.0010049478,0.00031690695,0.0019394672,-0.0014863508,0.0013494194,0.00067253876,0.0015635232,0.00066183833,-8.115277e-05,0.0017113783,4.259334e-05,-0.0016445791,-0.0013054766,0.0017405287,0.0009779057,0.0016841001,-0.00085961714,-0.00032233505,0.001150982,-0.00012701668,0.0018893022,0.00056518265,-0.0017496212,0.0018556735,-0.0010442816,-0.0002712953,0.0019151864,0.0005886371,-0.0002850208,-0.0008248909,-0.0003313158,0.0011053835,-0.0010846178,0.0010580774,-0.0005940461,-0.0019230287,0.0007354866,0.0014037148,0.00016009039,0.00160114,-0.0008051372,-0.0013573577,0.00047476124,-0.001187612,0.0014857913,0.0007241885,-0.00064210966,-0.0012025044,0.00035530096,0.001325458,-0.0011480892,-0.0010149833,0.0006030747,0.0006508024,-0.00040314742,-0.00069332134,-0.0014756013,-0.0016813831,0.00022180355,-0.0015908958,-0.00039530883,0.0012482277,0.0016280655,0.0010738214,-0.0001484633,0.0005025207,0.0013360218,-0.0018901567,0.00041355984,0.0007450853,-0.0019077847,0.0016995112,0.0012422546,-0.0011010552,-0.0017533073,-0.0012262866,-0.00035859225,0.0008340799,-5.8738515e-05,0.0009837374,-0.0018846849,-0.0010129313,0.0014114352,-0.0017533753,-0.0005806212,0.00095403334,-0.0017593835,-0.0003925733,0.0013467711,-0.001308285,-0.00037142856,-0.001670916,0.00016076374,-0.0018688169,-0.00035006064,0.0010796136,0.0002939077,0.00059674866,0.00012687314,-0.0017500239,-0.0002825188,-0.0010763339,5.364581e-05,-7.1538496e-05,0.0013924141,0.0013413688,-0.0019494608,0.0018975365,-0.0010785041,0.001713736,0.001341399,0.0013468266,-0.0016718592,0.001262448,-0.0015774523,-0.0011714015,-0.00041879516,0.0014554141,-0.001106052,0.0008285027,-0.00145766,-0.0010093059,-0.0014536625,-0.001553221,0.0019427927,0.0009527623,-0.000899881,-0.0017050172,0.00019288808,0.0017203004,0.00092107756,-0.00018233957,-0.0005223312,-0.0005323645,-1.7042505e-05,0.0005049545,0.0013281871,0.0010054032,0.0008410646,0.0007693416,-0.001510707,0.00039207842,-0.0018977235,-0.00019220659,-0.00065795274,-0.0014851514,0.0001270196,-0.0017339902,0.0014398182,0.0011149317,-0.00037716376,-0.0015574547,-0.0019141446,0.0010634577,-0.0019130402,0.0017661657,0.000729054,-0.00025526492,-0.0014046307,-0.00091044337,9.048567e-05,0.0004889462,0.0011753044,-0.0010274589,0.0016654553,0.001524979,-0.0018295744,0.0014798108,-0.00065678614,-0.00041581842,-0.001883656,0.0009443166,0.0016504938,0.00056147436,-0.0011742844,0.0014602202,-0.00056803133,-0.00036699674,-0.0008774734,4.6754256e-05,-0.0013038567,-0.0017266608,0.0005252687,0.0010094317,-0.000738855,0.0012822875,-0.0014405873,-0.001123727,0.0008661391,0.00020474987,0.0017941638,0.0008953777,0.0016711105,0.0018149214,0.0012125475,0.0010222895,0.0014881045,-0.00061844196,-0.00058528956,-0.0008145955,-0.0002634048,-0.0014816998,0.00020941836,0.0013170794,0.00051362184,0.0017247752,0.00023035356,0.0019017474,-0.0006565227,-0.0002657926,8.0326805e-05,-2.4603796e-05,-0.0011578525,-0.00077707495,0.0018678829,-0.0016680087,-0.000731839,0.0009567889,-0.0011589068,0.00024542934,-0.0001876232,-0.00055240863,-0.0014008968,0.00045793527,-5.1226e-05,-0.0012295776,-0.00017155823,-0.0014191485,0.0010851473,-8.7419874e-05,0.0003505454,0.0009194277,-0.0012559185,-0.00021402224,0.00046541519,0.0003161938,-0.0017479789,0.00043005566,0.00090158894,0.0018559294,0.0009741972
hsa-miR-106b-5p,0.00088103185,0.000946386,-0.00080397725,-0.0008825017,-0.0017922472,-0.0011594135,-0.001611344,0.0016489972,0.0014142375,-0.0013522052,-0.0017930657,-0.0003305535,-0.0018950567,0.00084110233,-0.0009631538,-0.0012755175,0.001236442,-0.0010671963,0.00035595405,0.0008570228,-0.00036604283,0.001676155,0.000107604545,-0.0008361713,-0.0009849932,0.0015103677,-0.0019187977,0.00035793963,-0.00073521317,0.0007532239,0.00083004334,0.0009534012,-0.0009122867,-0.0007528113,-0.00015111023,0.00060344907,-0.0003298123,-0.0016637633,5.845423e-05,0.0016739394,0.0007569834,0.0018390231,0.0011589034,-0.0017443697,-0.0012760746,-0.001377484,0.0017369364,0.001017876,0.0017380426,-0.0016432526,0.0008333875,4.405016e-05,-0.001331093,0.00029885862,-0.0008507174,-0.00023464987,0.00034671067,-0.0011034098,0.0017074449,-8.714921e-05,-0.00055740366,0.0011252207,-0.0009367594,-0.0012727289,0.0006049576,0.0005586429,5.8995793e-05,-0.0017755108,0.0014135574,0.00014726864,0.0006479544,0.0017580816,0.0008684378,0.0008182649,0.0011546314,0.0010275797,-0.00063585024,-0.0014701759,-0.00096428976,-0.0008180281,0.0010250376,0.0016912553,-0.001501173,0.0016068504,6.19113e-05,-0.00082779606,-2.3291097e-05,-0.0003783782,0.0014601275,-0.000305861,0.0010341743,0.00048987777,0.00044139544,0.00052818144,0.00047159917,0.0018917979,-0.00046719424,9.589875e-05,0.0009843609,0.0011756308,0.0016820794,0.001795717,-0.0008360713,1.0477379e-08,-0.0013700717,0.0016258997,6.124098e-05,-0.0018819983,0.00082310406,-0.00084442843,-0.00045133056,7.883413e-06,-0.00011294009,0.0015362217,0.0012225644,0.0009131641,0.00074619846,-0.00083951163,-0.00029272505,-0.000118831056,0.0018530851,-0.0009191921,0.0012513315,-0.0015516272,-0.0008798897,0.0008609246,-0.0017048197,-0.0012083927,0.00016265293,-0.0012552955,0.00035609794,0.0015565145,-0.0011927497,0.00085943076,-0.0007243727,-0.0013524619,-0.0013882981,0.0012533993,-0.0015304419,0.0006243866,0.0015735761,0.0013059268,0.00017609727,0.00038750214,0.0012112088,-0.0015255713,-0.0015825902,0.00059462734,0.0019281225,0.0006242811,0.00029576896,0.0004616885,-0.00021708477,0.00027629756,8.784467e-05,-0.001170439,0.0014957804,0.0006911338,0.0009236445,0.0010794001,-0.0007004078,0.0009374821,0.0017735779,-0.00060368876,-0.00017994817,0.00074631115,0.00057147327,0.0018937646,0.0017702975,-0.00017986982,-0.00052082934,-8.419086e-05,0.0017673969,-0.0016117238,0.00046373648,0.0001521844,-1.9194791e-05,0.0013534508,0.0016856843,0.00091547146,0.001520148,-0.00010231917,0.000508968,-0.0013386065,-0.0011721585,0.0007780739,0.0013499428,-1.22137135e-05,0.0011464078,-0.0012147301,-0.0011432813,0.0015673987,-0.00018916244,3.767037e-05,-0.0012693633,0.0006389229,-0.0006298544,-0.001642118,0.0017577065,-0.000529964,-0.0015368687,-0.0018337229,-0.0013104989,-1.997687e-06,-0.0007506744,-0.00015896547,0.0017679329,-0.0010955867,0.00025201705,0.0016481513,-0.0013356528,-0.0013042265,0.00025421195,-0.0010879848,0.0009848287,0.0007805694,-0.0015984488,-0.0010731077,-0.00096641853,0.00083432184,-0.0016835531,0.0013816757,-0.001464098,0.00061386987,9.980728e-05,-0.00031202345,0.001723394,-0.0019356584,0.0016847395,-0.00036653248,0.00036270218,0.00019846344,0.00038131466,-0.001339237,0.00087301154,0.00029449258,0.001036284,-0.0019450875,-0.0016218898,-0.0011522591,0.0009071862,0.0012607796,-0.0017863607,-0.001306172,0.0015526563,0.0015866389,-0.0018226011,0.00067961984,-0.00032441376,-0.0010383322,-0.00030410022,0.001749007,0.000109665096,-0.0006017585,-0.00022306223,0.0019399966
hsa-miR-107,0.00016030692,0.0018795046,0.00064681144,-0.0014795533,-0.00032437267,0.0004830386,5.2910298e-05,0.001743993,0.001718757,-0.0016548755,0.0018049108,-0.0019467147,-0.0011951795,0.0010324512,-0.0011312722,0.0017144117,-0.0018808416,0.00060656364,-0.00039363164,-0.0009732465,-0.0010477685,-0.00079414016,0.0016914001,0.0016236892,-0.0013531591,-8.239795e-05,-2.9738178e-05,-0.0012307414,-0.0017614132,0.0012136477,0.00093522435,0.0016009917,0.0017004802,0.0012788512,0.0017053238,0.0018941048,-0.00024465995,-0.0007993805,0.0013362397,-0.0014818391,0.0017849191,0.00017894804,0.00020390679,0.0003789228,0.0008982599,-0.00014801323,0.0010629569,-0.001803251,0.00044017937,-8.6346874e-05,0.001099339,0.00017502811,-0.0007298831,0.0002746894,0.00020931289,-0.0016393564,-0.0006797238,0.00061638653,-9.537034e-05,-0.0005648489,0.00083589065,-0.00039795903,-0.0012304396,-0.00078067067,0.0009506815,-0.00086479564,0.00093790353,0.0018809019,-0.0004290964,-0.000115503324,-0.0014909827,0.00069463626,-5.9943995e-05,0.0010133551,0.0014219927,0.00011319877,-0.00074496237,-0.00013559405,0.0011133705,-0.0016540512,-0.0010027193,0.00019901199,0.0013946136,0.0014054948,0.00032516522,0.0006216988,-0.0012312518,-0.00039222126,5.946844e-05,-0.0010253529,0.00072528236,0.0013438074,-0.00105849,-0.0006486912,0.00011068699,0.0018735838,3.352156e-05,-0.0005938242,-6.834348e-05,0.00040182262,0.0005146847,-0.0011374305,-0.0018894514,0.0017473404,0.0017772755,0.001357116,0.00054923305,0.001573721,0.0006990989,0.0013212143,0.0004136269,-0.00067991414,0.0002225989,-0.00051819196,0.0016336248,0.0016100889,0.0010102212,-6.373506e-05,-0.00039322034,0.001464935,-0.0018262827,-0.00078619854,-0.00064882694,0.0006246376,-0.001224332,0.000801038,-0.0016510917,0.0018245338,0.0015582496,0.0017864807,0.0016941368,-0.0012590571,0.00049132435,-0.0018692568,-0.00048514828,7.563457e-05,-0.00011604524,-0.000950934,0.0018672331,0.0014623329,0.0017333659,0.0017665622,-0.0005141966,-0.0018586287,0.00025443733,0.0005050148,-0.0005070232,0.0015165769,0.0006407825,-0.0018834918,0.0011767261,-0.0011690515,0.0014881794,-0.0019407637,0.00063628564,3.9171195e-05,-0.0013766398,0.0017542266,0.0018376687,-0.00077379716,-0.001064291,-0.0017424898,-0.00057699054,-0.00023109419,-0.0017388623,-0.0017142624,0.0009957266,0.0017411585,-0.0006658358,-0.0018762504,-0.0003153152,0.0017657152,-0.0011623785,0.0005305726,0.00037242938,-0.0017392723,9.390828e-05,-0.0009056779,-0.0011831737,0.00071606203,7.152022e-05,0.0015686688,-0.00072922464,0.00093662925,-0.0014056861,-0.0007351914,0.00033058948,0.0018286861,0.00048068562,0.0007638505,0.00050251745,0.0008169273,0.00038093491,-0.0013713816,-0.00018387684,-0.00021843822,-0.001065193,-0.0011066659,0.0012708558,-0.0010691595,-0.0007827621,0.0011097095,-0.0002946402,-0.0007649618,-0.00047367904,-0.0011851541,0.0017539174,5.308492e-05,0.0018206998,0.0013091527,-0.00075262587,-0.0017911281,0.00023928215,-5.429343e-05,0.001781963,-6.379327e-06,0.0017545552,0.0010236385,0.0015774858,0.0008749503,0.0010525687,0.00027525309,-0.001919618,-0.0016267028,0.0011652075,-0.0006976463,-0.0015395867,-0.00035449164,-0.00044698128,-0.0012376711,-0.00073412724,0.0018861894,0.00037252554,-0.00177299,0.00031121098,0.0011895024,-0.0007667033,-0.0011856521,0.001110144,-0.001247663,0.0016293388,-0.0004476579,-0.0016913651,-0.0012115913,-0.00011343544,-0.0010419934,0.00094819325,-0.00091372826,8.868729e-05,0.0017676181,-0.0005882473,-0.00029395835,0.0010117947,-0.0005223319,0.0004460006,0.0007043716
hsa-miR-10a-5p,0.00097175175,0.0018401411,-0.0016557956,0.0005299682,-0.0013232112,-0.00081581715,-0.00053737673,-0.00024935498,0.0016603062,-0.0005355434,0.0009453825,0.0010789942,-0.0016595788,0.0010770024,-0.0012172684,0.001323405,-0.0007424408,2.9458199e-05,-0.0011918232,0.0009794722,0.0012609402,-0.0010159989,0.0017960873,0.0015195434,0.0019393291,-0.0009361614,0.0007319031,-0.0012777215,0.0010333296,0.0012257106,0.0014673665,-0.00059236854,-0.0014765444,0.0016233411,0.00018593716,-0.0010847338,0.0008065086,0.0010593131,0.0010493726,0.0011436094,0.0018020631,-0.00097316504,0.0016032252,-0.0012699326,-0.0008044265,0.0013043254,0.0018312021,0.0014103213,-0.00039380346,-0.0008740346,-0.00019563793,0.0015600123,-0.0013123476,0.0006164189,-0.0014713297,-0.00047226762,0.0005335463,0.0010570539,-9.6086296e-05,0.00017501926,0.00054241763,-0.0016706556,-0.00068924774,0.0006448154,0.001279674,-0.0010933771,-0.0006778955,-0.0012767863,-0.0006330607,0.0012001027,0.0010552246,-0.00063414697,0.00038612983,-0.0002735312,0.00055926736,-0.00032054493,0.001778567,-0.0014522034,0.00093265413,-0.0004864093,-6.786198e-05,-0.00075362285,0.00024347776,0.0012617293,0.0005869975,0.0015392902,-0.0011564634,6.9504604e-05,0.0006610728,0.0015895683,0.0002587214,-0.0001302479,-0.00025426515,0.0007882861,0.0015367644,0.0015505964,0.0011550938,-0.001214169,0.00072266976,0.0007382198,0.0017672491,-0.00031252566,-0.00084827084,-0.0009090754,0.0011095747,-0.0008626891,0.0017206287,-0.0014605678,0.0013141537,-0.0015951185,-0.001550617,0.0009321312,-0.0014703777,-0.0004087031,-0.00031654967,-0.00047447078,-0.00068110286,-0.0015032921,-0.0007538041,0.0015696464,-0.00040009106,0.0019090469,-0.00024409697,0.0010970209,0.0016455501,-0.0014014482,0.0014841894,-0.0013159434,-0.0016509069,-0.0012875188,-0.00038909423,-0.0014235419,-0.0006098936,-0.0008748721,0.001889846,0.001455185,0.00090024876,0.00068342127,0.00062354957,0.0011547857,0.0012482118,0.00037076278,-0.0015062126,-0.0014035753,-0.0007484603,0.00018418767,0.00093757315,-0.0019030178,0.001342444,-0.001739218,0.00059052533,-0.00017635059,0.00097232824,0.0013620001,0.00044470606,0.0010522313,0.0004397824,0.0012948213,-0.0014432869,-0.00030500814,-0.0002601873,-0.001764289,0.0016562811,-0.0019328966,-0.0016166734,0.0007928151,0.000104756095,0.0011261015,-0.0010756892,0.0012920108,0.0017549195,0.001816971,0.0003828511,0.0012450551,-0.0006071563,-0.00037077698,0.0014233675,0.0007083805,0.0006222697,-0.0005524921,-0.00021761435,-0.00047003233,-0.0011601904,0.00093764043,-0.0016764316,0.0018790995,-0.0017690791,0.0004107803,0.00026399922,0.0002481991,-0.0017275946,0.001104946,0.0018463084,0.0011894375,-0.00010922435,0.0015025567,0.00029464066,-0.00030112988,0.0008673491,0.0017968533,0.0010550381,0.00011960976,0.0007245396,-0.00082817825,-0.0011602773,0.0004349351,-0.0013580514,0.0015014713,-0.0011877639,-0.0011442646,0.0017283997,-0.00056780444,-0.000917775,0.00077402894,-0.00010085234,-0.0012466803,0.0017965282,-0.0005911479,-0.0018393728,2.2944529e-05,-0.000853779,-0.000955092,-0.0002401413,0.0005116358,-0.00060034613,0.0012586934,0.00088040717,-0.0002591362,-0.001444719,-0.00033022242,-3.391737e-05,-1.7051236e-05,0.0011848365,0.00094618206,-0.00040740427,0.00044567138,-0.001835742,-0.001396101,-0.0009106576,-0.001470503,-0.0012836843,0.0005790652,0.0015286973,-0.00083024893,0.0007540437,0.0009362658,-0.0013454084,-0.0015306236,0.0012559085,0.001833979,0.00025028153,0.0012220796,0.0013660847,-0.0009427938,-0.0014662988,-0.0016373215
hsa-miR-10b-5p,-7.210474e-05,-0.0017048991,-0.00064930273,-0.001703036,-0.0018552921,0.00063292775,0.001735942,0.0004990904,-0.0011196462,-0.001759374,0.0018324105,0.0018227028,-0.0012982002,-0.0007033795,-0.0013691244,-0.0013685767,0.001551005,-0.0014695026,-0.00065365573,-0.00019562512,7.9470454e-05,-0.0011128597,-0.0015930195,0.001250173,0.00058034714,-0.0007398892,-0.0003348298,-0.0018299236,-0.0017520399,-0.00015893544,-0.00039110729,0.0018984289,-0.00019607088,0.0017114198,0.0011258991,-0.0008115211,-0.0018598964,-0.00014341553,0.0003832588,0.001336054,0.0012257826,0.00086121494,-0.0009298532,0.00075856573,0.0008689214,0.00033882842,0.0017620835,0.0006146864,0.00036980584,0.000645519,0.00044258148,-0.0015990881,0.0016925959,-0.0010467015,0.00049106963,0.0018648002,0.00039734342,0.0012654536,0.0010770736,0.0018104878,0.0008975058,-0.0015441789,-0.0013350075,0.001533536,0.0019511096,-0.0016077148,0.0010878972,-0.00058242586,-0.0007319612,0.00055807875,0.00052854256,0.00066628587,0.0019444865,0.0015537122,0.0018777528,-0.0010709418,0.00075911474,-0.00030147692,0.00017837342,0.0009737348,0.0016427343,0.0013554292,-0.001407979,-0.0015801413,0.0006257768,-0.0011437899,-0.0014296374,-0.001817176,0.00061685545,-0.0019504622,-0.0012635041,-0.0006973862,0.0010453302,0.0019360157,-0.00044723286,-0.0009788079,-0.0019056695,-0.0011033874,-0.00078960275,0.00036001438,-0.0018188192,0.0015251115,-0.0007611158,-0.0017083215,-0.0013902086,0.0010947871,0.0019094276,0.00030465494,-0.00059770537,0.001441878,0.0013554569,-0.00091242546,0.0018749435,0.0015574067,0.00142288,-0.0006805097,0.001450486,0.0011376494,-0.0009852222,0.0018289192,0.00040922873,-3.1264266e-05,-0.00034259562,0.0019319879,-0.0017031889,0.001907391,0.0015002626,-0.0016151038,-0.00038936606,0.00023231865,0.0009339487,0.0017310095,-0.00023152551,0.0006936118,-0.0014022954,-0.0011809357,0.0010365797,0.0016179231,0.0002323885,-0.0012105107,0.0009699629,-0.0007205586,0.0006568227,0.0001175059,-0.0019053554,0.0017907941,-0.0014201037,-0.001161968,0.00015790598,0.000741391,-0.0018270129,-0.00013479497,-7.089344e-05,0.0009722423,-0.0013323799,0.0010418592,-0.00027763692,0.00022396352,-0.0018491502,0.00065743574,-0.0004043104,-0.0013448752,0.00046201516,0.00029788748,-0.00014190678,0.0009204217,-0.0014882431,-0.0011566214,0.00076697045,0.0018484395,-0.00023829564,-0.000944793,-0.00086653384,-0.0014355879,-0.0009060325,0.00055867806,-0.0005202908,0.0010958975,-0.0007093708,0.0010182513,-0.001087677,0.00052639586,-0.00037946354,-0.0003092806,-0.00056882785,-0.00041041872,0.00028133625,-0.0010772606,-0.0009131534,-0.001753628,0.00019157049,-0.00048329064,0.00051055057,0.00060934736,0.0015511317,0.0018044561,0.00044017565,-0.0002081003,-0.0015820956,-0.0012906918,0.0017638118,-0.0015991784,4.733703e-05,-0.0011122725,-8.853979e-05,0.0009734875,-0.0018388547,-0.0005911753,0.00052077346,0.00065175793,-0.0006340748,-0.001152985,0.0010207046,-0.0003897443,0.0014213305,-0.00027027773,0.0011593152,0.0006181365,0.0015708797,0.0008920338,0.0010335676,-0.00095873384,-0.00029160548,-0.0016577212,0.001677376,1.3565877e-05,-0.0017514408,-0.0017798322,0.0006674386,-0.0007115515,-0.00036135712,0.00040739472,0.0013158724,-0.00058519596,-0.00012912531,-0.0018660761,0.00028684223,-0.0011995076,9.623589e-05,0.0018341613,0.0018924482,-0.0016420704,-0.0002818734,0.00089976355,0.0010963562,-0.0011939358,-0.0013160596,-0.001556295,-0.0010057979,0.0014605483,-0.0017890361,0.0009059061,0.0010403474,0.00061708107,0.00046721287,0.0016877144
hsa-miR-122-5p,-0.000121332705,-0.0009210892,-0.0017174212,-0.0010169756,-5.1421113e-05,-0.0019460669,0.00085325725,-0.0005950334,8.322485e-05,-0.0017722528,0.0017386456,0.0015138797,-0.0018055816,-0.000705853,-0.0005733154,-0.0018764187,-6.700028e-05,-0.0006962714,-0.0018885906,-0.00028864876,0.0018738003,0.0013033748,0.0017151383,0.0017141865,0.00079924474,-0.0010247761,-0.0016926767,-0.00048473675,0.00082819094,-0.00058562704,0.00076359324,-4.9334136e-05,-0.0017598498,-8.747319e-05,-0.00083574455,0.001699148,0.00082916534,-0.00063549983,0.0018232046,0.0017093259,-0.0006529185,0.00113423,-0.000982499,0.0009888487,-0.0012031992,0.0008824996,-0.0016638266,-0.0016602981,0.00018097297,0.0006652435,-0.0006900233,0.0012090392,-0.0009753216,0.00056206924,0.0009012453,0.0017099814,0.0017348004,-0.00044693844,0.0002748028,0.0018887452,0.00088435994,0.0013535647,1.7062062e-05,-0.000120434794,0.00013484107,0.001728591,0.00029945327,-6.738317e-05,-0.00049309,-0.0012459718,0.00011210237,0.00031977054,-5.8504636e-05,0.001536692,0.0017846469,-0.0012552649,-0.0017887072,0.00129472,-0.00070821703,-0.00048376212,0.0017569107,0.0012609195,0.00014704186,-0.0014532156,-0.0014081858,-0.00033123523,0.0006609864,0.00031867297,-0.00016895076,0.0012553353,0.0018498222,0.0011188223,0.00026164856,0.0013685629,0.0007923811,0.0017361396,-0.0005426939,0.0002820692,-0.0019305492,-0.0012033896,-0.0016865061,0.00054741953,-0.0008978655,-0.0019290723,-0.0008307517,-0.0005556309,0.0010493496,-0.000645434,0.0013776859,0.0008300736,0.0003120161,-0.00014846423,-0.0008298607,0.0010140592,0.0008166381,-0.0019105221,-0.0012889731,-0.0013833046,0.0001967072,6.0419552e-05,-0.0016291717,0.0018802553,-0.0011435063,0.0018438157,-0.00045890838,-0.0015560146,0.0014055413,-0.00048397738,0.00061772065,-0.0017212658,-0.0009230635,0.0002831756,-0.0019466527,-0.0017009345,0.0002714179,-0.00076681783,0.0004177834,0.0006828662,0.0001985589,0.0018607327,-0.00012040045,-0.0019464749,-0.0014886844,4.603411e-05,-0.00014712173,2.030516e-05,0.0012103284,0.0011357209,-0.001496956,-0.001524384,4.510209e-05,0.00066089886,-0.00092413754,0.00029654056,-0.0012142949,-0.00040213834,-0.0005573272,-0.00086384476,-0.001377276,-0.0010307857,0.0016568615,-1.961831e-06,0.0017934577,0.0010499863,0.0013930833,0.0016836345,0.0007248947,-0.00012014678,-1.93296e-05,-0.0010560789,-0.00043183356,-0.0013405702,-0.0014859583,-0.0013734592,-0.0016982483,-0.0013080293,0.0011159026,0.0011625453,0.0002367911,0.0014068957,-0.0016210754,0.0007650361,0.00015504542,5.0964998e-05,-0.0018325365,-0.0011253627,-0.0009883624,0.0010063369,-0.0008273879,-0.0005082821,0.0018097265,0.0010961939,0.00051296153,-0.00096449105,0.00014056452,0.0017496878,-0.00064355077,-0.0014988908,-0.0018009424,0.0018733696,-0.0010051844,-0.0012378593,0.00188869,0.0009766696,0.00015165028,-0.00071518205,-0.00091774145,0.000110198045,0.0016977689,-0.0014172702,-0.0011210465,-0.0010285415,-0.001089616,-0.0017996684,-0.001572103,0.00074416935,0.0003134485,0.00057871826,-0.0013765583,-0.0019021357,-0.0009473362,-0.00024488673,0.0008659705,0.0005103713,-0.00037210784,-0.0005776569,5.4338016e-06,0.00075485604,-0.00018977153,-0.001909232,-0.0017919084,-0.0014145667,-0.00066247804,0.00038459944,7.890561e-05,0.0019311327,0.0015731629,0.0017526108,0.0006061911,0.0016861632,0.0016635156,0.0015053325,-0.00051782303,-0.0005218943,-0.0017045339,0.0017615224,-0.0009922966,-9.945757e-05,-0.0018220753,0.0019421338,0.0010533861,0.0012442674,-0.00045289157,-0.0015599593,-0.00033902423,0.001562841
hsa-miR-124-3p,-0.0019044688,0.000284547,8.002692e-05,-5.3760596e-05,-0.0013590488,0.0010723348,-0.00021906896,0.0014157475,-0.00019538624,-0.00081687013,-0.0007542656,-0.00025695364,0.0019213315,-0.00092313695,0.0016886017,0.0009874839,-0.0012793988,-0.00015488849,0.0005820226,-0.001166027,-0.0009290053,0.0012441995,0.0017899163,-0.0019501975,0.0007682324,-0.0005579655,-0.0009770917,-0.0019130465,0.0007675309,0.00069072214,0.0009518082,-0.00059074094,-0.001218342,0.00051566144,0.0017619529,-0.00041715428,0.0018857007,0.0011564542,0.0018156755,-1.9779429e-05,9.635859e-05,0.00067726034,0.0012922436,-0.0006810967,-0.00057745015,-0.0014449204,0.00017352263,0.0018050396,0.0010303359,0.000611871,-0.0006483968,-0.0004735886,-0.0012594144,0.00036391732,0.0019349589,-0.0016061065,0.0018065742,-1.2078555e-05,0.0012485718,-0.0007521241,-0.0015664056,0.0014860795,0.0012648066,-0.00029495277,-0.001036355,-0.0009541741,0.0018116236,0.001841821,-9.469711e-05,-0.00079840154,0.001369182,0.00012260047,0.0006119881,-0.00025706564,-0.0007080941,0.001450483,-0.0014775567,-0.0012871283,0.001697076,-0.00015449082,-0.0016697703,-0.00048572314,-0.0016775874,0.0011435964,0.00044238614,-0.00027679803,0.00093910494,-0.0016152677,-0.00019000412,0.0009902443,0.00092791347,0.0008149652,0.0003114834,0.00069855666,0.0014600588,-0.0016372816,-6.030861e-05,0.0016399678,9.358954e-05,0.0015379989,0.0013316993,-0.00038443308,-0.0015772396,-0.0012150677,-0.00015122793,-0.00055535184,0.0013629005,0.0013508229,-0.001463375,0.00021601352,-0.00011740299,-0.00052504044,-0.0016397052,0.0007129272,0.0018065581,-0.0011477744,0.0010343075,0.001643918,-0.0011443066,0.0017518457,0.0017636069,0.0018030861,0.0015776539,-0.0018523624,-0.0012164912,-0.0017049848,-0.0018201526,-0.0017445169,0.0004587092,-0.0005601328,-0.001773307,-0.00031756586,-0.00038318813,0.0015113815,0.0018930323,0.0008308061,0.00033774157,0.0003976184,-0.00045904052,0.0004858561,0.0015128255,-0.0017542009,0.0009956844,0.0017268381,-0.00092240854,-0.0013897566,-0.0010374445,0.00054795574,-0.0016331001,3.709062e-05,-0.00027474295,-0.000346291,0.0011620885,-0.0013756475,0.00051763933,0.001603927,-0.0016798911,-0.00033284246,9.232946e-05,0.0002516599,7.970468e-05,0.0007685132,-0.0016539259,-0.0016468958,0.0001717864,-0.0011783503,0.00024757418,-0.0005670453,0.0019326548,0.0012487888,-0.0017192578,-0.0007568196,-0.0012096222,-0.0013184347,-5.1219482e-05,-0.0009801013,-0.0017473153,-0.00109451,-0.00047075783,0.0017483111,2.4840701e-06,-0.0018795122,0.0018761267,0.0018931106,-0.0009172375,-0.0011231147,0.0016194636,-0.00036896754,-0.00063441205,0.00016313163,0.0017163861,-0.00013710675,0.0007048161,0.00041342527,0.0010727842,-0.0007350693,-0.0013444955,-0.0010091024,-0.0014047731,-0.0012691419,0.0012069705,-0.0017594509,0.0009515581,0.0006062882,0.00024812203,-0.0014563794,0.0013156787,-0.0008197726,-0.0012066213,0.00048471335,0.0011495608,-0.0014375162,0.00037507224,-0.0016237054,-0.0017952861,-0.0017665488,-0.0009993732,0.00067530666,0.00071716704,4.7125854e-05,0.001791934,0.0010535868,0.0017015189,-0.0016822731,-0.0014641136,0.0009894134,0.0014697006,0.0016868012,-0.00073949655,0.00081206765,-0.0007924929,-0.00084769086,0.00019534654,9.804498e-06,-0.0008574035,-0.0012016855,-0.0018623761,0.0013244974,-0.0015768863,-0.00016236946,-0.0018421385,-0.0019385957,0.0016773415,-0.0017221026,-0.00085591676,0.0009299554,-7.548102e-05,0.0010485516,0.0010638433,-0.0016748726,0.0009233374,0.0011465724,0.000499594,-0.001151595,-0.00070344366,8.378457e-05
hsa-miR-125a-3p,0.00057261833,0.0012766323,-0.0016540003,-0.0012282527,-0.00081150385,0.0013064446,0.0019400478,0.0006534979,0.00030960166,-0.0009243733,0.0014685949,0.00034352485,-0.0016877967,0.0016724742,0.0003412168,-0.0015396264,-0.00067469466,0.0015482679,0.0012637612,-8.4499945e-05,-0.0017135392,0.0019236302,0.001467203,0.0014179256,0.000778785,-0.0009763674,0.0006320479,-0.0003291805,-0.0008940606,-0.00080361485,0.0006565212,-0.00027943682,-3.645895e-05,-0.0001977759,0.00085010286,0.0010350621,-0.0014722138,0.00018302351,-0.00028447236,-0.00063209096,0.0018231364,0.0012802242,0.00033987407,-0.0016390126,0.0009911736,-0.0014976563,4.1589607e-05,0.00085437787,-0.00014521438,0.0010746915,-0.0016714397,1.0216609e-06,-0.00051641697,0.0009083096,0.0016046325,0.001916771,0.00050954404,-0.0015543563,-0.0018461444,0.0014020789,-0.0010492193,0.0006625522,-0.0010527568,-0.0018040019,-0.0019430632,-0.0015148117,-0.0014675732,-0.0004460154,0.0017927673,-0.0013684403,-0.0013182256,-0.00026065367,0.0014925431,-0.0014755059,-0.0015673477,-0.0017706932,-0.0017397156,0.00038737012,0.0015197082,-0.001048353,0.00033995416,0.00066713383,0.0009262606,-0.0016206962,-0.00032091548,-0.0018214571,0.0006998591,-0.0007424712,0.0009838713,0.0016474817,-0.00041412038,-0.0008590141,0.0013016637,0.0003457924,-0.0017206189,-0.0014929897,0.0003913578,-0.0012345801,0.000110647175,-0.0007349327,-0.0016903023,0.00036188308,-2.4111592e-05,-0.0019501883,-0.0006370647,-0.000839434,-0.0013058174,0.001133099,-0.0013498212,-0.0012957776,0.00033952156,-0.0006073989,-0.0008771131,0.00016926834,0.00082924566,0.00093186926,0.00022546994,-0.0018825708,-0.0009361851,-0.00023631065,-0.001748018,0.0018315308,0.0016808996,-0.00047273224,0.00043995678,0.0011017537,0.0016375496,-0.0011416499,-0.0009826138,0.0013832636,-0.0018015304,-0.00058638654,0.0010622747,-0.0018878395,-0.00073882984,0.00088999094,0.00046766084,-0.0015319843,0.0011982936,0.00093561853,0.0010294314,0.00089109316,-5.6266552e-05,0.0016582571,0.00023162365,-0.0009953433,0.0007662049,-0.0010698508,-0.0014353001,0.0018151766,-0.00071006664,-0.0011743414,0.00028403732,0.0018773426,-0.001291509,-0.0019021974,0.0012723145,0.0013671403,-0.0015212854,0.00018415647,-0.00068778964,-0.001451016,0.0011016724,-0.00064694474,0.00029344927,0.0016494791,-0.0013995762,9.513344e-05,-0.00034367305,0.0008611167,0.0018214667,0.0016292725,-0.00082548603,0.001474088,0.0007501191,-0.0012503277,0.0006901999,-0.0013247832,-0.00027618348,-0.0006036931,-0.0001888522,0.00028671557,0.0018570321,0.0019513939,-0.00063468073,0.0015623532,-0.00038971263,0.0007220532,0.0019494912,0.00022461056,0.00078808004,0.00073080277,-0.000136532,-0.0011561385,-0.00033288985,-0.00033357576,0.00037414278,0.000991453,-0.0006739659,-0.0016227751,-0.00043368805,0.0011136979,-0.0016481046,-0.0005498723,-0.0010970231,-0.0007854372,-0.0018787393,-0.0015010438,0.0015141263,0.0004904014,0.0004184693,0.0011947781,0.00060591404,-0.000415451,0.00038162083,-0.0018425027,0.0010781419,-0.001698138,0.00043692975,-0.00072003074,0.00030071242,0.0017560208,-0.0008627544,0.0016958318,-0.0012520979,-0.0014637946,3.1737145e-05,-0.0014853342,0.0010553631,0.0015959374,-0.00052079314,0.001408224,-1.2087054e-05,0.0016792247,-0.000480755,0.00033538952,-0.00046165253,-0.00015066331,0.0019298946,-0.0018055207,0.00013026712,-0.0008613997,7.309322e-05,0.0015530821,-0.0014093758,0.0016354967,-7.37611e-05,0.001759172,-0.0015079812,-0.001177117,-0.0013251177,-5.1535084e-05,0.00094529847,0.0015596894,0.0009658276,-0.0010314053
hsa-miR-125a-5p,0.00057261833,0.0012766323,-0.0016540003,-0.0012282527,-0.00081150385,0.0013064446,0.0019400478,0.0006534979,0.00030960166,-0.0009243733,0.0014685949,0.00034352485,-0.0016877967,0.0016724742,0.0003412168,-0.0015396264,-0.00067469466,0.0015482679,0.0012637612,-8.4499945e-05,-0.0017135392,0.0019236302,0.001467203,0.0014179256,0.000778785,-0.0009763674,0.0006320479,-0.0003291805,-0.0008940606,-0.00080361485,0.0006565212,-0.00027943682,-3.645895e-05,-0.0001977759,0.00085010286,0.0010350621,-0.0014722138,0.00018302351,-0.00028447236,-0.00063209096,0.0018231364,0.0012802242,0.00033987407,-0.0016390126,0.0009911736,-0.0014976563,4.1589607e-05,0.00085437787,-0.00014521438,0.0010746915,-0.0016714397,1.0216609e-06,-0.00051641697,0.0009083096,0.0016046325,0.001916771,0.00050954404,-0.0015543563,-0.0018461444,0.0014020789,-0.0010492193,0.0006625522,-0.0010527568,-0.0018040019,-0.0019430632,-0.0015148117,-0.0014675732,-0.0004460154,0.0017927673,-0.0013684403,-0.0013182256,-0.00026065367,0.0014925431,-0.0014755059,-0.0015673477,-0.0017706932,-0.0017397156,0.00038737012,0.0015197082,-0.001048353,0.00033995416,0.00066713383,0.0009262606,-0.0016206962,-0.00032091548,-0.0018214571,0.0006998591,-0.0007424712,0.0009838713,0.0016474817,-0.00041412038,-0.0008590141,0.0013016637,0.0003457924,-0.0017206189,-0.0014929897,0.0003913578,-0.0012345801,0.000110647175,-0.0007349327,-0.0016903023,0.00036188308,-2.4111592e-05,-0.0019501883,-0.0006370647,-0.000839434,-0.0013058174,0.001133099,-0.0013498212,-0.0012957776,0.00033952156,-0.0006073989,-0.0008771131,0.00016926834,0.00082924566,0.00093186926,0.00022546994,-0.0018825708,-0.0009361851,-0.00023631065,-0.001748018,0.0018315308,0.0016808996,-0.00047273224,0.00043995678,0.0011017537,0.0016375496,-0.0011416499,-0.0009826138,0.0013832636,-0.0018015304,-0.00058638654,0.0010622747,-0.0018878395,-0.00073882984,0.00088999094,0.00046766084,-0.0015319843,0.0011982936,0.00093561853,0.0010294314,0.00089109316,-5.6266552e-05,0.0016582571,0.00023162365,-0.0009953433,0.0007662049,-0.0010698508,-0.0014353001,0.0018151766,-0.00071006664,-0.0011743414,0.00028403732,0.0018773426,-0.001291509,-0.0019021974,0.0012723145,0.0013671403,-0.0015212854,0.00018415647,-0.00068778964,-0.001451016,0.0011016724,-0.00064694474,0.00029344927,0.0016494791,-0.0013995762,9.513344e-05,-0.00034367305,0.0008611167,0.0018214667,0.0016292725,-0.00082548603,0.001474088,0.0007501191,-0.0012503277,0.0006901999,-0.0013247832,-0.00027618348,-0.0006036931,-0.0001888522,0.00028671557,0.0018570321,0.0019513939,-0.00063468073,0.0015623532,-0.00038971263,0.0007220532,0.0019494912,0.00022461056,0.00078808004,0.00073080277,-0.000136532,-0.0011561385,-0.00033288985,-0.00033357576,0.00037414278,0.000991453,-0.0006739659,-0.0016227751,-0.00043368805,0.0011136979,-0.0016481046,-0.0005498723,-0.0010970231,-0.0007854372,-0.0018787393,-0.0015010438,0.0015141263,0.0004904014,0.0004184693,0.0011947781,0.00060591404,-0.000415451,0.00038162083,-0.0018425027,0.0010781419,-0.001698138,0.00043692975,-0.00072003074,0.00030071242,0.0017560208,-0.0008627544,0.0016958318,-0.0012520979,-0.0014637946,3.1737145e-05,-0.0014853342,0.0010553631,0.0015959374,-0.00052079314,0.001408224,-1.2087054e-05,0.0016792247,-0.000480755,0.00033538952,-0.00046165253,-0.00015066331,0.0019298946,-0.0018055207,0.00013026712,-0.0008613997,7.309322e-05,0.0015530821,-0.0014093758,0.0016354967,-7.37611e-05,0.001759172,-0.0015079812,-0.001177117,-0.0013251177,-5.1535084e-05,0.00094529847,0.0015596894,0.0009658276,-0.0010314053
hsa-miR-125b-5p,-0.0011827622,0.0005771578,0.00010495144,-8.247048e-05,0.0012854578,0.0016406856,-0.001216654,0.00037978077,-0.00057133904,4.4385204e-05,-0.0007898513,0.0014312654,-0.00096596545,-0.0012272049,0.00053866045,0.0005830375,-0.0009205147,0.0015038764,0.0017185097,6.511272e-05,0.000386643,0.0011645972,-0.0005727663,7.11598e-05,0.0016330748,-0.00035235612,0.0015581504,0.0004966713,0.0012020976,0.0018822814,0.00114154,0.0010274004,0.0011212605,-0.0014209064,-0.0017292866,-0.0018989218,-0.00024545053,-0.00068269426,-0.0016201007,-0.00033946475,-0.00056544656,0.00040292158,-0.00051715516,-0.001840845,0.0019313891,0.001514079,-0.0010534464,-8.6545595e-05,0.0008493222,0.0012371487,-0.00085241185,0.0014550535,-0.0005146563,-0.0002482317,-0.00080539996,0.0016089955,0.00019101542,-0.0015185426,0.0017857479,-0.0012666872,-0.0018507554,-0.00052138825,0.0012250035,-0.0005055368,0.0011980415,0.00010202546,0.0014721847,-0.00024541863,-0.00018674356,0.00117588,0.0014696617,0.0011073789,-0.00096932426,3.5845675e-05,-0.0010066838,0.0014071933,0.00011803047,0.0018731889,0.0014581489,-0.00086200924,-0.0019366216,-0.0013298071,0.0018300451,-0.0004803033,-0.0019044065,0.0012953586,0.0015695884,-0.0017659476,-0.001513875,-0.00036896288,-0.0003711084,0.0010034915,0.0010707725,0.0008990015,0.00018324843,0.00043165358,0.0016079296,0.0011919171,-0.0010547705,-0.0017022702,-0.0017149374,0.001744952,0.0005627738,-0.0003344972,-0.0013844708,-0.0004552257,0.00075929216,0.00073824264,-0.00064447324,-0.0008893807,-0.00191991,-0.0018753133,0.00018689549,-0.0008165387,0.00021279044,-0.0019421134,0.00017889962,0.00086499914,-0.0016269312,0.0019155522,0.00029706256,-0.001883502,-0.0015734562,-0.0013470913,0.0015039542,-0.0010244816,-0.0001620684,0.0019031831,-0.00010156387,-4.1211024e-08,-0.00065675797,0.001115218,0.0015336301,-0.0018793468,-0.0014580428,-0.0014068238,0.0015279881,0.00043274811,0.00030580908,-0.0015999343,-0.0005557755,-0.00012404472,0.0013179977,-0.0019269899,-0.00039901095,0.0004064117,2.3459317e-05,0.0012897493,-9.4411545e-05,0.00093713426,0.0002853959,-0.0019059024,-0.00037995016,0.0004278128,0.0005443385,0.00038317684,0.0019530675,0.0007884002,-0.00013599568,-0.001664417,-7.379323e-05,-0.0014538118,-0.0016443075,0.00089400634,0.0015932615,-0.00035543786,-0.0014519657,-0.000786901,-0.001144358,0.0001975738,0.0018429426,0.0016007647,-4.5725727e-05,-0.0008098348,0.0004018105,0.0014681651,0.0012027055,0.0005448016,0.001113852,-0.0012144079,0.0007505028,0.0009751078,0.0017921908,-0.0012655337,-0.0016976122,-0.0004753,-0.001392191,-0.000598305,3.1735515e-05,-0.0013433169,0.0017287566,0.0014147451,0.0004535769,0.0016843386,-0.0012152641,-0.0014348535,-0.0016273493,-0.00034839753,-0.00016676972,0.00030045235,-0.0012503245,0.00043188804,-0.0013207579,0.001853596,-0.0006665634,-0.0008807137,0.0009518198,0.00032094447,0.0005630909,0.0015813867,0.0013099106,0.0004071861,7.626531e-05,-0.0010236102,-0.0009460711,-0.00061213586,-5.9701735e-05,4.546577e-05,-0.00029946654,0.0011726252,-0.0011888596,-0.0018123427,0.0017706971,-0.0003647703,-0.00082037726,0.0014198073,-0.0005998141,-0.00017033063,-0.0011260803,-0.0018122412,3.7124846e-05,0.001864343,0.0012585437,-0.0016896972,6.3778134e-05,-0.0007786403,-0.0002743838,0.0003278004,0.00048657414,-0.0018559824,-0.0008249206,-1.771946e-05,0.0005052388,-0.0013554741,0.0017386819,0.0008601558,0.00027937442,0.0009516324,-0.0006992646,-0.0008359498,-0.001483697,0.00097442605,-0.0007509473,0.00014310842,0.0005900457,-0.0004126341
hsa-miR-126-3p,-0.0007425471,-0.0017985896,-0.0015516115,-0.0012261128,-0.0011898811,0.0018983912,0.0006374058,-0.0014278889,-0.00032857677,0.0013422307,-0.0007165059,0.0011487363,-0.0005722756,-0.0015622322,0.0015137563,-0.00044104538,0.0010769886,0.00043253088,-0.00031382567,0.0014779507,-0.0012485919,-0.00027815404,0.0018890714,0.0012666085,-0.0005953477,-0.0005809729,0.0017991906,0.0019299954,-0.0009549487,0.00012520212,0.00147358,0.0013224499,0.00079992344,-0.0007351391,-0.00091129297,-0.0013181339,-0.0013487191,3.9095292e-05,0.00049733906,-0.0012911409,0.0015147515,-0.0009711903,0.0009798903,-0.0012060311,0.0010967928,0.0012574457,0.0007753873,-0.0007463312,-0.0018364174,0.0017927312,-0.0019358852,0.00035837456,-0.0018178821,0.0018353697,-0.0017966224,-4.229136e-06,-0.0006699243,0.0008733424,0.001443258,-0.0014929872,0.0013983182,0.0002224592,0.0011563129,0.0017580402,-0.0004594602,0.001131973,0.00038618734,0.00045178994,0.00092593953,0.0013159062,0.0012129082,0.00029240316,0.0005165562,0.0004903476,-0.0010498501,-0.00040840148,-0.0004720023,-0.0008830393,6.872369e-05,-0.0011527184,-0.00073547696,0.0016157157,0.00057249796,0.00081207976,-0.0013915477,0.0015044273,-0.0019318281,4.6174275e-05,0.0004952117,0.001203082,-0.00015503773,0.00072646444,0.0004674103,-0.0011288461,-0.00014804036,0.0003157733,0.0016619596,-0.0018332197,0.0005420167,-0.0013800935,0.00017227978,-8.242403e-05,0.0016044709,0.0015452248,-0.00048758683,-0.00050544017,-0.00027671468,-0.0019447901,0.0017304143,0.00089615514,0.00069149747,0.00035198708,0.00027445285,0.000962907,0.001127935,0.0015878631,-3.1127012e-05,-0.0013799539,-0.0012574927,0.0014233589,0.0015859113,0.0016366658,0.0009934283,-0.0011636072,0.0017468089,-0.0010462683,-0.0014560877,-0.0011079456,0.0014719472,0.0009105345,0.0009543046,-0.0011293234,-0.0017110747,-0.0006752935,0.0018606992,-0.0018805431,0.0016875295,0.0015809736,-0.0002311368,-0.0018081139,0.0012179327,-0.0010270062,0.0005909614,-0.0012660711,0.00010681059,0.0013646455,-0.0008629676,-0.0008334246,0.0011187429,-0.0005608724,0.0017807921,0.00023411657,0.001882703,-0.00015804765,-0.0018433236,0.0005306627,0.0017574267,-0.0005650822,0.0015561918,-0.001932569,0.00045734318,0.001911436,-0.0016075688,-0.0010242757,-0.00086523,-0.00090376264,0.0011416145,-0.00010018598,0.0019287777,0.00032693008,0.0005998416,0.0016029081,-0.0012618965,0.00058320165,-0.0013425588,0.0001157606,0.0006088866,-0.0017763048,-0.00075529155,-0.0019274602,0.00046984246,-0.00043082552,-0.000744142,-0.0017135895,0.00021251873,0.0013078949,-0.0005778284,-0.0015355397,0.0007511566,0.0006615154,0.0016330441,-0.0015065072,0.00011833967,-7.743889e-05,-0.0006953096,0.001331313,0.00040632114,0.0018239515,0.0012464798,0.00050027156,-0.001321366,-0.0019182384,-0.0011779079,-0.0006264056,0.0005813637,-0.00041365507,-0.0011330717,-0.0010859952,-0.00034967042,-0.000861365,-0.00030102383,0.0002846485,-0.0006590957,-0.0013113883,-0.0018650095,-0.0018204013,-0.0016328153,-0.0016543706,0.00018402329,0.00032982416,0.0019306256,-0.0009911393,-0.00022271264,0.00023166463,0.0006150715,0.001532726,0.00093981763,0.0007872309,-0.00068173255,0.0014001597,-2.2651046e-05,0.0018432313,0.0017619245,-0.0008291671,-0.00031065196,0.0006196236,-0.0015892194,-0.00083517085,-0.0019173501,0.0010685634,0.0007025837,-0.0014253578,0.0006914539,-0.0012911791,0.0019509129,-0.00030140043,-0.0012411126,3.5696896e-05,0.0003979376,0.00091474596,0.0019525485,-0.0008589062,0.0004389102,-0.0012591565,9.4554154e-05,-0.0012288792
hsa-miR-127-3p,0.00048102345,-0.0018644759,0.0008053619,0.00038586278,0.0007595881,0.000333291,-0.00039778464,0.0017966866,-0.00027117052,-0.0016031105,0.0015749084,0.00052969484,-0.0017177222,0.0017447367,0.0012976993,0.00034888275,0.0011156586,0.00011072913,1.0905089e-05,0.0010671667,-0.0013876115,-0.0008389475,-0.0016841611,-0.0002648288,0.000956533,0.0016963712,0.00094724586,0.0011843664,0.00033542328,0.0014163263,0.00025975076,0.00030622957,-0.0018200167,0.001799346,0.0014505594,-0.0002133149,-0.00016159611,0.0009728116,-0.0006334102,-0.00013924215,0.0015293616,0.00079828314,-0.0018745081,-0.00093223725,0.00029849145,-0.0014396317,-0.00052963605,0.0010849074,0.0015453061,0.0016500265,-0.00032065075,0.0016816312,0.00034910603,-3.9065955e-05,0.0012590075,0.00022022077,0.0014914845,0.0016131576,-0.0013153662,-0.0003653696,3.770343e-05,0.0018820853,-0.00040914142,-0.0018132031,0.0014239762,0.0012645037,0.000965843,0.0005881102,0.0019326331,-0.00038325763,-0.0009072373,0.0016861737,0.00091537973,0.00028462592,0.0014032605,-9.0240384e-05,0.001196119,0.00024902425,-0.000592847,-0.00091871095,0.00037618796,0.0002592029,0.0011166946,0.00079251686,-0.00017364649,-0.00041628792,-0.0011936849,0.0005348723,-0.0014793333,-0.000623654,0.0013942325,-1.686893e-05,0.0009941033,-0.0019177793,-0.0011045011,-0.0017182551,0.00013255957,0.0016055189,0.00025821594,9.417813e-05,0.00036299694,-0.00025372533,-0.0015983938,0.0007224353,0.0010366389,-0.0018294116,0.0016646192,-0.0013030771,-0.0015362211,-0.0010209983,-0.00066405034,0.00028347666,-0.0016569647,0.0017234206,-0.0006520547,0.00052982545,-0.0007856563,0.00075433054,0.0012353912,0.0013189672,-0.000107009546,0.0013430882,-0.0013490499,0.0016302494,-5.854247e-05,-0.00014177989,-0.0008023002,0.0011539359,-0.0009025474,0.00044675637,0.0003482469,6.547361e-05,-0.0018567026,-0.0006925437,-0.0011228132,0.0014580162,-0.0018316784,-0.0013058794,0.0006957378,-3.7559308e-05,-0.0011890964,0.00010626344,-0.0016733557,0.0019201539,-0.0018345482,0.0013530189,0.0012134372,0.00033228635,0.0015593765,0.0017709911,0.0013940572,-0.00095002644,-0.0011443526,0.0012700071,-0.0008517802,0.0004300177,-0.0009666601,0.0011631146,-0.0013119911,0.000765651,0.0010971883,0.0014656854,0.0016359589,0.0009328283,0.0007267578,0.001498299,0.0018513752,0.0017022416,0.0014340128,0.0017202883,0.0005402884,0.0009434214,0.0015740239,-0.0003350597,0.00070231245,-0.00025614374,-0.001380105,-0.001706444,-0.0002814252,0.0005267353,-0.001415753,0.00011134241,0.0014994435,0.0013060651,-0.00055525557,-0.0010151032,-0.0011340186,0.0014629336,0.00028323103,-0.0013779807,-0.0003059334,-9.310781e-05,-0.00039962016,-0.00034472602,0.0013847561,0.0018985979,2.5858637e-05,0.00020319642,0.0004611716,0.0018872824,0.0007858323,0.0013085671,-0.0014310183,-0.00022049865,-0.00088302686,-0.00077877974,-0.00071491394,0.0010108461,0.00046791718,-0.00033237739,0.0011106685,0.00082220184,-0.0011824565,-0.0013986133,0.0011512651,0.0007958452,-0.0012229962,0.0015611395,-0.0015249618,0.0013548422,0.0016929167,-0.0016900379,0.0004729468,0.0014898009,-0.0006657832,-0.0012281835,-0.0015512243,0.0012838335,0.00016115792,0.00053806603,-0.0010272309,-0.000381851,-0.0009779995,0.0009907675,0.0009877526,0.0012022976,-0.00024104107,0.0011826905,7.2910916e-06,0.0016724949,-0.00057300855,0.0014413644,0.001099772,0.0018381658,0.0018075672,0.0018149847,0.0011185464,0.0011972664,-0.0013868586,0.001587851,0.00036023604,0.0018793531,-0.00094650185,-0.001719767,-0.0016786659,0.0012986399
hsa-miR-1271-5p,7.871818e-05,0.0007100571,0.0004568866,-0.00058226916,0.00037065148,-0.0009794281,-8.959847e-05,0.0014529242,0.0017105318,0.0006447525,-0.0008001693,-0.00049428653,-0.0003522666,-0.0011938629,0.0009876278,-0.0009107132,0.0016922243,0.00028222287,0.000577996,-0.0010570239,0.0017646411,0.0010023476,0.00041569537,-0.0016094728,-0.0006349967,-0.000363474,0.00065345806,0.0019280438,0.0010943688,-0.0010911254,-0.0010473984,-0.0019209126,-0.00082868675,-0.00085777126,0.00034083542,0.0016930234,0.0014367681,0.0004148092,-0.0009008151,0.0015780111,-0.0011780349,-0.001545428,-0.0006372712,-0.0004360258,-0.0007120627,0.0014326745,-0.0012939412,-0.0014836563,0.0019467615,-2.6295194e-05,-0.0005304726,-0.0019302878,0.00013400521,-0.00030470535,-0.001134513,-5.8842474e-05,0.0012335978,-0.0013302781,0.000902619,-0.001603252,-0.0016003656,0.0007767144,-0.0015620402,0.0018656668,7.195142e-05,-0.0019303812,0.0002537137,-0.00021875068,-0.0008725744,-7.497042e-05,-0.0011779983,-0.0007917896,0.0018784094,-0.0010130997,0.0011469619,-0.0008186123,-0.001736627,0.00011431123,0.0019519497,0.0011679644,-0.0008260914,-0.00023755315,0.0014549633,0.0013649643,-0.0003411367,9.473134e-05,-0.0003994942,0.00012499024,-0.00096036086,0.00017655268,0.0011046173,0.0014740576,0.0009019915,0.0013010998,-0.0007445635,0.0013844469,-0.0017438716,-0.0012185951,0.00038278848,0.0012281113,-0.0019161795,-0.0009802029,-0.00026519806,0.001055751,-0.00022515084,0.0018740778,-0.00096338254,-0.0010719909,0.0016741641,0.00066120736,-0.000851635,0.0005287477,-0.0005087706,0.0005176633,0.00046844035,-0.00073369767,3.323471e-05,-0.0018958652,0.00060091447,-0.0008710079,-0.0008684852,0.0012814098,0.0018814972,-0.00016142859,0.0001984057,-0.0004921963,-0.0014006604,-0.0008358286,0.00082717254,0.0013575079,0.0017559333,0.0013656188,-0.0006797395,0.00096690515,0.0012993375,0.00047400105,-0.00023101177,0.00088358624,-0.00023129361,-0.0014198392,-0.0004687953,0.0015763259,0.00086824456,-0.0014606101,-0.00087699515,0.0014848332,0.0014857689,0.00074855797,0.0007033204,9.395578e-05,0.0015328282,0.0017200452,-0.00084304286,0.00045751268,-0.0010534725,-0.0015933958,0.0015435528,0.001486839,-0.0006244499,0.0010060598,0.00053772726,-0.0010716212,-2.48031e-05,-0.0014653055,0.0016634022,0.0013375157,0.0011510155,-0.0008038315,0.000786694,-0.0019407518,0.0017587468,-0.0011721522,0.0014393909,-0.0013617555,-6.0746912e-05,0.0017723336,-0.00028810883,-0.0011402685,0.0017002493,0.0011075074,6.2934123e-06,0.000931798,0.0017982544,0.0001659838,-0.0013962482,-0.0006857171,-0.0017511344,-0.0011614731,0.0012473515,-0.0014967299,0.0010427872,-0.0003578642,0.0014598472,-0.00063143414,0.00025858195,0.0009854352,-0.00042728148,-0.001190606,0.0007543287,0.0010526713,-0.0014559089,-0.0017638907,0.0012073766,-0.0011467584,-0.00026559085,0.00018396345,0.0003210723,0.0015778893,-0.00096531,-0.00087925815,1.5594997e-06,-0.00030209997,0.00058998726,-0.0016155546,-0.00071718113,0.00066042226,-0.0004210699,0.00030202675,-0.00026232353,0.0018183158,0.0015979207,-0.00045223557,-0.0011083657,-0.00119428,-0.0009720444,-0.0008689116,-0.0004912267,0.00028266385,0.0015992178,0.00044424995,0.001431051,-0.0018616705,-0.0004087038,0.0018175298,-0.00080562837,0.00078422064,0.0016443725,-4.6912697e-05,9.099371e-05,-0.00091701525,-0.00019987603,-0.000647392,-0.0012506694,-0.00086775026,-0.0018352608,-0.001046478,-0.0015646948,-0.0011566875,0.0007597378,-0.00012078881,-0.00048328866,0.0014975832,0.0007070182,-0.0015367201,0.00023601926,0.0017899126
hsa-miR-128-3p,-0.0012460845,-2.7621863e-06,-0.00019493268,0.001020435,0.0009718428,0.00011587702,0.0015786802,0.0009244422,-0.0010576178,0.0018239396,-0.00017810985,-0.0009468121,0.00031867507,-0.0015831264,0.00012759352,-0.0016144901,0.0011641751,0.0015324845,-0.0015571956,0.0011614936,0.0010603969,0.0013886839,-0.00014273275,-0.0018460965,-0.00095493894,-0.001041915,0.0016996101,0.0018301008,0.0010184348,-9.561819e-05,-0.00030228763,-0.00043607783,-0.00032490783,-0.0017364746,0.00051296176,0.0013246809,0.0008405037,0.0012634222,-0.0010060002,-0.00056857185,0.0017648845,-0.0019367709,0.001324896,0.0011256051,-0.0010844799,-9.383727e-05,-0.0015635896,0.0003403325,-0.00089067523,0.0017122878,0.00064159394,-0.0003470868,-0.00088715996,0.0016653428,0.00021272828,-0.00026530726,0.00045132358,-0.0010302297,0.00084048347,0.00052410574,-0.00020074088,-0.0019506534,0.00041998783,-0.00058427884,-0.0017234869,-0.0005793363,7.3979376e-05,0.0006768771,-0.0014948096,-0.0016926125,0.0019369991,-0.0014601634,0.00065761874,-0.0007086614,-0.00018171407,2.010772e-05,0.00044572726,-0.00012352597,0.0005609682,0.0017366209,0.00029897247,-0.0018196442,-0.0004231769,0.00069754524,0.00068677566,0.001304076,-0.001434143,0.0012047547,0.00077586994,0.0012940238,-0.0002278802,-0.0019235634,0.0011976017,-0.0006731502,0.0009843332,-0.0019348129,-0.00029704708,5.467795e-06,0.00094280834,0.0010307406,-0.00010543945,-0.0017596761,-0.00088476774,0.0009875055,-0.001945705,-4.6568573e-05,0.0005958788,0.0006669832,-5.7313242e-05,0.0017399411,0.0013603666,0.00061668456,-0.0015327221,0.0011670424,0.0016910227,-0.0013592149,0.00087685604,-0.0009852117,-0.00024650362,0.00038553542,0.0012501283,1.858105e-05,-0.0018258714,-0.0012032742,-0.0017799342,-0.0005682423,-0.0006884362,0.0012002599,0.0014013092,-0.0008007467,-0.0003899117,-0.0015566399,0.0014567676,0.0015428746,0.00072018686,-0.0017560422,0.00034418562,0.001170404,0.0003591664,0.00051358994,-0.0014327087,-0.0009384565,-0.001137702,-0.0011660885,-0.0018773958,-0.0005370062,-0.0009635892,-0.00092343614,-0.0015952595,-0.00026164402,0.00075214077,-0.0010868565,-0.0012215604,0.0012897346,-0.00014821521,-0.0017833451,-0.0002680599,0.00083978265,-0.00073646905,0.00044337148,-0.0012110106,-0.00023066974,-3.5638455e-05,0.0017041238,0.0017724182,-0.0013203379,-0.0016897414,0.0008052634,0.00096659316,-0.001618563,0.0018448178,-5.6155026e-05,-5.49549e-05,-0.00016115583,0.00046341913,0.0017198552,-0.0017238996,-0.0012962422,-0.00034918718,-0.00039071264,0.0004462276,0.0015997805,-0.0014269,0.0019272922,-0.0009021538,-0.00020989822,-0.00075041375,-0.0006190336,-0.00017115439,-0.001233445,-0.0010075918,-0.0012520826,-0.0011683246,0.0014865336,-0.0011708146,-0.0009742646,-0.0006153821,0.00057546864,-0.00022315222,0.0011533687,-6.6037755e-05,9.424612e-05,0.0015695174,-0.0018605101,-0.0012807306,-0.0015373962,0.0003580877,0.0005567209,0.0017186124,0.0015621667,-0.0016303256,-0.00047330302,-0.00089126034,-0.0011176204,-0.00049456744,0.0007208523,0.0015263262,0.0018560346,0.0018203333,0.00052698166,-0.0006180332,0.0015761487,0.0011271494,-7.29427e-05,-0.0015235617,0.0019507296,-0.0003012492,0.0012511993,0.00025639543,-0.0017228703,0.0010588896,-0.0013032758,0.0017662318,0.0011931013,0.00085402234,-0.0011157319,-0.0013358541,-0.0011221557,0.0015903024,-0.001006423,-0.00090641784,-5.1067676e-05,-0.000737209,-0.00069765025,-0.0016478299,0.000869849,0.0008656371,-0.0008881757,0.001461447,-0.00023891625,0.00079673156,0.0019415165,0.001835407,-0.00027273037,-0.0008877622,0.00015762215
hsa-miR-129-5p,0.00074444106,0.00060360157,0.0004119028,-0.0008789564,0.0018144823,-0.0014683817,0.00020489981,-0.0018207843,-0.0012032792,-0.00010138878,0.0008510866,-0.00032879924,0.0015237886,0.0009560499,-0.0014945008,-0.0012902936,-0.0010271221,-0.0013998095,-0.0009962823,0.0014617275,-0.0014564015,0.00045396248,0.0002705506,0.0004690315,-0.00036736426,-0.0016403651,-0.0014196609,-0.0015280499,-0.0013466309,0.00082592363,-0.0006548272,0.0014945322,-0.0009937126,0.00057619694,0.00028115604,-0.00023516861,0.0018715619,-3.798178e-05,0.0014653415,0.00018275669,-0.0013756526,-0.0013462419,0.00043159723,-0.0003183164,0.0019332878,0.00034380774,-0.0011882398,-0.0005218828,-0.0016380472,0.0017563899,0.0010993727,-0.000991842,-0.0013637414,0.0017307214,-0.0016103449,0.0011794267,-0.0016933936,-0.0007898675,0.0019135005,0.0011479331,0.00059305155,-0.0019470401,-0.0014707603,-0.0011834395,0.0008812074,-0.0017956366,-0.00023961777,0.001399539,-0.0006854265,-0.00020402228,-0.0007377481,-0.00047053501,-0.00032495114,-0.0014271617,-0.0011532512,-0.0008157252,0.0013783961,6.875093e-05,-4.270731e-05,0.0009949296,-0.00075868715,0.0007514502,0.0017650113,-0.00082059007,0.00030441233,0.00032023597,-0.001125074,0.0016849441,-0.0015681222,-0.0015597863,-0.0009932852,-0.0018699059,-0.001706623,-0.00064010965,-0.0017443323,-0.0017802271,-0.000688337,-0.0016943869,0.0007727074,-0.0014400407,-9.045366e-05,-0.0017896334,0.00029348535,-0.00058523193,0.0005073915,-0.00028114952,-0.0018721535,0.001397063,0.0017896288,-0.0007755592,0.00026081782,0.00043747528,0.0016151122,0.0017188461,-0.00019735249,-0.00061645976,0.0019473531,-0.00012106658,0.00092909695,-0.0018220588,0.0009620383,-0.0014802739,0.0007182788,-0.00111664,-0.00022723584,-0.0008854199,0.0013696412,-0.000996214,0.00087729096,-0.0014329831,0.0013985506,0.0011742369,0.0010823973,0.00012559141,0.0012776577,-0.00055163493,-0.00087173085,0.001207181,0.0013599191,0.0010830327,-0.0002171261,0.0016922846,-9.2347385e-05,-0.001372793,0.0007736285,0.0011969048,0.001571523,0.0008127175,-7.449812e-05,0.0016646073,5.8285426e-05,-0.0012994942,0.0018917634,0.00089176395,0.0008403291,-0.0005429005,-0.00041202782,-0.0011590201,-0.00040228094,-0.00033852714,-0.0014929767,-0.0010330987,-0.00030735927,0.0001920322,0.001503886,0.00092047476,-0.0018713328,-0.0013801856,0.000997643,-0.0013206931,-0.0006314592,6.670947e-05,-4.1658874e-05,0.0011598568,0.0015757189,-0.0012001861,0.0012016722,0.00085218786,-0.0010003059,-0.0006729228,0.0012205227,0.0018643653,0.0018221729,0.0011934966,-0.0004577632,9.880611e-05,0.0015377298,0.0018988606,-0.001357608,-0.00021321094,0.00013322616,-0.0005592557,0.00043125683,0.0018405202,-8.257269e-05,0.00086810626,0.0019281176,5.8495905e-05,0.0010511049,-0.00030875776,0.00035047857,-0.0006621316,-0.0011390627,0.0011956703,-0.0015919874,0.0013485225,-0.0016765156,0.00012040301,-0.0018864853,0.00021912134,-0.00031884306,0.0014491952,0.00085199624,-0.0012189285,0.0016157292,-0.000872319,0.0012513178,0.00035248534,-0.00019265257,-0.0018846025,-0.00040215056,-0.00015076762,0.0012450505,-0.00019614783,0.000547118,0.0016915558,-0.00034388853,-0.0019387553,-0.00045773294,-0.0012164846,-0.00096584496,0.0012580035,0.0019090334,-0.0013273186,-0.0018919776,-0.0011602191,-0.0012020716,0.00092447526,-0.0019263295,0.00022214791,-0.0019267387,0.00040049455,0.0017107902,-0.0011740155,-0.00024308253,-0.00041230302,-0.0016229063,0.0012342471,0.0013285999,0.00025923108,-0.0017249048,-0.0014777421,0.0019380306,0.0006799875,-6.743509e-05,-0.00037153042
hsa-miR-1297,0.00026386417,-0.0013448056,2.7084723e-05,-0.00128437,0.0006959827,0.001698012,5.554175e-05,-0.000104394276,-0.0005095452,8.2837185e-05,0.00055646896,0.000101432204,0.0009235409,-0.00084348756,0.001449768,9.0381596e-05,0.00043635396,0.0004969074,0.00017930078,-0.0005076799,0.0016747334,0.0016189914,0.0007637765,0.00123894,0.0018674606,-0.000938838,-0.0010803246,0.00035472214,0.0015562014,0.0005211362,0.0017110698,0.00044300756,0.0007590514,0.0015830041,-0.0017576285,-0.0016523141,-0.00069433067,0.0017308882,0.00028988975,-0.0016456295,-0.0016741267,0.0011436145,0.00046341517,0.0011520926,0.00081554125,-0.0008353259,0.0006876574,0.0017803079,0.0009850473,-0.0007674858,0.0012999722,-0.0013534322,-0.00051739963,0.000693155,-0.0019152425,-0.00043980044,-0.0018081684,0.0013652227,0.00074532675,0.0016999382,-0.0004532179,-0.0006371682,-0.00022630685,0.0006051182,0.00012726686,-0.0007495533,0.001932729,-0.001569496,0.0005567386,-0.0005820147,0.00069823815,0.0017920004,-0.0005950546,0.0017735045,0.0010767798,-0.00030697673,0.00069880416,-0.00046726037,-0.001832491,0.0011160097,0.0016099461,3.219815e-05,-0.0015827203,-0.0016752552,-0.0017230385,0.0006748007,-0.0008287921,0.0008073675,0.00064070546,-0.0008662427,0.000481321,0.0016600834,-0.00028703583,-0.0018290645,-0.0012242754,0.0014833559,0.0013049161,-0.0005718599,-0.00053524075,-0.0016748137,-0.00048330263,-0.0011922708,-0.0008844113,-0.00097448693,0.00023147953,-0.0016980225,-0.0006518841,-0.0017309004,-0.0017730913,-0.00041331176,-0.00069858215,6.8764435e-05,-0.00061451725,-0.000511804,0.0005621712,-0.00091391127,0.0011993765,0.0018528865,-0.00058361934,0.001393941,-0.0010494853,-0.0001036044,-0.0019384872,0.00026351656,8.443813e-05,0.000664755,0.00027136505,-0.0018073941,-1.4564954e-05,-0.0015417071,-0.0016734406,-0.0004288156,-0.0016075288,-0.0009194972,-0.001608232,0.0012642569,-0.0008867985,-0.00019141554,-0.0005093247,-0.001377619,0.0017800995,0.0013268047,-0.00088382023,0.0013476617,-0.0010998514,0.0008416285,-0.00033614505,4.5987777e-05,0.00026642065,-0.00094836275,0.0014825608,0.0015249285,-0.0008663214,-0.0017102621,0.00011934154,0.0014338396,0.000111759175,-0.00089224475,-0.0017347294,-0.0010553829,0.0013166196,0.0018191207,0.0015484081,0.0013804457,-0.0012189241,-0.001032444,0.0012080756,-3.4611905e-05,0.0004988052,-0.001007813,0.0013073378,0.0019213082,-0.00038663694,0.0015005618,0.00043953978,0.0011468185,0.00024067424,-0.0008724757,0.0007825573,-0.0015349407,-0.00082674203,-0.0001062362,-0.00040784653,9.2174625e-05,-0.00037853606,0.0017741667,-0.0015535308,-0.0013429453,0.0007953369,0.0012477336,-0.0005954347,0.0017851782,0.0013505111,0.00056370324,-0.0016998781,0.0016803634,-0.0008447558,-0.0017613368,0.00018332875,-0.00047441525,-0.0013874741,-0.00029232365,-0.00043995492,-0.0008041322,-0.00082758034,0.0012334355,0.0004095675,0.001195817,-3.7121354e-06,-4.8285e-05,-0.00031598075,-2.8967741e-05,-0.0010865224,0.00016104244,0.00049995095,-0.0008661692,0.0013830333,-0.00060816633,0.0015492623,0.0012003612,0.00038406905,0.0005934264,-0.0008735022,-0.0011405959,0.00025742105,-0.0009857959,0.0007961679,0.00012958748,-5.402253e-05,-0.0011701477,0.0005708758,0.0017548765,0.0005596196,-0.0011822586,-8.487434e-05,0.001523463,-0.0015647034,0.00089848205,0.0018860011,-0.0012278906,-0.00063527294,-0.0017781903,0.0012406535,-0.0012803043,-0.0018196354,0.0018787563,0.0017572907,-0.0005365816,-0.001896018,-0.00073826953,-0.00011183962,0.0015129093,-0.0018869943,0.0008744609,0.0015762525,0.0016213728
hsa-miR-130a-3p,-0.00013543665,0.0016441727,-0.00078986376,0.00015162281,0.00080365106,0.0019020741,-0.00049011153,0.00045977952,-0.0016615735,0.0019049381,0.0016995938,0.0019526242,0.0015558633,-0.0007011116,0.0005243479,7.178262e-05,0.0015302033,-0.0005660731,0.0004912629,-0.0012901651,0.0004018126,-0.0017612536,-0.0018291982,0.0014944142,-0.0011720303,-0.0011304154,0.0012694271,-0.00054137653,-0.0017345403,0.0003388878,0.0019514277,0.0010466804,0.00085939793,-0.0005693493,-0.0015050756,0.0017314011,0.0015631295,-0.00058677944,-0.0005023682,0.0004452914,-0.0017469206,0.00072600134,-0.0001762762,0.000832933,-0.0010546038,0.0018659474,-0.00037631288,0.0012611058,0.00072290096,0.0018161687,-0.00019373337,0.00059329486,0.0014640449,0.0006160785,0.00018976931,0.00015142956,-0.00034544792,0.0018389157,0.0014796155,0.0004104874,-0.00046975922,0.00011855271,0.0005293167,-0.00032315007,-0.0014047446,-0.0014342989,0.0011539103,0.0012717117,0.0011411516,0.001394172,0.0014360624,0.0006327864,-0.000750158,-0.00106028,-0.00059825147,0.0014502783,0.0018918314,0.0012158654,-0.0016103513,-0.0016506345,-0.0017209003,0.0010003138,-0.00078798586,-0.0018612121,0.0019100457,0.0017667802,0.001536397,-2.4292036e-05,-0.0013578185,0.0013703383,0.001850581,-0.0018473902,0.001056019,0.000664399,0.00071726926,0.0018312256,-0.0003328817,0.00078098895,0.0017752675,-0.0012728652,-0.00080505793,-0.00077640126,0.0010087355,0.0018541275,0.00044465205,0.00017473474,0.0005722528,-0.0013227044,-0.00034195045,-0.00064705114,-0.0012928569,-6.874604e-05,0.00011416385,0.0016815332,0.001177402,-0.0019529072,0.00044493983,0.0018951516,-0.00053685333,-0.00033766334,0.0013886956,0.0014203624,0.00044448185,-0.0018131633,0.00078259944,0.0007303201,0.00082384236,0.0016975277,7.13896e-05,0.0015599355,-0.0011133503,-0.0010089868,0.0002744377,-0.0016389197,0.0013377513,0.00038074865,0.0015676229,-0.0008560617,0.001846934,2.356642e-05,0.0004330671,-0.00069935026,7.817289e-06,-0.0008847115,-0.001702944,0.0008944392,0.00082308706,-0.001435664,9.467779e-05,-0.00067818735,-0.0009653971,0.00063505047,-0.0016216622,-0.0019261311,-0.0018307371,-0.0019495358,-0.0011878328,0.0013984183,0.00086421566,-0.0007000326,-0.001580382,0.0016883407,0.0010161938,-0.0019276936,-0.00010019238,0.00076043047,0.00057600136,-0.00081362086,0.0017561335,-0.0011169587,-0.00012416218,0.00024793483,0.00065930746,0.0008223583,-0.0017584566,-0.0018780343,-0.0009793005,0.001878344,-0.00087782147,0.00014902488,-0.00064386474,0.00044273678,-0.0013024695,-0.0018003236,-0.00067164865,-0.0015755799,-0.00029194204,-0.0018289972,-0.00076030544,0.00029807887,0.00039003533,4.5017805e-05,0.0017127492,0.00071300426,-0.0007451953,0.001868441,0.0018303269,-0.001349755,-0.00043862977,0.0016891877,-0.0018985086,-0.00059348345,0.00053691654,-0.0018639433,-0.0010406432,-0.0010983822,0.0003780718,-0.0017551193,-0.0008392116,-0.0002842683,0.0010223647,0.0018816227,-0.00034325907,-0.0008074462,-0.0002629459,-0.0008000891,0.0007286526,0.00162342,0.00025939126,0.0012715501,0.0019395822,0.0015649218,0.0019023838,0.0005145038,0.0010891459,-0.0008656812,0.0002457262,0.0007334724,0.0003493887,-0.00092378876,-0.0017692999,0.0009122193,0.0017444387,-0.00017100805,-0.0016824999,0.0014868381,-0.0009262286,-0.0002020346,-0.0008850752,0.00019228272,-8.6304964e-05,-0.0010924316,-0.00014046067,-0.0005942822,-0.0014649506,-0.0009139414,0.0012580061,-0.00081644964,0.00047496846,-0.00049395626,-0.00027143897,0.0016260317,0.0006420219,0.0014702049,0.0010993625,-0.00015821657
